{
    "sizes": [
        6,
        30,
        30,
        3
    ],
    "biases": [
        [
            [
                0.8090030958139005
            ],
            [
                0.4497160089562584
            ],
            [
                0.027286636855834486
            ],
            [
                -0.8292638826474097
            ],
            [
                -1.3097656233221118
            ],
            [
                1.2514528454340168
            ],
            [
                0.20783967490576954
            ],
            [
                -0.37116301698318704
            ],
            [
                -1.1365482954450319
            ],
            [
                0.13911796923158112
            ],
            [
                1.648738364903961
            ],
            [
                -0.9361469531770693
            ],
            [
                -1.935077687664333
            ],
            [
                1.158899305792517
            ],
            [
                -0.9364899223787388
            ],
            [
                -0.255927541947292
            ],
            [
                -0.270991895541258
            ],
            [
                -0.48552887805670025
            ],
            [
                0.8800053342337564
            ],
            [
                1.4472811027739982
            ],
            [
                1.3282804595106334
            ],
            [
                -1.3973882763641665
            ],
            [
                0.27310393186510445
            ],
            [
                -1.5585658210899584
            ],
            [
                0.7696037531736911
            ],
            [
                -0.3344726695697214
            ],
            [
                1.714151166082078
            ],
            [
                -0.40617776503524594
            ],
            [
                -0.7892958116084154
            ],
            [
                0.9101916393501055
            ]
        ],
        [
            [
                -1.3924229631005993
            ],
            [
                2.213225660610751
            ],
            [
                -0.1921970485286968
            ],
            [
                0.3039142634881458
            ],
            [
                0.5822951517958311
            ],
            [
                -0.2980299179568993
            ],
            [
                -1.5100104031479313
            ],
            [
                1.8332404194653822
            ],
            [
                0.9167219813987353
            ],
            [
                -0.27214281629684584
            ],
            [
                1.1273844740574601
            ],
            [
                -1.1674046972301848
            ],
            [
                0.09811125917401672
            ],
            [
                -0.5989011026220469
            ],
            [
                0.9769977861446282
            ],
            [
                -1.674059479207087
            ],
            [
                -1.1018931046130696
            ],
            [
                -2.9446531599397923
            ],
            [
                -0.4729922358867148
            ],
            [
                -1.062703916143098
            ],
            [
                1.4219687574311841
            ],
            [
                -0.41804170375041744
            ],
            [
                2.0498203416464365
            ],
            [
                -0.7168524139525985
            ],
            [
                0.5063822446496546
            ],
            [
                -0.29148317359438136
            ],
            [
                0.6571312378662635
            ],
            [
                -0.6079046390654358
            ],
            [
                1.5259691053401445
            ],
            [
                -1.2015324238362586
            ]
        ],
        [
            [
                -0.13666867712324088
            ],
            [
                0.6269783665467001
            ],
            [
                0.7820151001156302
            ]
        ]
    ],
    "weights": [
        [
            [
                -1.032169970934697,
                0.218926749723905,
                -0.9980777625393193,
                0.5078188479514528,
                -0.5630684218606543,
                0.8602229357445957
            ],
            [
                0.1476568528580822,
                0.7348985750163382,
                -2.911723103392849,
                1.8274577134173686,
                0.6764329025289156,
                -1.499055714298807
            ],
            [
                1.2953721968765213,
                -1.7153868244647694,
                -0.5962542279659193,
                0.9478363806093072,
                -2.021482134706262,
                0.1605604192105222
            ],
            [
                -1.3865042162017676,
                1.2396446692883012,
                1.2447448517072275,
                0.006306184633956973,
                1.647815415447751,
                1.273564836141971
            ],
            [
                -0.26599425903030954,
                0.7255213886960932,
                -1.7327600069805114,
                -1.2476341917264806,
                -1.5453289737709655,
                1.1455921121965282
            ],
            [
                1.6398312472561867,
                -0.7651819570117574,
                -0.7791053269571584,
                0.7486724891946404,
                -0.4195570152809411,
                0.09171739423351125
            ],
            [
                -1.068345262046424,
                0.6738123086095658,
                0.009757980306432658,
                -0.3109155079163943,
                -0.1433746523924981,
                1.8819093081582132
            ],
            [
                -0.2979797898640126,
                0.16835824361159063,
                1.7192877092978804,
                0.3556252724852331,
                0.9147941772753543,
                0.14828545147273015
            ],
            [
                0.5439520980000725,
                -0.31995091762239936,
                0.7045480834460255,
                0.2583934329769104,
                0.8153341451055969,
                1.6315486874660436
            ],
            [
                -1.7246933489136749,
                0.6020381766257538,
                -0.28873686284723044,
                1.0028133132258827,
                -0.8565146714905275,
                -0.40590849850383065
            ],
            [
                -1.419775522892093,
                1.786998627900167,
                1.0690555655490195,
                0.2738017837325054,
                0.7856307778556404,
                0.6612873044917648
            ],
            [
                0.2179778804272977,
                -1.638502549429611,
                0.6759730200535659,
                0.1110526161726505,
                -0.3871510486369709,
                0.46116880943106814
            ],
            [
                0.4256377416368983,
                0.4292008731866829,
                0.012671717365515039,
                0.6261370231364161,
                0.5590038814983173,
                0.41540817559011045
            ],
            [
                -3.609889213045737,
                1.3332020328490846,
                -0.6368925149556284,
                0.7656242928950772,
                -1.2225236597688418,
                0.8403252491305764
            ],
            [
                -0.08279529287244113,
                -0.1721560621682572,
                0.37169318009749885,
                -0.40166725830155536,
                0.16030985038364728,
                -2.2657838871655827
            ],
            [
                -0.680363574017607,
                0.5147968260894442,
                -0.5637036369620204,
                0.0442770538268317,
                0.504964423476861,
                0.10363323804582131
            ],
            [
                0.19669005262447803,
                0.34985324227334724,
                -0.13386347666983806,
                -0.44169577139323085,
                -1.1187676463959288,
                -1.7611009363869856
            ],
            [
                0.4487097340073193,
                -1.259102381214617,
                -0.704534343884794,
                0.5114031571469687,
                -0.6547110537731482,
                -0.47526648250741016
            ],
            [
                -2.426039459361403,
                0.3151075304098831,
                -1.2119606381842951,
                0.9383038896671083,
                -0.18719151356237368,
                1.434186664543471
            ],
            [
                1.166125711574248,
                -0.20748534421957135,
                0.36875759358886034,
                0.7334103450341634,
                -0.5516461347732815,
                0.5678380888237188
            ],
            [
                -0.6443370223132805,
                1.9681559968433398,
                0.012284864315018752,
                1.7431264699643005,
                0.16593315446709056,
                1.3967596693174829
            ],
            [
                0.7233049248948723,
                -0.038264465628619765,
                1.7934308971133148,
                -0.004644398491833511,
                -0.645407661853592,
                -0.317517284885847
            ],
            [
                0.9182962784363669,
                0.3588502041635889,
                -0.2799075265560454,
                1.2520915867950075,
                -0.16439249411865692,
                2.121863758591338
            ],
            [
                -0.8971432422921733,
                -0.12904995821175863,
                -0.18304075625231261,
                -0.7875842121464373,
                -0.3209594870293612,
                1.6916729945268745
            ],
            [
                -0.19160563792993424,
                0.48178576009203694,
                -0.1398930462592225,
                0.6483603795441206,
                0.2752733727438479,
                0.10662172958697046
            ],
            [
                1.0354223812653636,
                -2.091803764316277,
                -0.7064388448866984,
                -1.0371074164597127,
                0.3722129869607551,
                -0.5055106549156297
            ],
            [
                -0.8887677713376922,
                -0.9974396024630544,
                -0.4867429895285123,
                1.28585290632445,
                0.3421682277380854,
                -1.4716516461777664
            ],
            [
                0.3788883871433992,
                -0.06819646468039135,
                -0.4665762800389778,
                0.20954776215613596,
                0.4970383694574867,
                0.36683376966024417
            ],
            [
                -0.9961452834352276,
                0.43901331559767814,
                -1.2723127002685444,
                1.1757236339324306,
                0.7151258463153808,
                -1.5682148685660093
            ],
            [
                1.7497258748217162,
                -0.7752847039431835,
                -0.23001195251026627,
                -0.04587121630638054,
                -0.9545063807691221,
                -0.7630800321172806
            ]
        ],
        [
            [
                0.3527833539838131,
                0.04913290258551827,
                0.17792722768764088,
                -0.3319268287017636,
                -1.4726921372127435,
                0.7449810932573545,
                0.8997424365058001,
                0.2647186097572799,
                1.4993411607346985,
                1.6710211151885073,
                0.48541349101591064,
                -1.1084260354086735,
                0.9253571851679059,
                1.29301467947113,
                -0.01095360491310162,
                -0.5533567128924,
                0.549032870689307,
                -0.8322439346319641,
                0.35019516356753677,
                -0.7964679854045369,
                1.086535300131385,
                1.507572805857874,
                0.9955593211181355,
                0.4980967360362397,
                -0.5957481156084589,
                0.1515481823454339,
                -0.07903987820784387,
                0.9785143447479042,
                0.260129370335434,
                -0.8065031571108247
            ],
            [
                0.7045225123819514,
                2.005240866772257,
                0.5094043670985249,
                0.19298393892278687,
                0.7572613680023725,
                0.16870533607837518,
                1.1016766175614676,
                -0.8085461906630578,
                -0.7389453752815374,
                0.21462073298863504,
                0.5849503136482509,
                0.9057493337792931,
                0.6422246799578637,
                0.17114865756903808,
                0.1744980098941741,
                1.5355093491780338,
                -0.6997820486305796,
                0.35555350417890697,
                0.4367718777756738,
                -0.6091004960424721,
                -0.6206033199431852,
                -0.8518964115654399,
                -1.33922026050402,
                0.42483488360193206,
                -1.625184748814935,
                -0.02822381459716105,
                0.4259269523388663,
                1.6810734892128143,
                1.5364680342436279,
                -1.2576739820079215
            ],
            [
                -1.2115431818397704,
                1.3368385155515239,
                1.124358082672012,
                0.4324389965680962,
                -0.9655312528858512,
                0.36936134473633986,
                -0.5733059769957726,
                1.3449786497808776,
                0.2972102222312917,
                0.6825061759781259,
                -0.9028577638335445,
                0.4549077109444756,
                -0.3129769516906827,
                1.0524125093101262,
                0.27275239439725113,
                0.18304845455052554,
                -1.0536661982983002,
                -1.119160924952126,
                1.510375238525473,
                -0.07521973235693487,
                1.1698524344462882,
                -0.06600416933938574,
                1.7074422187613383,
                1.1814577306744118,
                0.3287279462383423,
                -0.33594416558583146,
                1.7997321412869463,
                -0.31905347279814417,
                -0.6703505562370579,
                0.3964946930104217
            ],
            [
                0.6001344745726236,
                0.046062817226548196,
                0.8181156753728016,
                1.0655779589169592,
                -0.49300294665007804,
                0.8665266474836779,
                0.2774030061720992,
                1.2655572071694903,
                0.5951171158467318,
                0.6254684686704436,
                -0.3187684862822723,
                0.25246755956324785,
                -1.2238208827535204,
                0.16521636987821975,
                1.3684153461297954,
                2.59488824983137,
                -0.2879840103992987,
                1.1907607420443143,
                -0.16329219577027085,
                -0.8532818186718765,
                -0.325461995055471,
                -1.2509928089091964,
                -0.35156850310142107,
                1.1132367743611113,
                -0.2039322354479394,
                -2.010720472915942,
                -0.2972227076182724,
                0.9142127887826966,
                -0.5880044457054727,
                1.3911985456460338
            ],
            [
                -1.6065919354385194,
                2.595431516571672,
                0.13601398408043594,
                0.45291784154085796,
                0.38657049960038503,
                1.2675760900371988,
                -0.1757416045909526,
                1.39740015337282,
                -0.21747264860104742,
                -1.4741822606316022,
                0.2501336677988142,
                -0.7032729335844086,
                0.12976503412247148,
                1.01787047212489,
                1.685872119725011,
                1.0946753087548171,
                -0.3223142085776921,
                0.3991510887443352,
                -1.6148805989168087,
                0.22050541559501569,
                -0.5820910969929377,
                -1.0378553610152856,
                1.4639301686020978,
                -0.07026084006767641,
                0.7303151792840799,
                -0.4410239328833087,
                -0.725676377612593,
                -1.0174604448733398,
                0.9765530203110878,
                -1.1050049238062027
            ],
            [
                0.34028730785592926,
                -0.9610331341026459,
                0.8017342740940331,
                1.111498244157653,
                0.06785217403850312,
                -0.1274141474810969,
                -0.19301497602827475,
                -1.0702704176762083,
                -1.7559191165095733,
                1.0256317071094758,
                -0.8243297584632899,
                0.6652015694235075,
                0.18876554190797074,
                0.49620706509869217,
                1.1237657716897704,
                1.3652785788746387,
                0.7808095845824,
                -1.3548989036143995,
                0.7320881402066761,
                0.8993273706293187,
                0.15228782633536211,
                -0.34274383820836135,
                0.2407903783117542,
                -1.7811061596302487,
                -1.2083281656217446,
                1.0965107085626022,
                -1.6592756641046114,
                -0.33201992150024234,
                0.5914274118217554,
                0.08693653912583779
            ],
            [
                -2.504441069614393,
                0.7871092590513565,
                -1.1431403391919828,
                0.7453380023009067,
                -0.20538480422945748,
                -1.2495332153501328,
                -0.4846091574694436,
                -1.1969599091404195,
                0.015574021589982723,
                1.784722063185413,
                -1.0803900733234897,
                -0.5526584625513526,
                -1.4167528922523904,
                -0.6776481737053401,
                0.6676521192382685,
                1.7586650452585526,
                0.11140092306575886,
                -1.5029610986041866,
                1.251052920686681,
                -1.8100296492899006,
                1.661437877602327,
                -0.48497968497217453,
                -0.052420498002151185,
                1.6339132536344942,
                0.8001672204484002,
                -0.9690944779176304,
                0.49999634536082566,
                -0.9142399021097196,
                -3.108176249067805,
                -0.894343173383825
            ],
            [
                1.4850364984262407,
                0.3516062438254603,
                -0.632933165177908,
                1.2534405286164076,
                -0.45706963638358006,
                1.2409698725698335,
                -1.2258934516260114,
                1.0310935350470871,
                -0.36920063530539693,
                0.13066543078024193,
                -1.8429616426999103,
                0.00979292808549124,
                0.2009927577137954,
                1.291737924064426,
                0.3955196276550613,
                -0.27482017359442923,
                0.0934934433337401,
                -1.8586032220422655,
                -0.6302970722690765,
                0.5295706765634756,
                0.9590299186465406,
                0.06144985469614906,
                -1.5682535249961853,
                -0.9242787902122441,
                0.21963670407167452,
                0.9698046837612825,
                0.49297149255618167,
                0.9015611518219491,
                -0.9964428085680224,
                -0.5215887731892929
            ],
            [
                2.212420844026373,
                -0.36118251083619446,
                2.0436842224060947,
                -0.5275589620580466,
                -1.5165974938001663,
                0.1968556199447507,
                1.3760539837368186,
                -0.12451036199538928,
                -0.5759165598488957,
                0.6763997285777846,
                0.24181231618899576,
                -1.4103203171038623,
                0.8449790518632795,
                -1.8489429287859538,
                -0.3994644571135533,
                1.1480165924586845,
                -1.4777322767498697,
                0.18690901502430698,
                -1.1349372743616084,
                -0.18121858003532346,
                0.9392536989210833,
                1.0634873128939732,
                1.4107945214575563,
                0.04615640810432717,
                -0.08301120032417554,
                0.25394040243973626,
                -1.8574676405183774,
                0.0325834975966386,
                0.5641586045135459,
                0.42114206955970646
            ],
            [
                -0.6011045727747151,
                -1.8773085382423769,
                -0.3569243604587906,
                0.7187248134961085,
                -1.2569256710529804,
                1.0644626709310092,
                -0.3054517064480305,
                -0.4811125807773502,
                0.08425563285159475,
                0.06739812306207281,
                -1.0334399943138055,
                -0.42131119602212436,
                0.438678690526811,
                -0.10749528601514764,
                -0.7157255371567282,
                -2.3439002597977843,
                -0.4721968062667478,
                -0.2141464581888327,
                -0.7371794247276199,
                -1.2877981194676835,
                -1.6373976612478343,
                1.426979451666986,
                -0.0010178461002242644,
                -0.587460173358098,
                0.28847927292633024,
                0.023631713489323282,
                0.288025068705561,
                -0.3636401714890703,
                -2.232400206320206,
                1.2020178412362346
            ],
            [
                0.7008226850200286,
                -0.6897221975464071,
                1.4308940517313224,
                0.6109035438032019,
                1.2820746482273124,
                -0.8552177764531979,
                -1.6326254141043517,
                0.3548426646838794,
                0.02047685573386556,
                0.16446945176889324,
                -0.6703928466422866,
                0.6311201598018994,
                -0.37443808194795525,
                -0.22400500499792025,
                -0.1724587447837659,
                -1.1078187972758355,
                0.1748287527084162,
                -0.4665987226983727,
                -0.45699669728429565,
                0.13207178165265557,
                0.2261888877201646,
                -0.055853808289280625,
                -1.8992079191269715,
                0.7065434948886163,
                -0.5012687204994566,
                0.07406354029510383,
                -2.3276108871906454,
                -0.3952790326321598,
                -1.3526232705136931,
                -0.30501102460873986
            ],
            [
                -1.3319289101954765,
                0.2669910804235395,
                -0.6770889078262544,
                0.31330818831442114,
                0.693414485847091,
                -0.057243317591340014,
                -1.2711367155042002,
                2.0270607276431045,
                1.6790820491352958,
                1.1267080242515939,
                -2.2409529501571863,
                -2.2266743494351684,
                0.06067565033003165,
                0.09002776733636106,
                1.7331561747543476,
                -1.0488161946689132,
                -0.07412621590346144,
                -1.5237901926951634,
                0.1324700675076557,
                2.1861043839146124,
                0.42598763643169396,
                -0.515678053628813,
                1.1128444834468072,
                -0.0235637144665258,
                0.7684213057881325,
                -0.38202711106880416,
                1.5725355067505715,
                -0.1743066507581979,
                -0.5466079641065914,
                -0.8221597061237588
            ],
            [
                -0.5610288619219067,
                -1.079379581332648,
                -1.3710152299544476,
                0.0314831554579019,
                -0.723663030648282,
                -0.055436931212318366,
                -0.8397784203167118,
                -0.14352290278533864,
                0.7034427774098828,
                0.733235638176389,
                -0.10275560218173223,
                -1.4946412276340513,
                -0.6551325116049908,
                2.522307529654795,
                1.495691836972152,
                -0.9735759154902522,
                -0.8230374549946563,
                0.27955732786126813,
                1.1789904502306685,
                0.8651490554980563,
                -1.0488275520176293,
                -1.3317836860087298,
                0.09860223530043165,
                -0.23178103999088798,
                -1.324448028224135,
                -0.02125021522129794,
                -1.9293681185064222,
                -1.3369478098702863,
                -0.5941108819319662,
                -1.1861290884052522
            ],
            [
                0.9812596739360772,
                0.4044880772930115,
                -0.8526007471621816,
                1.13111075492173,
                0.4706092507852592,
                -0.8445126929632403,
                -0.7085727638720078,
                -0.7341655666040017,
                -1.302836762912226,
                -0.4952490437413712,
                -0.14630433727942693,
                1.4017537727131641,
                0.592528226293963,
                2.1526437869761024,
                -0.3067566932621596,
                0.7543780112330171,
                -0.05383750889558534,
                -0.5493592371740544,
                -0.701642076069881,
                -0.6098867304442389,
                0.5870794541578995,
                0.45207744866008787,
                -0.27663486419353794,
                -0.4961454181579887,
                -0.686698112100152,
                -1.7247871469576013,
                -0.8797243657830549,
                -0.4463445111394369,
                -0.43726486133969944,
                -0.8288754310968776
            ],
            [
                -0.2846929481303683,
                0.38917057973767316,
                0.1523351004894601,
                0.5611499686880274,
                -0.5632670986470603,
                2.553433667107409,
                -0.7463625702835922,
                -0.7010670463513714,
                0.4583167396971804,
                0.7140120302834969,
                -0.47201629960072694,
                1.4951057210369367,
                0.6162496671359411,
                2.4006978466958078,
                0.5543130214808947,
                -0.6707335176056027,
                0.2475446285836717,
                -0.026663744481328747,
                1.1415079864821025,
                -0.4833546023843232,
                0.6566059645300596,
                0.8006945012250618,
                0.48429465456643517,
                2.2041080775583493,
                0.1799873452332501,
                -0.37924581880815206,
                -0.07335815500850809,
                -0.07954432900143943,
                -0.472609887351727,
                -0.07114779109993954
            ],
            [
                0.4902297980085478,
                -0.5722563087614637,
                0.2640794446665449,
                0.282998803500432,
                1.9487711287937224,
                -0.6421865086526515,
                -0.7945896898683059,
                0.5208284250892263,
                -0.5273957524727442,
                -0.15974733512429787,
                -0.6017855269898705,
                2.6928045732484804,
                -0.4029062891315458,
                -0.7061656543652888,
                0.1256276656982762,
                1.0949641661889158,
                -0.21923529262446317,
                -0.28241807470138747,
                0.12746912278748793,
                -0.18273692510099965,
                0.7627529241900937,
                0.10505149094001286,
                -0.8604271281207345,
                -0.3127140712801561,
                -1.905074613393707,
                2.048019163454814,
                -0.2170531722734562,
                0.7553241981070999,
                -0.3669490621194827,
                -1.3054195958750774
            ],
            [
                0.11280999602431173,
                -1.2537624556450955,
                -1.2050426660988427,
                -1.1205767368413075,
                1.387960058353225,
                -1.4745588341998934,
                -1.7276055204641168,
                -0.31419645903214444,
                0.17135223623841572,
                1.3193179114509692,
                1.7892096386565242,
                -1.100949979809408,
                -0.29077792762538734,
                1.692027572359784,
                2.1385801464595637,
                0.2293849143887393,
                1.6882502063853524,
                1.703771196612417,
                -0.38305707851048043,
                -0.20423224961650643,
                -2.4624179175164937,
                -0.21334746149395417,
                0.4740143939208543,
                0.39908011009918065,
                -0.008891638091935411,
                0.38370569087563056,
                -0.054500212718238704,
                1.8437780504696972,
                -0.04011901856511716,
                -0.928614644385048
            ],
            [
                -0.1777956638685997,
                -0.2811453788370818,
                0.26091609001643684,
                0.17897270093173864,
                0.4304759579287809,
                -0.2962338608055034,
                0.35754928863137864,
                -0.01475028042895768,
                0.571762051066681,
                -0.15985115139723025,
                0.27724546527384825,
                -0.05677487856051661,
                -0.13524159685781945,
                -0.8344298977558261,
                0.6267562589828598,
                1.0047439973434893,
                -1.756699767990953,
                0.21449654679624208,
                1.1998758531848925,
                -0.03077143143463361,
                0.05278917306223534,
                -0.9201236087199093,
                0.28840921400388575,
                1.1717938426945642,
                1.6689119440642044,
                -0.5245239687155154,
                0.9345896798085628,
                0.5890891087404435,
                -2.0910440734133475,
                -0.21710697282032004
            ],
            [
                -0.2855999029329413,
                -0.8088342959208583,
                0.4931025372647753,
                -0.33987399451738587,
                1.248464917108823,
                0.7633774272901169,
                0.5123641176518139,
                0.11422760535477015,
                -1.4771504124299786,
                0.37719618548075134,
                -0.8366414565488965,
                0.6442269929073499,
                1.180926681233853,
                -1.0420209917723529,
                0.46108665821794387,
                1.3222146186675305,
                -0.2380092867396134,
                -1.4673299845597665,
                -1.3591923465379905,
                -0.476943515343349,
                -2.820559559988205,
                -0.40415230839642285,
                0.3283911158924699,
                -0.02155672618866671,
                -0.4880878624177407,
                0.7967485255263735,
                1.2226311980544498,
                -0.6389769209198798,
                -0.09193534717255747,
                1.5654660766656787
            ],
            [
                0.9054324651691996,
                -0.01200381076157551,
                0.0049346720555213264,
                0.560085070763406,
                0.1889279215504844,
                -0.4949845394176783,
                0.3423354101891615,
                -0.4240276128915778,
                0.41087001318807226,
                1.9121993634527314,
                0.5722163445985621,
                1.227287627520043,
                -1.3330215166370738,
                -0.2750576182972964,
                -0.4688280416148465,
                -1.490508105540132,
                -1.9214798229839665,
                -1.582358981410066,
                -0.16016580644544665,
                -1.557607822505576,
                0.44208732694653147,
                -0.26291549066041936,
                0.698280090176779,
                -0.3425520653166337,
                -0.9852747815566976,
                0.5302137086842006,
                -0.4787076071137192,
                -1.5065470549393143,
                -0.32025319885228903,
                1.356628773518116
            ],
            [
                0.2915143040830563,
                -0.1635088594918558,
                -0.16185694734806175,
                0.49984926695939724,
                -0.30233716903783836,
                -0.18405434645086768,
                -1.295676641765044,
                0.6326752845465566,
                -1.1700560833037656,
                -0.7980001323817301,
                -0.3334285150086759,
                0.07436331326283364,
                -0.37194214297126016,
                -0.9298531534770104,
                1.6274954021748476,
                -1.1630263232495854,
                -0.9954339585397751,
                -0.5466305072047344,
                1.3541398270561067,
                0.16290404334906036,
                -0.08254137870568622,
                1.9475214588207654,
                -0.2454379938022098,
                1.2616992167476109,
                -0.2988912669562568,
                0.9667373212666681,
                -0.7718301481102826,
                -1.5427961401340236,
                0.6488947490221503,
                0.10214823168091783
            ],
            [
                0.5392302357271066,
                -0.19672018374253922,
                1.4384595153132884,
                0.5356514296764043,
                0.4042673707342007,
                -0.6225046116349057,
                1.629826672145474,
                -0.9668971359922935,
                1.6617024779257656,
                0.0028054520228822733,
                2.956492048447985,
                -0.22021472028838407,
                -0.27436823839352237,
                0.15953942604373422,
                -0.3648274757288678,
                0.5136121288400344,
                0.05892282393719351,
                0.34052645179024205,
                1.389754467363995,
                -0.7694363882556807,
                -0.1247388269391422,
                1.1868845978966285,
                -1.5059885838865965,
                -1.1422373063026556,
                0.5360467801198259,
                -0.2593830625177863,
                0.32910449961195776,
                0.6691813794089374,
                0.8955523929233157,
                0.3715347725968008
            ],
            [
                -1.533341228896889,
                1.0691917766111816,
                -0.6722259062449372,
                0.3495838534040984,
                0.8638591913474362,
                -0.17527710789551884,
                0.7213468351656668,
                -0.48097895411258274,
                -0.025705422832756456,
                -0.004604344842260276,
                1.921522814737446,
                -0.7691751006071053,
                -0.02216757088965379,
                -0.023566567925005135,
                -0.10608348232080128,
                -0.671726395102459,
                -1.1233756106718544,
                1.2437653713514463,
                0.9742068789042977,
                0.5819037064059076,
                -0.019576796512681748,
                1.6734938077678203,
                1.4780805820583063,
                0.4904882889014108,
                -1.5248764700945927,
                0.13586268779486654,
                0.9942982068761902,
                0.03997317817999786,
                0.2403322738337619,
                -1.0402522510877779
            ],
            [
                -0.7970485894419793,
                -1.7815757250903115,
                -0.4736202540407651,
                0.813106579845611,
                -0.21473305890414898,
                -0.9223511882587218,
                0.8615833573284123,
                0.5718162801049078,
                -1.696743232028099,
                0.6468421498368173,
                -0.9182998021669543,
                0.21686558669995307,
                0.013314561249686142,
                0.9136877154827245,
                -0.9091379077160725,
                0.10153086028056216,
                0.4798809077525559,
                -0.33805364188094955,
                0.5376557270756032,
                -0.35836781155958974,
                -0.34839292151449547,
                -1.5148044705833215,
                0.6103504758805219,
                -0.8056084462892555,
                -0.9774317582141769,
                0.7697025508960557,
                -0.5118406744807386,
                2.3695463788968247,
                0.24934353866572254,
                1.0567791485128257
            ],
            [
                0.15462098535349889,
                -0.07201544747722274,
                -0.9212725233260954,
                1.2521187814403274,
                -0.5620264658799955,
                1.7729265525588906,
                -0.8839486564756711,
                -2.310209586999962,
                -0.15499085694977485,
                0.6506526681550066,
                0.2919445486607972,
                -1.1983473196690932,
                -0.44118704587350593,
                0.49626756876141975,
                -1.106685448918604,
                0.875562632368508,
                1.9395889863242652,
                1.4169603787212335,
                0.7352459246289947,
                0.5088680612317041,
                -0.034078819366072356,
                1.7306682124729382,
                0.493519484396978,
                -0.2953548586874865,
                -0.4844746027973911,
                1.1084920560824316,
                0.18374111804308932,
                0.1823492125679038,
                0.069955045040671,
                0.7945678443481777
            ],
            [
                1.910780236570118,
                -1.4999079064517356,
                1.9104607744744557,
                -0.41204226548646655,
                0.8977274196247254,
                0.1792414010956126,
                0.07337517419294193,
                0.2294870035549356,
                -0.3424437716895224,
                0.12009870963217564,
                -1.61417849856523,
                -1.0103373078223576,
                0.23432662034413507,
                1.0706383054394164,
                -1.3780876872417243,
                -2.0081998239626286,
                -0.9286666087086188,
                0.18260926331220548,
                0.6103923652211439,
                0.31751253064146384,
                -0.9837749932430649,
                0.3127202983419383,
                0.8012849911559338,
                -1.230049518840888,
                -0.5712352840439276,
                -1.039865058011277,
                -1.459000069879059,
                -0.6264405819859543,
                0.995178264493753,
                -0.2549515570511552
            ],
            [
                1.4632443696321122,
                -0.1968976362085511,
                -0.36585926914182515,
                -0.04342138026506812,
                0.4869692848541569,
                0.652740311742591,
                1.972845681662338,
                -0.8649683085888072,
                -0.9199847281305388,
                0.70369422068973,
                -0.29394377124041665,
                0.7616326723342054,
                -1.3022856692428546,
                0.02645287535425832,
                0.15737479272310226,
                -0.36980624847772176,
                1.186090499321079,
                0.8694076645907126,
                -1.7151381899553042,
                -0.15029676571807782,
                0.27270427375950396,
                -1.476197873951307,
                -2.8003547965599123,
                -2.1094797142780717,
                0.7145099978099752,
                -0.35161005590745364,
                0.6091112201766374,
                -0.23253481036133125,
                0.8836781889208747,
                -0.9395972567164006
            ],
            [
                -0.3532649095259064,
                0.48626703553967116,
                0.23021992082576917,
                1.3729238608593894,
                0.5562016469530938,
                1.116467153534733,
                -1.4055512424852024,
                -0.5051750007196358,
                1.0089101500725066,
                -0.23251790658374566,
                -0.4386742335856567,
                -1.0275172884178925,
                0.7546226522963153,
                -0.4306786635534898,
                1.4912684931978595,
                1.8380918877339454,
                0.07200231561202385,
                -0.01873823364355938,
                1.4218387570797706,
                0.4847823742683326,
                0.7608375955580492,
                0.5441675700003833,
                0.7922827885241418,
                1.7434279919938038,
                -1.5846777290787186,
                -0.0947453037668646,
                -0.6927884725693613,
                -1.7403509267326986,
                -0.4020973424119618,
                -0.957600465252973
            ],
            [
                -0.8990866277589596,
                1.5445744759192905,
                -0.5489930940596598,
                -1.369189866339112,
                0.013164430390432616,
                0.07078495828601974,
                -0.7577181073158892,
                -0.8758443650700437,
                -0.8864948812581728,
                -1.345279856245347,
                -0.6663751518741797,
                1.7012228597598227,
                -0.05770719318592017,
                -1.0843300885670988,
                0.9148658222412684,
                -0.549211435445382,
                -0.7299150841278912,
                -0.7467430886794739,
                1.2667469510100557,
                -1.32910690519289,
                -0.039594975294322064,
                0.004439369949131555,
                0.8714234088703607,
                0.31601459587495717,
                0.12055267247935103,
                0.07470670419677077,
                -0.9230813902837628,
                -0.30212568410802804,
                -0.0909606677612631,
                0.018179603737262486
            ],
            [
                -0.6825304644770278,
                -0.20350045810358267,
                -0.7108785131218014,
                -0.1806221282937986,
                -1.9848065085089919,
                -0.8475948771059935,
                1.3821274014415579,
                0.6086261407090392,
                1.2527031242692312,
                -0.279083085402153,
                1.0634561673056828,
                0.573219109323006,
                2.7934256081381026,
                -0.022291032936458965,
                1.1588460890114674,
                1.4684696945616718,
                -0.7208085631662663,
                -1.370219743509825,
                -0.4503992130425619,
                -0.05950652905448112,
                2.0128468416491074,
                -1.2698392487490537,
                -2.3050284371166243,
                -2.549567838530997,
                0.06336880629326956,
                0.3882487175565352,
                -1.2371154526517376,
                -1.674888772304241,
                -0.9759513992099137,
                -2.373725600289289
            ]
        ],
        [
            [
                0.918001395794412,
                -1.1448342141913477,
                0.37809791850633784,
                -0.7095993922776396,
                0.970562074377129,
                0.42907918190408906,
                0.9488926875138689,
                0.18381422290836344,
                0.32742405766757277,
                1.031235427191925,
                1.6503584398116327,
                -1.1123019710036612,
                0.06121597168744955,
                0.827401607716877,
                2.2178967348288965,
                -1.366639860273604,
                -0.9239282033880376,
                -0.38081936025845314,
                -0.4963803196392746,
                0.1589832183358172,
                -0.537140105663496,
                0.18135946274745154,
                -0.9973349082450332,
                0.6933366014563206,
                -1.2277051454971502,
                -0.6239549449515904,
                0.3339861737055126,
                -0.46570981143660484,
                1.3856805213042196,
                0.6269234163296438
            ],
            [
                -0.28993895028230793,
                1.002057801158339,
                -1.7184622335847302,
                -0.42857356730245016,
                1.1215606665950832,
                -1.0715024504081794,
                0.42601335487511977,
                0.9846332524986077,
                0.35132673854741076,
                0.20649307915025156,
                -0.8594228195316161,
                0.062129269171022246,
                0.01410040311766415,
                0.28984022056423264,
                0.33888336782355594,
                1.1453977709225702,
                0.07766961047602045,
                0.4715697454489706,
                0.5607251080147253,
                -0.6491631459514983,
                0.0612115271321606,
                -0.9409752962706002,
                0.8589762588049831,
                0.7943925612375393,
                -1.0453599930427973,
                -0.5228256120816999,
                0.04634286477333173,
                -0.5366858751343352,
                -2.182648483997958,
                -0.370225110136566
            ],
            [
                -0.8744279591869152,
                -0.005286762346305468,
                -0.4538781916316569,
                1.1724914413040128,
                -0.36375762391882055,
                -0.39349059825610616,
                1.451186581774867,
                0.5931918465721737,
                -0.35778198148572116,
                0.09707164806059808,
                -0.05581682368169262,
                -0.27127070206237786,
                -1.205661085483436,
                -0.16272656054378326,
                -0.07669666990392411,
                -0.49090569096918335,
                -0.6710151884289417,
                0.3353951569477872,
                0.37038047331487006,
                -0.3128189171393872,
                -1.3622165514685622,
                1.3418523992705649,
                -1.5427394431682488,
                1.4613156366172033,
                0.9169376451373742,
                -1.0832794820006386,
                -0.43458464064386165,
                -0.37940210555013654,
                -1.1568470679719665,
                0.3234632512557317
            ]
        ]
    ],
    "epochs": 6000,
    "mini_batch_size": 14,
    "eta": 0.1,
    "error": 0.01
}