{
    "sizes": [
        6,
        30,
        30,
        3
    ],
    "biases": [
        [
            [
                -0.4070695220267374
            ],
            [
                -0.009733468562330769
            ],
            [
                -2.509110658403116
            ],
            [
                1.7435126482014573
            ],
            [
                -0.19376142860662932
            ],
            [
                0.8333445896984072
            ],
            [
                -0.2591949999691721
            ],
            [
                -0.5524302252623946
            ],
            [
                0.7671587477035587
            ],
            [
                0.1179788437665344
            ],
            [
                -0.42952402755424274
            ],
            [
                1.1633340770510008
            ],
            [
                0.23672164913589036
            ],
            [
                -0.7274387228364444
            ],
            [
                -0.7358202154869437
            ],
            [
                -0.3471309828022825
            ],
            [
                0.09229014589912556
            ],
            [
                -0.45781287885308347
            ],
            [
                -1.8085175306761259
            ],
            [
                -0.0821136604908141
            ],
            [
                0.2420845652536181
            ],
            [
                -0.3267051197319741
            ],
            [
                -0.4662398929277695
            ],
            [
                -0.5580652971426364
            ],
            [
                1.1717323857680984
            ],
            [
                0.7579612242930137
            ],
            [
                -1.3534805790074873
            ],
            [
                0.973018527498346
            ],
            [
                0.27091588948714124
            ],
            [
                0.18152052212930148
            ]
        ],
        [
            [
                -1.0975991907777818
            ],
            [
                0.1274649219607496
            ],
            [
                -1.3054469592184017
            ],
            [
                2.9062205331180095
            ],
            [
                -1.0386214386747399
            ],
            [
                2.5629300486987816
            ],
            [
                -0.7256249910934579
            ],
            [
                -1.6377847272896842
            ],
            [
                -1.4348031510709671
            ],
            [
                -1.331210399691229
            ],
            [
                0.37671908465495174
            ],
            [
                0.22737181685613103
            ],
            [
                -2.4656373308101793
            ],
            [
                1.3420759241799711
            ],
            [
                -0.24193882812957893
            ],
            [
                0.3544638105669604
            ],
            [
                1.987829378013007
            ],
            [
                1.0263926202364084
            ],
            [
                0.5472565430081378
            ],
            [
                -1.5745783295551048
            ],
            [
                0.5800025285226083
            ],
            [
                1.414019177803785
            ],
            [
                0.0598333494641598
            ],
            [
                0.7975822442241215
            ],
            [
                0.7104729151201301
            ],
            [
                0.11169011785701026
            ],
            [
                1.3031019463293179
            ],
            [
                2.0271809961583993
            ],
            [
                -0.8799385754608765
            ],
            [
                -0.3150187019854366
            ]
        ],
        [
            [
                0.2506163496219439
            ],
            [
                0.035687305427502335
            ],
            [
                1.274732184478964
            ]
        ]
    ],
    "weights": [
        [
            [
                -0.503435921974408,
                0.7660448705378013,
                -1.482836781312345,
                -1.2691218951786,
                -0.10266509495135538,
                0.9801512848523232
            ],
            [
                1.0469183403936877,
                -1.0254635022604441,
                0.03733611144734397,
                -0.9322844975045288,
                0.36585041193279855,
                -0.6056280240878293
            ],
            [
                -0.32108364757454244,
                -2.770862243193828,
                -1.2354226462998243,
                -0.3305255914607804,
                -0.013522799144275243,
                1.0281871756790861
            ],
            [
                -0.38680692986852777,
                -0.6022399851125299,
                -1.625659267641226,
                0.9425769490649858,
                -0.9193692183467301,
                -0.3344145153961689
            ],
            [
                1.1792364959733537,
                0.7636340650339214,
                0.14991902161672788,
                -0.28875960274893825,
                -1.5314675884007352,
                -1.0907390011386142
            ],
            [
                0.5202391226947665,
                0.8384443581117574,
                -1.3245109384182987,
                -1.9306204335917878,
                -0.19059229922707105,
                -0.17324070161764102
            ],
            [
                0.3206473043014365,
                0.1411491818278295,
                -0.4102986534398904,
                -0.5006259345214966,
                -0.17888837139954503,
                0.20127144421876106
            ],
            [
                0.8514949229251106,
                0.6385202054344493,
                -0.6078488969964462,
                1.479415255888222,
                0.7510664029427663,
                0.20308215784427622
            ],
            [
                0.2362973320144587,
                0.17426361951939556,
                -0.5302074725171493,
                -1.614516854718411,
                -0.3278406660396057,
                -0.9184936130787615
            ],
            [
                -0.7711838494889124,
                1.1370740847426013,
                0.8083483394241262,
                -0.002898802905940497,
                -0.9309848678071585,
                -0.8305223554919186
            ],
            [
                -1.7806285102743682,
                -0.29660275827360744,
                -0.49399899501702405,
                -0.17495841546826216,
                -0.11736262883592163,
                1.494172860940983
            ],
            [
                -1.6179428686198236,
                0.49722979743991497,
                -0.07915355100741056,
                -1.650879110640385,
                -0.5058905434181742,
                0.5039806137050242
            ],
            [
                -0.3462618079551959,
                -0.43267409315757216,
                -0.41265192123655964,
                0.39544473730283036,
                0.24801886565044062,
                1.2378798211803739
            ],
            [
                -0.21505964284381598,
                -1.210457980329913,
                -1.1463197642690255,
                0.22743339999581347,
                -1.185166754421304,
                -2.254585132262787
            ],
            [
                -0.8555687317764428,
                -0.21829870423920147,
                -1.3425931969174454,
                -1.7623581114018534,
                -2.455329653694997,
                0.8289142963767494
            ],
            [
                -1.4061736625678698,
                -0.7929828933691191,
                -1.390767349631837,
                1.4853085110852868,
                -0.24985697787757002,
                0.061421507793097546
            ],
            [
                0.6296687910975401,
                0.7428097907964514,
                -0.20451284219326415,
                0.7468144415249364,
                0.11951228233264709,
                -0.6746224299934447
            ],
            [
                0.10651848046128873,
                -0.5196736570915848,
                -0.3786642068496499,
                0.4534813107042534,
                -0.7455272057649195,
                1.4889541268686028
            ],
            [
                -0.30568188927206474,
                -0.46233868152539065,
                0.5074610099712237,
                1.4685433640150107,
                -1.6596123713415092,
                -0.12200596760556942
            ],
            [
                0.550890553920704,
                1.5397074591795084,
                -0.7207071266814583,
                -0.22250282892279205,
                -1.1525255214756926,
                -0.4135631534099572
            ],
            [
                0.15352105010816428,
                0.7353768851577545,
                -0.644344480821059,
                -0.3369158548537748,
                0.8658142706731338,
                1.1616396742438666
            ],
            [
                -1.370545647385323,
                0.0023273159559593602,
                0.23060677626714063,
                -0.06150199502117828,
                1.6067104119419173,
                0.05739270284447666
            ],
            [
                1.151444403789229,
                0.7292667389082894,
                1.9565582328893458,
                0.13072377184537715,
                0.29357934962393795,
                -0.5820464869305007
            ],
            [
                0.12890303138498518,
                0.013775040847872098,
                0.22764089893473455,
                -1.1437147894363415,
                -1.2509688248524595,
                1.4771830557537697
            ],
            [
                -0.33160780105231796,
                1.8866291190890432,
                -0.9751518542329995,
                -1.2257405066823976,
                0.717356972721422,
                0.5790834240771504
            ],
            [
                -2.470084010246174,
                1.3202400679060373,
                0.638894876173246,
                -0.4419657250435818,
                -0.14229065449149775,
                -0.2899797945503567
            ],
            [
                -0.20142599351324017,
                0.35325201038348186,
                0.730182984426656,
                1.1279950474016884,
                0.13983537635756843,
                0.9661359225652992
            ],
            [
                0.6561695133465199,
                0.60500946627204,
                -0.4305853091147004,
                -0.29864823384803824,
                0.358491827759522,
                -0.0024663445480337083
            ],
            [
                -0.9000551468324297,
                -0.6330434973871073,
                -1.2140499463100318,
                0.33620846657660985,
                -0.16787126966355187,
                0.6893589447655606
            ],
            [
                -0.6088086970790553,
                0.26874676787796453,
                1.0863209547751032,
                -0.5849155957721398,
                0.7547413655225709,
                -0.6361218900031369
            ]
        ],
        [
            [
                1.730118265815072,
                -0.8235937591816908,
                1.0375980144011747,
                -0.8655807084636159,
                0.29960201446576123,
                -0.19240399784734863,
                0.5814958951743556,
                1.873340351178176,
                0.07083328134797469,
                -0.11758573274664566,
                0.3411830920989972,
                0.8024498608742548,
                -0.6761841177890942,
                -1.1536425929099692,
                2.993000411100227,
                -0.6507119374633862,
                -1.0607738312892638,
                0.5233242025453533,
                1.21293558543507,
                0.810138188396001,
                1.130637096162369,
                0.007906068887889186,
                0.5342526196413871,
                -0.8626869484089168,
                0.5309024306111834,
                0.244699205731547,
                0.5325389880956363,
                1.735382527358049,
                0.3635689930862524,
                0.25199602467788035
            ],
            [
                0.2663312312524733,
                -0.08480699058291881,
                -1.2862303574272012,
                -0.8760096458265078,
                -0.44049977534048707,
                0.6835980959214167,
                0.7558177111027885,
                -0.7601351142032169,
                0.3890744085135062,
                0.9962068659943353,
                1.2062204331222566,
                0.5847938055993975,
                -1.291570328760518,
                -0.0656312323540388,
                0.4429400628654286,
                0.21810883655532629,
                2.056583472756932,
                -2.004620047880714,
                0.04215636162837028,
                0.023192615526626933,
                0.4505522054342069,
                -0.3971811619797201,
                0.1416670071895819,
                -0.9665154073635984,
                0.6242094063720195,
                -0.7761442205161884,
                1.244924112930264,
                0.05619007098789892,
                0.9127967870856554,
                0.8345677009533312
            ],
            [
                -2.4439618773846425,
                0.9253605433680655,
                0.43999222497521245,
                -1.946004639841064,
                -0.08814403308493876,
                -0.292626532827131,
                -1.0586545486439165,
                -0.5452870910102678,
                0.15115652253625814,
                -1.3610186231524988,
                -1.7016255488232206,
                0.1742163984630531,
                -0.5667453247740911,
                -0.4134948070516265,
                0.7949621891921309,
                -0.001002103918192049,
                -0.36503987871757576,
                -0.851519538130747,
                0.0018762891274525662,
                0.6695541504956875,
                1.1587127715832863,
                -2.682355134708516,
                -1.1912171410577512,
                -0.13557771173887614,
                -1.669616849506932,
                0.3721794159986276,
                1.308619686479867,
                0.07012164255402326,
                1.396843621496542,
                0.2600655571022685
            ],
            [
                0.4102233614927222,
                0.3372184293888765,
                -0.969113312931162,
                -0.13422916285645448,
                2.3604438189640544,
                -0.7884177311463332,
                1.077586182591164,
                -0.07170409219917251,
                -0.1402137589212684,
                1.526901654514652,
                -1.2969975100856481,
                0.20508982790821956,
                0.9523864173896079,
                0.29785638966118033,
                1.6139761020038663,
                0.7919707811740887,
                0.3535028237033833,
                1.154078317796607,
                0.3833130787044622,
                1.091277375245214,
                -0.1413334410917243,
                -0.19844936844723468,
                1.0928105729503705,
                1.5680198849219205,
                -0.1877005237907896,
                -0.11015288293310768,
                -1.3571247055164346,
                2.3994662522488617,
                0.5070364025403005,
                -0.12271237112425235
            ],
            [
                0.14271958672882776,
                -1.5101910673411545,
                -0.20193931817212257,
                0.1958843286271042,
                -2.1272961904262258,
                0.7365591583631237,
                0.3960116278899404,
                -0.6597126442753393,
                0.24439413285113962,
                -0.47382404866399225,
                -1.5752408984671704,
                0.7418983031222584,
                0.5855728192125148,
                -0.9891645743919827,
                -1.206628296875822,
                0.8125276942206092,
                0.31126594457455314,
                -0.15832015612659545,
                0.0733060427118121,
                -0.17646375723807423,
                0.6386478636250557,
                -0.12003035338738509,
                0.24923187332024066,
                -0.8884740253978372,
                -1.7273723772101253,
                -1.1070602783681374,
                0.24741453351884107,
                -1.3884539475860984,
                -0.6477927665702428,
                2.6867382530229236
            ],
            [
                0.29293500368852593,
                1.2853809953622013,
                2.825793415776547,
                0.7178421940248725,
                0.7185255102027138,
                -1.187760271333191,
                2.3348664345210035,
                1.2392034094936184,
                0.7846552389737379,
                -0.7410521453958042,
                0.0655513398086233,
                -0.8773530916464072,
                0.04812218573670538,
                1.3583325548348046,
                -0.0847966918750927,
                1.6253300475967862,
                0.9490064260793721,
                1.3079332827230818,
                -0.18057098326777804,
                0.8295814375801946,
                0.010095042730152907,
                0.8352931777652095,
                -0.6649679676059645,
                0.9141098343778833,
                0.4844303532461286,
                1.033153744719831,
                -0.1568077684872023,
                -1.875295679848461,
                0.4279325471309102,
                0.03674268555558134
            ],
            [
                -0.5542286216083961,
                -1.1963003412917688,
                0.015389413989174087,
                0.9549853658922239,
                0.8948349369951523,
                -0.191429223728678,
                0.012558564133549707,
                0.5666999032092044,
                0.8390424087646688,
                -0.9859121821297943,
                0.6607438021547164,
                0.32064566397397454,
                0.24405839382063968,
                -1.1207639997949024,
                0.38481632194942367,
                -0.2611927932033266,
                -0.6539491960975929,
                -0.12334922313992126,
                -0.4426246183095861,
                -0.6477584160170331,
                -0.235859808574109,
                0.9356444802383227,
                -0.009315317503327326,
                2.3101422810700134,
                -0.7144499630890917,
                1.4838518576039175,
                -1.1811777882154617,
                1.9109266961967983,
                -0.6317739922366817,
                -0.5110498497285576
            ],
            [
                -1.4525992986135186,
                -2.355156770385792,
                -0.9921771804721002,
                -0.3619063423162393,
                0.710044959108974,
                -1.266229625899236,
                -0.41391690662753083,
                -0.08114567046076981,
                -0.12122262216575194,
                0.013249363051812504,
                -0.6488188894029987,
                0.33795023941528585,
                -0.5009438127257141,
                -0.0335326983274433,
                2.494798803589869,
                -0.5174784468399072,
                -0.673121479136733,
                -0.5296883596198676,
                -1.5358539099678281,
                -1.8886852466025803,
                -1.1513707071272279,
                -1.5299000494757784,
                0.6144282452949767,
                -0.06617228656401494,
                3.2323250930638885,
                0.976278784052014,
                2.0777935562177148,
                0.5881627242614886,
                0.3756500151843047,
                -0.05734124854326843
            ],
            [
                -0.216003804018187,
                -0.23387660433636875,
                -1.2419506252823183,
                1.0653015938080417,
                -0.3481346667315825,
                -0.018668290417021265,
                -1.481654862470264,
                -0.04671663798109481,
                0.14100370563593995,
                0.4574714912950836,
                0.7252501610372918,
                -0.7438968649831653,
                0.9975243633586358,
                0.7942080166176796,
                2.9450913363319637,
                -0.4818715535020353,
                0.09728002532578826,
                1.0815408672142774,
                0.1392171373016105,
                -0.03922889581130581,
                0.49707590412874236,
                -0.5872692340168183,
                1.2369009513497198,
                -1.1051013284708158,
                -0.9175257441664261,
                0.004379406914786442,
                -0.8340585300154646,
                -1.1263281184133775,
                1.476780949264302,
                -0.6703306971076339
            ],
            [
                -0.6163180138437474,
                0.5031052698790157,
                -0.42017612052111636,
                -0.958202949976394,
                0.6772830188239751,
                -1.632466191845332,
                0.7736366457896793,
                -0.06418414191690011,
                -2.6078401109842764,
                0.05442953959486681,
                0.3610153531077584,
                -0.5088229724371598,
                1.2432821645379415,
                0.04838785951584016,
                0.06428867934312381,
                1.1632700736235226,
                0.16093809822524174,
                -1.0431863720096013,
                0.5102479774448841,
                1.0558084702362742,
                0.6757745143307576,
                -0.6459253886110601,
                0.95829817729926,
                -0.221457427431228,
                -0.13212739417116645,
                0.011099088258330775,
                -1.7931077064498915,
                -0.527816684815318,
                -0.2276230883676956,
                -0.47391793438324875
            ],
            [
                -0.19974200979268103,
                0.5817534497955837,
                0.2495853278850912,
                0.16681099722771334,
                1.147586874433449,
                0.3003516415763249,
                0.10199399853757042,
                2.0724139091150793,
                -0.34203919251762355,
                -0.36167357929506566,
                -2.511168800362964,
                1.1763876341856696,
                0.3410497112771016,
                -1.0703108353657391,
                -0.06024116069868783,
                0.5143101354040566,
                2.204187252579966,
                -0.07813055550263456,
                -0.3777940741408426,
                -1.197755300010001,
                0.09328631252973273,
                1.7672455929127644,
                -0.7751080847832008,
                0.2874169170746464,
                -1.4863918176764237,
                -0.2509885169420186,
                0.09833896010245388,
                1.3484088257348923,
                -0.3153334194619894,
                0.7570952723759345
            ],
            [
                -0.5112057716034917,
                -0.004545746501364022,
                0.2634998226117749,
                -0.9595500610204971,
                -1.5272658286609235,
                -1.556581139965096,
                1.0287327123963053,
                0.7391929099359926,
                -0.42365377702742896,
                0.20064519535451908,
                -2.2754669196279953,
                0.4419841786555538,
                0.0691633027563475,
                -1.0849449738243768,
                1.2148154082838347,
                -0.2618989732740261,
                -0.03587165247155527,
                -0.9883180865513918,
                -1.0236611385169914,
                -1.235122625101543,
                0.7728326847894376,
                0.15186704156569178,
                0.371534704258031,
                1.0327556066090204,
                -0.7607714212156966,
                0.802017741566874,
                -1.0228375864741859,
                0.09182936289238841,
                -1.6812701047918113,
                0.0631495765562418
            ],
            [
                0.34395794547015485,
                0.27771581431324827,
                0.46695971976149825,
                -1.831588659059965,
                -0.5043080922560725,
                -0.8693836198215568,
                0.1511747256162254,
                -0.3934644715623323,
                0.20841586385940153,
                0.5797590585025478,
                1.1138896458568794,
                0.5258139439859184,
                -0.5836721066822109,
                1.2774437357969275,
                -0.914426887715308,
                1.1107545733383897,
                0.26025213743234543,
                0.3489466733353223,
                -0.6369819585492084,
                -1.0252189295265421,
                -0.6571403032090457,
                -2.371011004182387,
                -1.0725807990534093,
                1.2950999429333903,
                -0.24910832224735235,
                -1.3952356304121865,
                -0.29009554906300794,
                -0.2525474024074504,
                0.5977503744781087,
                1.20912637021626
            ],
            [
                0.7521868741604715,
                0.965263407937255,
                0.24589301661213706,
                0.5571738837579066,
                -0.21327116549791714,
                0.8253739404313083,
                -0.9682143534315105,
                0.08753644248505331,
                -1.029197568253541,
                1.0904873900726435,
                -1.6709044496607521,
                -0.6256450439938429,
                0.8038973647497628,
                0.005755793832049952,
                -2.142411933258785,
                0.7723301107862769,
                -0.5223851110811477,
                -0.23686525881703344,
                -3.5406862854305974,
                -1.51742675810413,
                0.01971089446947792,
                0.7634834305601432,
                0.7416570722721207,
                2.3985475842951978,
                0.11925309241662352,
                0.37916880144162945,
                0.4559741472435551,
                1.0643534776585841,
                1.266506258714553,
                -1.39423119127665
            ],
            [
                -1.1000971764773688,
                0.13412855842680405,
                -0.52588038463314,
                -0.9830467480573701,
                -0.4394600429059852,
                -0.0900391764636722,
                -0.7343900275547256,
                -0.8715839694706183,
                -1.2694729393628266,
                0.6841988542571419,
                -0.5912147739164713,
                -1.9103097640690483,
                1.4060346799985892,
                0.1599454034238913,
                -0.038133760534893785,
                -1.3736705906558362,
                2.0328829817000993,
                0.004993553021988604,
                -0.7111074496803602,
                0.492158903959896,
                -0.5659804288586624,
                0.9623143384125582,
                -1.1606248735791016,
                1.3771324756392218,
                1.075925449377801,
                -1.037609388320306,
                -0.19486637607362656,
                0.2485536096059307,
                0.08998123009927037,
                -1.0243950157113328
            ],
            [
                -0.5847377770593065,
                -0.6543787993100203,
                -2.567688102852951,
                -0.9413174868916848,
                0.9531545871723531,
                1.7826522485139622,
                -1.9316117746134633,
                1.7222675768524058,
                -1.1044220335123711,
                1.552594357561384,
                -1.3945413186010005,
                1.078820576191721,
                -0.43401110000746884,
                1.6990400178544935,
                1.3982372266453131,
                0.07657922912176711,
                0.16394723114560983,
                -1.0277382694280746,
                -0.03136083300866917,
                0.9414047684798006,
                -1.0942279409732572,
                -2.726570999492606,
                -1.701293205271208,
                0.6385171156852268,
                0.6050060213018806,
                0.5870771966740358,
                -0.9063501611593006,
                0.6520023138129614,
                -1.144097950376231,
                0.4438564024904902
            ],
            [
                -0.998345822320344,
                1.3726103381570587,
                1.2838953699706817,
                -0.06684009961556872,
                -0.9109948486127732,
                0.9967034197737524,
                -0.007408793746327719,
                0.19101482951549387,
                -0.6395716430247679,
                -0.9644839755157949,
                -1.0701032937453958,
                -2.5223245683496534,
                0.0714349300714714,
                0.543443409365423,
                -0.007536315032285629,
                0.5045915694452713,
                -0.29200055130533537,
                -1.4438558529674392,
                0.03333219593095877,
                0.5127231531832608,
                -1.3329668660856597,
                -0.5004405612437863,
                -1.3040421102395447,
                -0.14717113729140718,
                0.20493619280246086,
                1.4768699046282947,
                0.6661251615007786,
                -0.2411263720194003,
                -1.8649333607127352,
                -1.0561757767676718
            ],
            [
                -0.8761476454768931,
                0.36474690791814607,
                1.9453306346534116,
                0.22801291764282963,
                0.43044701717901523,
                0.48454134906931695,
                -1.455978318072219,
                -0.8349014991080745,
                -0.2465115560729749,
                0.3069465199873875,
                2.436461945743566,
                0.9460828886403162,
                -0.2177719245554167,
                -0.9108688738810928,
                1.1389158473263432,
                -0.6416690269036065,
                0.6208395235920625,
                0.5405007032194593,
                1.70679794133968,
                -0.2991115483869085,
                0.8667219055721512,
                0.02051264391399045,
                1.3803148094157713,
                -0.5752612139386257,
                -0.7562742688519114,
                1.6569859786273224,
                -1.649830076346339,
                1.074835334157919,
                0.05094940452862509,
                -0.4705894019602477
            ],
            [
                0.7598416632158853,
                -0.5641995310009235,
                0.600419114917903,
                1.9100053078784043,
                -1.0169196660086648,
                0.29886392444322135,
                0.3133771948370161,
                -0.05255263912123715,
                -1.528550752874881,
                0.03669992190014884,
                -0.05264480912854577,
                0.13704299499501482,
                -1.4687943570029578,
                -0.8503786182884413,
                -0.8516490801056874,
                -1.2700543282888879,
                -1.1863210135609792,
                0.5101044127303311,
                -0.11926899647795082,
                -0.0848719540743207,
                -1.802654121081012,
                -0.3279919406941032,
                -0.04322114582157713,
                -0.7839584318096936,
                -0.699243356278732,
                0.535057575326973,
                -0.4341198758851684,
                -0.37112536317629247,
                -0.24962518383880483,
                -0.9064478784554916
            ],
            [
                -0.3138638138763462,
                -1.0209095801702255,
                0.42451273484270147,
                0.7664067911239971,
                -0.9703757195691453,
                0.5003571072077986,
                0.768045321435616,
                -0.5898317348990928,
                0.6933407677972938,
                -2.5159926520185105,
                -0.7438226990741591,
                1.6503244223877818,
                -0.32375976644973475,
                0.5244365423412009,
                -0.7364350801410466,
                -0.3517174157731546,
                1.2953581435419743,
                -1.8568628428838478,
                -2.0127138100175337,
                0.21681942834064905,
                -1.556545248103382,
                0.9626143616029168,
                0.12713079353745507,
                -0.3693214786077971,
                -0.03653224008583328,
                -0.32455416218796534,
                0.8466213343821464,
                -0.42433351282179044,
                0.7931681238892446,
                0.8280552549645452
            ],
            [
                -0.5392276394525805,
                -1.588156455497831,
                0.002211022906516708,
                -0.5680954161323675,
                0.441430980097113,
                0.8889222818643423,
                0.018224971492009787,
                0.4220452130142414,
                0.6050615701670965,
                -0.17506077156689553,
                -1.2628890286288843,
                0.564520022648156,
                -0.26838703123819424,
                -0.49135902376103785,
                -1.180529353198965,
                -2.4755856526387583,
                1.4913396671414707,
                -0.5498380456504519,
                -0.4048504628057931,
                -1.3595041822573137,
                -1.0778061480589716,
                -0.3695702255256483,
                -0.43288160001207365,
                -0.9382407887424605,
                -1.3832543644647766,
                0.7554114545770702,
                1.582047807334384,
                -1.434327360782524,
                -0.5877692613369013,
                -0.15511141313002044
            ],
            [
                -0.09154057676321489,
                0.4413229757367664,
                -0.5239379253028548,
                -0.01538671233926362,
                -0.26000444757048274,
                1.2013504849396746,
                -0.06654332831501764,
                0.12377324713228774,
                0.3765111223851854,
                -0.546552611400792,
                -1.324317880469019,
                0.11475793560802706,
                -0.8624914166293939,
                0.3494140335576545,
                -1.3912588367302827,
                -0.2791484678273953,
                0.12312037393181272,
                0.1779530856685561,
                1.5782410991093214,
                0.671593441541027,
                1.6391240847769084,
                1.6824219246215506,
                0.6372576880051345,
                1.1511145289748228,
                1.7094508839274059,
                -0.46736883084373076,
                0.40368627494912246,
                1.5438178868665535,
                -0.022603982348288486,
                1.339725699599035
            ],
            [
                1.0545331364153774,
                0.22111421611289214,
                -0.60119971258833,
                0.4726202985365239,
                0.91932264003507,
                -1.3090908895357163,
                0.07672186547452126,
                -1.4301783554872014,
                1.7499527938047463,
                -0.6369369902250682,
                1.6025955373388714,
                -0.5448009672594145,
                0.22466234364173193,
                -0.035555028095701234,
                0.597150578730103,
                -0.02552492786287615,
                -0.8168550245362567,
                -0.6255805433241093,
                0.7717007299631572,
                0.14200967753681354,
                -2.091023010247277,
                0.7178327813924108,
                1.360435691395791,
                -1.6386359128090897,
                -0.833508963466276,
                0.7145294358484343,
                0.02226191184866448,
                0.15472617489304738,
                -1.1486200478678807,
                -0.80085488736034
            ],
            [
                1.0806039322949217,
                -1.1803108459067755,
                -0.5879715911822302,
                0.28561260769635793,
                -0.2767875150238452,
                0.5899100520231028,
                -0.27768463412898775,
                1.1585615023576987,
                2.0058431908080427,
                -0.8148547180406102,
                0.9417876100144237,
                0.4779742953426948,
                -1.300208603143962,
                0.33870858056272807,
                0.938679001176357,
                -0.8290479342336438,
                -0.5518897936483557,
                0.9757630077760403,
                0.7098252287709875,
                -0.36763330189347276,
                -0.057522879290709414,
                -0.028565354016957485,
                -0.573025983961603,
                -2.168249594838687,
                1.3565542956337313,
                -1.071502352097365,
                0.11374265999579132,
                1.438226538458123,
                -2.289111903607936,
                0.7942861930807252
            ],
            [
                0.4615988517940051,
                0.6771474998339615,
                -2.063343580801423,
                0.8996515430862806,
                0.22329777605654433,
                0.9189872137851915,
                0.6494662522036726,
                -0.55613423582395,
                -0.19498972156978994,
                -0.20656461624931022,
                0.5172626821208709,
                -0.22630684042775137,
                -0.11523857801170483,
                -0.5686393358505187,
                1.2575198046560847,
                -1.9178342654666538,
                -0.8910789455392766,
                -0.9485930520184993,
                0.09334648945971684,
                0.6831932764796592,
                0.6057249195567698,
                0.6556565877935726,
                1.1117568122929684,
                2.4335590157240894,
                1.018479266358682,
                -0.4620757267665084,
                -2.3892506176115873,
                0.4363196572610701,
                -0.5409175078246375,
                0.9582091799125178
            ],
            [
                -1.223358420690476,
                0.5218630127721611,
                -0.6167629875899432,
                0.3403811280767766,
                -0.4692780584082236,
                0.7657310774736541,
                -1.2934401136638178,
                -0.6583163121162237,
                1.950875381291786,
                2.327215272614253,
                -0.613412164030148,
                0.03904061995267976,
                0.8484519813693806,
                1.3492550900775628,
                -1.0750366458053984,
                0.6430458790355374,
                -0.43629678880515077,
                -1.6981750417791266,
                -0.7841554223789299,
                -0.585652131706453,
                -0.004100974489506983,
                -1.0894837083314906,
                -1.870153871009249,
                1.172138037508239,
                -0.49136165177822305,
                0.5551096819069784,
                -0.1652011274530231,
                0.3292910518002909,
                0.7161144217089022,
                -0.9129785531826243
            ],
            [
                0.5419552149112884,
                -0.7272853025839685,
                0.42207795981942875,
                -1.6654779853644768,
                0.6362343100660546,
                1.7805660396217597,
                -0.5357071907416817,
                -0.5142719447792774,
                -1.5461244934811729,
                2.1689460763530923,
                0.9281097210604481,
                -0.8004317656306523,
                -0.7288517839172078,
                1.4949117697350929,
                0.35032347179815404,
                -1.0613239809635067,
                -0.19332197883645388,
                -0.7764602139770794,
                -0.8988234361084939,
                0.38774721568958503,
                0.3771808923553498,
                1.0307685771865571,
                0.5118366293860336,
                1.0197609800068146,
                0.2734903745612098,
                0.8912579350999533,
                1.8900760497296423,
                -1.2029167836819543,
                -1.6893648740823501,
                2.237558979365356
            ],
            [
                1.3132527144150903,
                -0.06925974103999823,
                -0.3162000120427626,
                -0.6896699785111665,
                1.3414277530622167,
                -1.0961872506791768,
                1.5269485728395722,
                0.8446670867202831,
                0.19727035802965434,
                -1.0660267254648352,
                0.8858418497465849,
                0.044502354072269774,
                -0.2769194509542262,
                0.5454346630634356,
                -0.2090425465649873,
                0.17779362305293891,
                0.7641482438937328,
                0.2929327565343194,
                0.5786168765479704,
                -0.5779931586291145,
                1.373514797369093,
                1.078788394846357,
                -0.5051108277184206,
                0.254741155525525,
                0.7913863738947913,
                0.7877582122757902,
                -1.2128022938870797,
                -0.9563189660210789,
                -0.7475148981331998,
                -0.3724069356988578
            ],
            [
                -0.12169045410710501,
                1.058108887118219,
                1.447196439256813,
                0.5370188010475476,
                0.17892445976709304,
                0.7261592651241853,
                0.35185505129985156,
                0.6895120141399069,
                1.4426123321103768,
                -1.501451122698565,
                0.7474689436381355,
                -0.3563644179020003,
                0.723321855390121,
                -0.6303922653165313,
                -0.1824055870059029,
                -0.7832870650463221,
                1.1497956416164317,
                0.09767216087825553,
                -1.0406353757998208,
                0.24513196585332786,
                2.366140166042973,
                1.642851318874437,
                0.5538442359951611,
                -0.4283100623851686,
                1.0331845014928638,
                0.5044498579605147,
                0.4237830502115424,
                2.1903045044328633,
                0.30378391948895145,
                -1.4982942699420416
            ],
            [
                -0.1397732110372503,
                0.5249122136213272,
                1.6597928809635696,
                -0.7468639128287914,
                0.8548003274194751,
                -0.05872993818656196,
                0.38684947735975844,
                -1.3148767587516772,
                -0.8296015068322873,
                1.159876414544843,
                -1.9047026417586204,
                0.7100612785222129,
                -1.7079766528315667,
                0.3547110020378488,
                0.19108473781676585,
                -0.42435154821342547,
                0.30450886353131723,
                -0.31514205572602705,
                1.9898970948993224,
                -1.1111614577159592,
                0.8055367310090056,
                0.1000459630693137,
                -0.441147532681277,
                0.24876351388700724,
                -0.459408978851405,
                0.5267276249645066,
                -1.2538424730012945,
                0.08156155603204242,
                -0.7518758912392945,
                0.1831129205047677
            ]
        ],
        [
            [
                1.3279212480051388,
                0.8934190054076319,
                1.280084323230814,
                -0.013704016643902051,
                1.4991213870519926,
                -1.0602368176463586,
                -0.2917543108873281,
                0.16585957118426678,
                0.07658592859679562,
                -2.2225946700653383,
                2.0378116520813565,
                2.3268199897523636,
                0.584054450013109,
                0.4199841768763306,
                1.497798734606409,
                0.23301987268938823,
                -0.9316475503250063,
                -0.6664266148648625,
                1.3421048878952468,
                -1.1026766744454193,
                -1.0198912525741797,
                1.1853656302396127,
                -0.10195949191585243,
                0.13036576268687974,
                -0.7491684285165053,
                0.9624565975816415,
                -0.9174735890538258,
                -2.3072918151657458,
                -0.6117750980661614,
                -1.6304146722609203
            ],
            [
                -0.48570255823037545,
                1.5156073387266904,
                0.4177369158897897,
                -0.2722362079916332,
                -0.39656073229320365,
                0.4581690947785057,
                1.0957957875598658,
                0.5531987810024678,
                -0.15271527210235977,
                -0.29910719145482784,
                1.1929248031423558,
                1.1792992431711466,
                0.4921968281904108,
                -0.3772107813605011,
                0.48326312221510076,
                -0.3502430333559388,
                -0.09106362026918521,
                -0.2530734718433648,
                0.1667689665418619,
                0.07228735893309238,
                1.0398113035560586,
                0.535666704316951,
                -0.482497607059821,
                0.4021934933198812,
                -1.2222956496632538,
                -0.11587459321050644,
                -0.5761693840612678,
                -1.0661431286959138,
                -0.37723993240351483,
                0.6045198318225501
            ],
            [
                -2.021296391851176,
                1.9472755731972682,
                1.7560574243120155,
                -1.0680632739867617,
                0.34205853647414325,
                0.404586716088392,
                1.622971577721203,
                0.6575454690417575,
                0.4421806425790941,
                -0.916522781333958,
                0.6071456167893874,
                -1.64344787697717,
                0.28286063874258355,
                0.9253636885189668,
                0.45227824785116966,
                -0.3094523496776243,
                -0.7081516239848556,
                -1.5220506633799946,
                1.2522400614890687,
                -1.6735495673156981,
                0.8545804540606111,
                -0.42671937742170274,
                -0.17368571888555084,
                0.16957708487866485,
                1.6274544200565757,
                -0.753325617361746,
                -1.343377395909972,
                -1.587381989989897,
                0.5729000549907042,
                -0.2505771051078213
            ]
        ]
    ],
    "epochs": 3000,
    "mini_batch_size": 14,
    "eta": 0.1,
    "error": 0.01
}