{
    "sizes": [
        6,
        30,
        30,
        3
    ],
    "biases": [
        [
            [
                -0.7109511959090173
            ],
            [
                -0.217054417140938
            ],
            [
                -0.957890818739515
            ],
            [
                0.3425080904623217
            ],
            [
                -1.1470052159742674
            ],
            [
                -0.0009076221818744058
            ],
            [
                0.3854053636667395
            ],
            [
                -1.0457700006874158
            ],
            [
                -0.6651871099912693
            ],
            [
                -1.611950554120975
            ],
            [
                1.2328712385055522
            ],
            [
                0.6546459395081736
            ],
            [
                0.2970042963136896
            ],
            [
                -0.346253421184506
            ],
            [
                0.7387996884641667
            ],
            [
                0.11250445803946368
            ],
            [
                -0.2158409174765761
            ],
            [
                -0.6347387670196225
            ],
            [
                -0.5051212804604466
            ],
            [
                -0.6477661953610401
            ],
            [
                0.6000744579977167
            ],
            [
                1.7789043671713873
            ],
            [
                -0.739867164151481
            ],
            [
                -2.3239708978034117
            ],
            [
                1.1714890082119669
            ],
            [
                0.6720055586481446
            ],
            [
                0.7628305026666627
            ],
            [
                1.1583275038369722
            ],
            [
                -0.03370872614193207
            ],
            [
                0.19721952458499648
            ]
        ],
        [
            [
                -1.1509745675642846
            ],
            [
                -1.4363292173571252
            ],
            [
                0.5087744359125036
            ],
            [
                -0.5873178546618913
            ],
            [
                -0.8343207556823371
            ],
            [
                -0.08739447493534187
            ],
            [
                -0.02234063436363977
            ],
            [
                -1.3791632384431363
            ],
            [
                0.3163796088766941
            ],
            [
                -0.006081986073456216
            ],
            [
                1.519991564714523
            ],
            [
                0.6359260889506109
            ],
            [
                -1.965409773278208
            ],
            [
                -0.5992798624168418
            ],
            [
                0.5978524672693184
            ],
            [
                -0.1065056122638642
            ],
            [
                0.32929053799158214
            ],
            [
                -0.43448282852602416
            ],
            [
                -0.8630356570771621
            ],
            [
                -1.6463354535903867
            ],
            [
                1.3936869072594424
            ],
            [
                0.9659485263558365
            ],
            [
                1.610132513022058
            ],
            [
                0.08302341543067918
            ],
            [
                0.1571053998114734
            ],
            [
                -0.3512674570176186
            ],
            [
                0.3805833213237886
            ],
            [
                -0.793646322774601
            ],
            [
                -0.7210975499628993
            ],
            [
                -0.7014609654854275
            ]
        ],
        [
            [
                0.23336306756508254
            ],
            [
                -1.5043252156982823
            ],
            [
                0.6233810880609181
            ]
        ]
    ],
    "weights": [
        [
            [
                -0.6035077333034606,
                0.7822609013357157,
                1.0367975762561241,
                0.5055848806630746,
                -0.17448812137118502,
                -0.5520750936734145
            ],
            [
                0.27627344039928964,
                -0.6025813605862763,
                -0.440410686589463,
                0.49035309120231657,
                0.8943941486413093,
                -0.20343495499758518
            ],
            [
                0.04580897478442588,
                -0.4728053640778067,
                1.4782654768283048,
                -0.13541469716438423,
                0.03795309943847542,
                -0.9451023526569348
            ],
            [
                0.041681268862925946,
                3.0849205373612856,
                -0.42928626484471816,
                -2.2101342917827043,
                0.6559102981174563,
                -0.21909504738351815
            ],
            [
                -0.3403097593922137,
                1.2392560421776984,
                -0.5294559604163963,
                0.7026973127424754,
                1.0497497576404469,
                0.1327882217084314
            ],
            [
                0.336484926272993,
                1.6392381701029723,
                -0.020617957837678433,
                0.6038630784087188,
                0.203959199184803,
                -0.8016998457339758
            ],
            [
                -0.44218316994271206,
                0.4596341003391964,
                0.2604615774457637,
                1.652015445908953,
                -1.4213375006219051,
                2.302254033144336
            ],
            [
                -1.315677926341617,
                0.397417757010091,
                -0.6742275251706218,
                1.1710701624461795,
                0.6110894477782529,
                1.2244928051475805
            ],
            [
                0.5267120670412889,
                0.5901650393905243,
                0.47524435705954454,
                1.5637348061054084,
                1.5279571502171059,
                0.11313471903237014
            ],
            [
                0.8805843821981274,
                0.5558516858690828,
                -2.115845995581951,
                0.6311469280790812,
                0.1668742647461689,
                1.329039421955738
            ],
            [
                -0.12508281555534248,
                0.3438669760730572,
                -0.736051592169139,
                2.0038442033578145,
                0.773134321201538,
                -0.22142732641050275
            ],
            [
                -0.18813960231811389,
                0.3584863152668221,
                0.9831654284762347,
                -0.686036673521316,
                -0.12560456837718512,
                1.5349211145621637
            ],
            [
                -1.4421784956747052,
                1.3334113275445285,
                -0.7372939427586891,
                0.0129365137323153,
                -1.059612476465706,
                0.67098002795503
            ],
            [
                -0.5167824155429779,
                0.5530244857036658,
                0.3956283368581718,
                0.3188565389261505,
                0.6164008964883794,
                0.02039270890200451
            ],
            [
                -0.10444969240354787,
                -0.24536163218711934,
                0.017946794475518887,
                -0.21304451942146793,
                -1.122569266432553,
                -2.289581937338854
            ],
            [
                0.6419590299813183,
                0.35542524645968554,
                0.9795280419792493,
                -0.5645662380894986,
                -0.20329173940894654,
                0.22866479576180151
            ],
            [
                -0.8675857168846636,
                -2.1928699565388037,
                0.32092189837764545,
                0.31368050242867873,
                -0.5022323753732083,
                -0.8571188836632369
            ],
            [
                -1.0104301545258418,
                -0.8410431155613307,
                -1.0148702090874349,
                0.4988646639716976,
                -0.6609502384471608,
                0.3798883342014056
            ],
            [
                -0.5814448608497554,
                0.6560272801210001,
                -0.7089392148554187,
                0.4946215824722001,
                2.447431082249371,
                0.9554436269010158
            ],
            [
                0.11382058082083714,
                -0.012445920850872004,
                0.6736773856793448,
                -1.410846922291797,
                -2.199171088759132,
                1.251132762043707
            ],
            [
                0.27036852770279673,
                -1.0299884459850095,
                -0.24390089190079364,
                0.061065350086845195,
                -0.5677995121830969,
                -0.8021538434383967
            ],
            [
                -0.44851707119322365,
                0.04967380962500216,
                -1.7535160082302594,
                -0.18782930533708248,
                -0.1327430757575555,
                -0.1638502730862513
            ],
            [
                0.432748889544855,
                0.023439424821952118,
                -0.6105264895131067,
                -0.09816855387007774,
                1.2197440695734942,
                -2.491950116009331
            ],
            [
                1.0919234043258912,
                -0.672051182713961,
                -0.9100598512645719,
                0.6633427488083039,
                -0.6299509195734454,
                0.6433118396134663
            ],
            [
                1.935975473972653,
                0.23473157971997122,
                0.7900221253593646,
                0.3965669389660096,
                -0.4587023306806929,
                -1.3529195223234507
            ],
            [
                1.0853826210675632,
                -0.7872936002366866,
                0.4650690799936295,
                0.3617655382745507,
                -0.28971649436700203,
                1.0898822070901089
            ],
            [
                -0.33895536931735976,
                1.9311272950788076,
                0.6662624271528931,
                0.33184661540366206,
                0.5167254779197542,
                -0.9101151162100091
            ],
            [
                1.1182518498132503,
                -0.8826324383502389,
                0.12594473616390325,
                -2.2676036851653008,
                0.03733059511004127,
                -1.327002345186518
            ],
            [
                -1.3147970729704308,
                0.30265677397145774,
                -0.466593253234584,
                -1.8019516718617294,
                -0.7769931336985796,
                -0.9424508614501874
            ],
            [
                -0.05516864438824969,
                -2.7086752464330432,
                2.1244655736201956,
                1.178529533272088,
                1.5822459607479649,
                1.2826893541216624
            ]
        ],
        [
            [
                1.0447471139540805,
                -1.020611606278363,
                -0.5541204632956607,
                -0.0443621228401304,
                -0.8909633639172184,
                1.6670502246273733,
                0.5022701293281396,
                0.2209566276594944,
                -1.2854834242426814,
                0.6684105944092235,
                -1.3851764408044354,
                1.387863263991722,
                0.48161740761369515,
                0.7220129779892208,
                0.24497361718062863,
                0.3441360117714404,
                -0.4376024571073874,
                -0.9509874491869696,
                -1.3834377371954645,
                -0.1123082874080188,
                -1.1901882679287876,
                0.46901683869903776,
                -0.09728321201490694,
                1.8412375275663302,
                -0.9688913731371076,
                0.26818686280403786,
                -1.8670626013746803,
                2.2898183808042254,
                0.19604767666914116,
                0.3759072297812377
            ],
            [
                0.21531832676751028,
                0.6804530803687264,
                0.17792747455931715,
                1.2365638677352762,
                -0.7239146490978264,
                2.1523851427978835,
                1.0014751951439484,
                2.2778829538357206,
                -0.4346636204443651,
                0.45247967761990543,
                0.3242391663942651,
                -0.8622553320594099,
                -0.30837701030790055,
                0.4214419509016202,
                0.4670103304965831,
                0.26702358420339534,
                0.2516644023978915,
                -0.9209201438587066,
                0.9309677425706593,
                -0.4845618913964463,
                -1.2410947267530903,
                1.0764488171470037,
                -1.1700513918598598,
                -0.8397786364332828,
                0.32555874286350195,
                -1.489768229783015,
                -1.0365351097571127,
                -1.399054594542689,
                -0.39829072063941784,
                0.5684242631642804
            ],
            [
                0.4030953365171914,
                0.4136381845961068,
                -0.03248353475244897,
                1.5717644215337296,
                1.3646586764005537,
                1.1084396329590394,
                -0.16479032714240616,
                0.1408769594032273,
                -0.36685319741159705,
                -0.5062586983145118,
                -0.7081951508383145,
                2.2379136439999936,
                2.744512011317242,
                -0.10288395481745308,
                0.6056901314803657,
                -0.2718079833316598,
                -0.9486474148784432,
                0.8420007623904359,
                0.8163524790084749,
                1.6983877882242988,
                0.8452949408684077,
                -0.2458486596482351,
                -2.0223758578382887,
                1.5528674428584437,
                0.373955856469567,
                0.5938215026011673,
                -0.019278333945485587,
                -1.3322022442074613,
                -0.6149754120945554,
                -1.0007452603927993
            ],
            [
                0.04995747535667324,
                1.3888719936576897,
                -0.4680220900118799,
                -2.004662005340867,
                0.7408819447050276,
                2.3133373724118083,
                -0.16543676292877477,
                -0.029325897419913566,
                0.9940614163992012,
                -0.37395308259745974,
                -1.576144053175542,
                1.5992281078862378,
                -1.021496534456205,
                -0.01503325463743594,
                -2.103373706205048,
                -0.3432035272907196,
                -0.7297484882623054,
                0.04194104823093053,
                -1.7498754725529593,
                -0.011005702886016317,
                1.082501251057764,
                0.3532826327701471,
                -1.764461768002397,
                -0.2272682282943432,
                0.11913117306400844,
                -1.9179632990796878,
                -0.0655032155863691,
                0.018854382307549197,
                0.9679627220148983,
                -1.5009641791225685
            ],
            [
                -0.8883270829716483,
                -0.3824941707926929,
                0.9704174903872467,
                0.21900890841645174,
                0.6394253414458239,
                1.7053512207610206,
                1.2424619688127485,
                -0.4076647541478117,
                -1.0151199741304944,
                -1.1562785071629464,
                -0.7165047835037991,
                0.03150457278373433,
                0.597597958445673,
                0.12953359386903376,
                0.27845487747637604,
                -0.8716328944989017,
                0.8274946395147563,
                -0.3064807225772695,
                1.3933297558123388,
                1.3246636461438153,
                1.5268865295235257,
                0.25878745977076456,
                0.5857874552385975,
                -1.3775944624034189,
                -0.9668426801138549,
                1.6932285308259174,
                0.15173481933025218,
                1.372248304931271,
                1.199983859917813,
                0.9575444070940544
            ],
            [
                -0.9601604627266368,
                -0.20811577794826702,
                0.588243169585878,
                -0.3307402860494163,
                -1.5024164799955357,
                -0.4709598978119951,
                -1.0846858148810787,
                0.008286045989383496,
                0.16363177453002103,
                0.16688027764212968,
                -0.2468996054068501,
                0.6442147455990371,
                -2.3584388078598564,
                0.0697206859127113,
                -1.3279753959988205,
                -0.8181461780058737,
                -1.1382240159256436,
                -0.02399775311952445,
                0.6084996268338978,
                -0.5985737549916451,
                -1.2227522024881845,
                0.7328101150077648,
                1.119488902128666,
                1.1042707034684438,
                1.3533926820508668,
                0.02960339979204881,
                0.2544391334783724,
                -1.5393732488260736,
                0.5300033915859904,
                0.8553262248623822
            ],
            [
                0.5781102700410504,
                -0.013339245662058382,
                -0.29493965490168744,
                -0.48264118480487855,
                0.6788605474254572,
                -0.25836292336359096,
                1.3370830493196408,
                -1.6450940343792948,
                -1.612772599986779,
                -0.08471841906317541,
                0.029802585473871785,
                -0.6961029110692647,
                0.6771235955104513,
                -0.816964788363834,
                0.6701396268374058,
                -0.5583823322624651,
                -0.39687649399591757,
                -0.9571354528030978,
                0.3050341436402156,
                -0.389200496849535,
                -0.64987051362594,
                -0.029838733632626627,
                0.0013367373434958257,
                -0.6781377135679143,
                -0.7018324603755052,
                -0.5341340886466065,
                0.18007764820283867,
                -1.035332395950032,
                -0.5287037568309376,
                -0.47570191950602986
            ],
            [
                0.5442672653222366,
                -0.3482520766483656,
                -0.1972656237768047,
                0.6206600034377635,
                -1.500560598380097,
                -0.2476294997599208,
                0.8543206092829788,
                0.6104873444550986,
                2.0664386827703707,
                -0.3645685994998332,
                0.5598985198127373,
                -0.9969156863132976,
                -1.9448145036889033,
                -0.015580564175623023,
                -0.7773273981147061,
                -0.3558513093282212,
                -1.047836656307752,
                -0.16991120870139034,
                1.3843228636735436,
                0.6563124071274098,
                1.3766949038168022,
                0.3071197822195189,
                -0.2753060337436033,
                -0.5558355274920459,
                -0.539621526957376,
                1.152144109575543,
                -0.5649523896647621,
                1.0766781354033377,
                -0.66013344676362,
                0.016943995719989752
            ],
            [
                -0.19796078071413006,
                1.0808116412414321,
                0.964852621516253,
                0.057397313638299176,
                -1.0081236460906975,
                -0.8664970049508564,
                1.7282304719353747,
                -0.9791456928898945,
                -1.347745243715742,
                -0.4805084027613833,
                -1.4936652445910352,
                -0.30723173011049953,
                -1.097446152627334,
                0.11134486564092891,
                -0.6857140338544325,
                -1.1056878952676756,
                -0.394646583384004,
                0.12242886066241064,
                0.7190426850028191,
                -1.7176661709259018,
                0.2650033245389184,
                -0.3879043795938203,
                -0.31124897179040584,
                -0.7832658627156301,
                0.6182381819858018,
                0.5657136313820376,
                0.5480263197675436,
                -1.9057935104437094,
                1.054985915806377,
                -1.5238475674587557
            ],
            [
                2.1175390845341284,
                -0.14187170367763538,
                -0.49821148160802886,
                -2.17636911017813,
                -0.5286741161080863,
                -0.21851662287445198,
                1.122603642663123,
                -0.8330071772637188,
                0.5932316287102075,
                0.6597424684737204,
                -1.4428862754302803,
                -1.268928739967785,
                -1.0641936780084829,
                1.3283465637422038,
                0.16255800923938502,
                0.9530856273363577,
                -0.66523148143554,
                -2.0113439367651793,
                -2.6930309295944785,
                0.3379660043878669,
                -0.8983496864678479,
                0.43404697968463757,
                -0.8836210921752223,
                0.9538091667180507,
                -0.6891465324722124,
                1.9621278914642974,
                0.42540956755198656,
                -0.8572989865150713,
                -1.0705457075692353,
                -0.5304793575863297
            ],
            [
                -0.6008395253043238,
                2.2645183812427936,
                0.18375088101538736,
                -0.7677125761364285,
                1.5026973502767278,
                1.0411529809148863,
                -0.8075158520594934,
                -2.288935168089683,
                0.41501141764666283,
                -0.2910210869920621,
                -1.8852193927583325,
                -0.12062108601070205,
                0.45630376483324814,
                0.6888261795963498,
                -1.2117018876664563,
                0.45643655246472997,
                0.47546909971445556,
                -1.0855925893320522,
                -0.6661982712646858,
                -0.6539277926131337,
                0.2146604501659571,
                2.5266575243065836,
                0.6681739879703223,
                -0.8705328721927686,
                2.430143822967337,
                -0.13603407860842617,
                -1.3069103636914534,
                -0.8452498172455345,
                1.7677569300198708,
                -0.5107190808787346
            ],
            [
                0.893961624882236,
                1.6906470840843224,
                1.4166492523028213,
                0.11350756045018846,
                -0.4270881147211618,
                0.5175472997351306,
                1.2579139043044292,
                2.1226706154390467,
                3.248639157625623,
                0.3687723627585924,
                -0.4688915816295014,
                -0.7491298330060414,
                -0.03356323774754288,
                1.5420451569584115,
                0.5127297301995446,
                0.9818220038482004,
                1.4974945707823384,
                1.1435181609282012,
                -0.07719964952070361,
                0.9937790106075111,
                0.18712489747644004,
                -0.24514980097581754,
                -0.987431288075372,
                -0.8388324912721943,
                0.8256446632822791,
                -1.342109080475722,
                -0.6918010144986622,
                -0.006993981486628149,
                1.037299210134404,
                -0.7189901482731581
            ],
            [
                0.8084559267379695,
                0.9037194058788082,
                -0.19329420023169747,
                -0.31535048704371227,
                -0.2092153443048631,
                1.6729825275408579,
                0.5511827511392509,
                -1.437461685980551,
                1.0570086418321982,
                -0.7463963557241224,
                1.3493130725862956,
                0.717750283552431,
                -1.7793429178964564,
                -0.9368696509082697,
                -0.7596418168883261,
                -1.8046835610381964,
                2.0617249824153165,
                -0.26588235158743,
                1.154455379500311,
                0.9876122396434682,
                -0.06587173211252885,
                -0.3061649651194767,
                0.49214496103147665,
                -0.8304905118547734,
                -1.2142532664702808,
                0.2959281582362907,
                -0.9975000434292234,
                -1.2420455235139876,
                -0.4234354357232749,
                -0.30093963565535253
            ],
            [
                1.1512947543518883,
                0.8642723695697553,
                -0.7157533990701791,
                0.0035637934898066852,
                -0.044084944922565,
                -1.387211221788248,
                1.072788418896124,
                -1.1254443194132797,
                -1.0510139277260584,
                -0.6165455393201714,
                -0.49698141503520965,
                0.9534197693603537,
                -0.2377482942131717,
                -0.4170479541738857,
                -1.452873209050442,
                -1.897455440491895,
                -1.3135680505443705,
                0.10521684916570284,
                -1.2980687254802723,
                -0.5888536226372032,
                -3.3681875704170183,
                1.1708164691303409,
                0.010952880003257818,
                -0.0027206091582123093,
                -0.7976568660785682,
                0.5665975253800819,
                -1.4659450794456885,
                -0.35562158467958854,
                0.39279703103521474,
                -0.9880784857372061
            ],
            [
                0.3550994665166568,
                0.10870798906587906,
                2.136863302334018,
                -0.0007734928824511976,
                0.6931826469369786,
                0.4859825190094055,
                -0.11047939131585745,
                -0.4855721595880723,
                -0.03933310217642047,
                -0.5821188164052925,
                -0.9059015151370754,
                -0.6949168558760792,
                -1.8511064354535873,
                0.1206502291776229,
                -1.1875157864241679,
                -0.17573639705762198,
                0.43459542095555975,
                -1.0619919309052683,
                -0.5703050365708886,
                0.4301693589372112,
                -1.252592186643046,
                0.6102010804638092,
                -0.34176739903536946,
                1.064999949071175,
                0.03242259824455472,
                -0.9380743281735187,
                0.8158457797457369,
                1.5350963244015823,
                -0.16857414892514924,
                0.38674475882030607
            ],
            [
                0.40592558607196944,
                -1.5997741508355123,
                -0.8706849333913492,
                -1.8739426671412065,
                -0.7179858889871933,
                -0.6910065840766748,
                0.10149102571708908,
                0.3014544329533483,
                1.3485934665148813,
                -0.10010248902352054,
                1.1587242037740109,
                0.9224259576747901,
                1.3398062087213953,
                0.06386033012827305,
                -0.2073998378110976,
                -0.9902704704612906,
                1.7770520547595632,
                1.1220445943684858,
                0.2830193644803816,
                2.564873801359092,
                1.5294847268492249,
                1.9342453600196199,
                -0.3338321932518982,
                -0.3595262215316736,
                0.0767314195986733,
                -0.37825535450386866,
                0.01193201252737367,
                1.2115381931298086,
                0.3463389573891171,
                0.0017190271832793445
            ],
            [
                0.4315487209862144,
                1.0374224949340176,
                -1.01505429477285,
                0.7149987471631889,
                0.5389404980131441,
                -0.6702880509770541,
                0.09958494921965033,
                -0.6075213765696319,
                1.9109328536070203,
                0.19718207603420126,
                1.6011389709745047,
                -0.1751719122603626,
                -0.5147449732237264,
                2.111649027942277,
                -0.5465346722739381,
                0.9858354167937806,
                -1.608479945003179,
                0.17411883447705506,
                -1.4959034044103618,
                1.4383408499701638,
                -0.2259416273547722,
                -1.3689092974385149,
                0.13370406620419137,
                0.07855363841711659,
                0.2999716267168867,
                0.6813312750143966,
                2.2882781396337526,
                0.28327774502063285,
                -1.9180043783125904,
                0.38401467519833876
            ],
            [
                -0.6689674826593208,
                -2.034559607302117,
                0.6871982244154758,
                0.3272875010601552,
                -0.2538732163803691,
                -0.5884394355707069,
                1.3304386636532957,
                0.37552486981665834,
                -0.5068255421065635,
                -1.4144574430141565,
                -0.5854552308284762,
                0.307224422323316,
                -1.1503054843902598,
                -0.3154172576490681,
                -0.3265195127097251,
                0.032246488581616294,
                -0.3285120771844477,
                0.07464689215486787,
                -1.292214888111774,
                -2.2718431845592133,
                -0.7205494281804133,
                0.715193516142771,
                0.2576862540793751,
                -0.945944797276817,
                0.06695059108450038,
                0.4100130358190111,
                -0.096592330157139,
                -0.38333246741966415,
                -0.06813138350174261,
                0.4573859913436975
            ],
            [
                1.1079305050864048,
                -0.3919118395942733,
                -0.42436924470580345,
                -1.78881925790253,
                0.281267111419283,
                -0.8770701073078538,
                1.2027084786215867,
                -0.863323287105853,
                -0.9449520164812713,
                -1.0229499697813345,
                -0.7773048549198849,
                0.08011157510210043,
                -0.5426169803342794,
                1.3709583059590145,
                -0.4326426906962876,
                -0.2569850381757221,
                -1.8111066739496198,
                0.02300462439652053,
                0.7454189371035429,
                0.04963342286081651,
                -0.16699745575810415,
                0.32499999008895947,
                -0.3588241641671689,
                -0.20170956235248774,
                0.055623061307945004,
                -0.8577626019761139,
                1.7936514189304622,
                1.3717470587219716,
                -1.6299675722678575,
                -0.8554220740811116
            ],
            [
                0.4708780407193997,
                0.7548149763354324,
                0.6280885159286359,
                -0.017048920643375626,
                -2.186433169841864,
                0.8096676618301895,
                1.2735788140386517,
                -0.27762546367806457,
                -0.21118337034026757,
                0.797354812484787,
                0.40807208485979823,
                -0.25373990308699934,
                0.018352403611992522,
                0.7227745734269495,
                -0.2923853543969737,
                -0.0492475622388694,
                0.5208081370154231,
                -0.32854820858384465,
                -1.9704688031042463,
                -1.5499356159669564,
                1.1760115307940366,
                -0.963238029450936,
                1.706165065271344,
                0.5850851325205231,
                -0.4165775833594886,
                -1.871422610569181,
                -0.5073358678622154,
                1.6476367060442378,
                -0.9130241921517072,
                -0.39029420758399386
            ],
            [
                -0.3318581960842359,
                -1.2182079418015819,
                -2.067242482456683,
                0.16348785785647638,
                -0.925978358737064,
                -1.0916017084946477,
                1.6460053155225867,
                -0.7026567543990548,
                0.7382016274946352,
                1.1205983429727056,
                -0.5092039287693959,
                1.37498213257907,
                -0.28306182818476805,
                1.2369956224378502,
                -0.40327126666155,
                0.08449631785180771,
                -1.8503654422593605,
                0.32761294386482614,
                1.5038611249673894,
                0.33949683417851895,
                0.8666186432930486,
                -0.35623354514105743,
                0.546680204183091,
                0.9590514119381013,
                -1.3887393667320032,
                -1.4609659496412892,
                -0.9343757211950396,
                -0.4485434681721757,
                -1.4363733644798173,
                1.0338880440463185
            ],
            [
                -0.1491227461152181,
                0.384543408784562,
                -0.2179904610726706,
                -0.7964732614053668,
                0.5437604264922777,
                -2.347377511810924,
                -0.32222775944819154,
                -0.602870463530195,
                0.23687490452574034,
                0.5609453218942017,
                1.9304672726622303,
                -0.6203284287773676,
                -1.690521549171002,
                0.45284311598287835,
                0.429924517928522,
                -2.252683511691565,
                -0.2722834026386007,
                0.097015176362117,
                2.7001317887817913,
                1.7151104441278069,
                0.9494106569272754,
                -1.8565230712574354,
                1.076074519371339,
                -0.7265057756301445,
                -1.3496533287420873,
                0.5991636499313708,
                0.1494300118172621,
                -1.8273217154284815,
                -0.05740677691141139,
                -0.32746956636635677
            ],
            [
                0.17951965712868417,
                0.027072999369705388,
                1.2726847323942667,
                -0.526624505914643,
                -0.7337966746630936,
                0.5317223747601199,
                -2.0141731154675986,
                -0.09328050646638004,
                1.8060584858540618,
                0.7236288563255039,
                -0.7811952891610389,
                -0.1012507641443758,
                -0.45958993341488924,
                0.4858436600057179,
                -2.0234965776672236,
                -0.24047312770256205,
                -0.6435513654372306,
                -2.0355795715924536,
                -0.1354949715011362,
                -0.3103339064710024,
                0.22378490233565557,
                -1.1773966097447406,
                1.0139131055465047,
                1.3576433828073993,
                0.6521954262023248,
                0.6060807458166189,
                -0.29904262263543846,
                -0.54985058331337,
                -1.9089086208802406,
                -0.5625714311926274
            ],
            [
                0.08054894602518646,
                -0.5810177714203368,
                1.0386205448936248,
                0.4809845063636536,
                0.8750838706465828,
                1.0218189787111986,
                -0.8995423070428145,
                -1.2790048001320042,
                -1.2326887172849663,
                2.7894554359953396,
                2.9215386121443436,
                -0.29239005481810015,
                0.5802612441199796,
                -1.1514632478442612,
                -0.34268294355562207,
                0.5149503127332021,
                0.32195190775432436,
                -0.04940655188883708,
                -0.9063551536752397,
                -1.1718834558926639,
                -0.6567009152913149,
                -0.2692128642897257,
                1.019329101931099,
                -0.24826455747432996,
                -1.274622630886457,
                0.47008250203261687,
                -0.2386170190719811,
                -0.2513157662056767,
                -0.1138323884799017,
                -0.732585029537027
            ],
            [
                1.9561447288667173,
                -0.5938391384363364,
                2.041050415163228,
                0.6855874131181895,
                0.7552165814288917,
                1.0274152878312766,
                0.6019857121318063,
                0.2114808936234977,
                1.2707249888502479,
                0.4254740649186059,
                0.16208130934315731,
                -1.3446093783756436,
                0.1302681664684561,
                1.1672533460897638,
                -1.016707625800448,
                -0.5166267112882049,
                0.7105325940079363,
                0.6521788007034145,
                1.3201653175463945,
                -0.35179445052460684,
                0.9761430814423304,
                1.320503295324382,
                -0.9486588570551828,
                -1.4493178085361682,
                -0.46361663010326487,
                -0.6238842330884324,
                -0.4839804458185524,
                -0.6504312240620898,
                0.46268442880779914,
                0.8852269104021916
            ],
            [
                1.336856031281248,
                0.6611272310710001,
                -1.5286473180579023,
                0.586972764484399,
                1.0583612078249651,
                0.49620035323613404,
                -0.8579641070648037,
                1.909515816233122,
                -0.36354291699945673,
                0.35376564619474304,
                0.22913483318002498,
                0.653277442998163,
                1.8748545951956896,
                1.2506273406856079,
                -0.8545480377254924,
                -1.5239678937988423,
                0.26636633467225607,
                2.3715764125708216,
                -0.47940717340573097,
                -0.11680564160597562,
                0.2887923162497635,
                -1.470409818933126,
                -0.27888897079850067,
                -0.9243982339163919,
                0.5031620105851322,
                0.13514541218619675,
                -1.1637001492628043,
                -0.7007842956884826,
                -1.1480411418267236,
                -0.682662363866271
            ],
            [
                0.4894582218322848,
                -0.6817874222349387,
                1.0965393954266938,
                -0.5720115061728492,
                0.8904215055777467,
                -1.3748416908527266,
                0.6008554315357467,
                -1.9918672188915345,
                1.9503644121846724,
                -2.417691944874379,
                0.5166656800208098,
                0.05357064187595677,
                -0.4194350488861285,
                0.5692910334173374,
                0.5410729232286009,
                0.2710318222929324,
                1.8216456542105686,
                0.33664379189581434,
                0.8542750693838401,
                -0.4952995745431517,
                -0.0775917866046739,
                0.8538705035075299,
                0.7014518013275156,
                -2.749221011990337,
                -0.4650770975856022,
                -0.24424310325592039,
                1.3169519058941737,
                -1.2034673301074852,
                0.5452166407961779,
                -0.9327525996893792
            ],
            [
                -0.1653058934005559,
                -0.28844218169870445,
                -0.3468986986569477,
                -0.27986871953416714,
                0.9902977728353403,
                -0.7999094802280372,
                0.8780933495414209,
                0.022468187956443276,
                -0.18371732426232398,
                -0.34080321969056276,
                -0.819032547665228,
                -1.0121967070017228,
                0.3549850637515792,
                1.2720611541279203,
                0.14211716348810616,
                0.5586536302301897,
                -0.18756111502458703,
                0.38573577079117216,
                -0.03940831744186604,
                -0.020064610455072057,
                0.6174814484741161,
                0.8173934140487316,
                0.3484828783102777,
                0.16345384919473088,
                1.1363682377732365,
                -0.10522798845197535,
                -0.15969538792207438,
                0.011510242403939903,
                1.1605090629581054,
                1.3053852169471636
            ],
            [
                1.6278001375010176,
                0.28585226316323303,
                0.46855268094156294,
                0.24890668874583682,
                -0.8136800108597066,
                0.864180442185365,
                -1.325098269370117,
                -0.3831672518717903,
                -0.5811589974439323,
                1.8393328635750366,
                -1.1186208447884645,
                -0.1952027580676409,
                0.30288084941218363,
                -1.3862445411741149,
                0.38588324108138405,
                1.596051955795318,
                -0.888189065033243,
                -1.0844734633631943,
                0.839199853622796,
                -1.5604086559135768,
                0.2791530507397715,
                0.7261575990379402,
                -1.0190295995419183,
                1.2237380984290767,
                1.0151565291737104,
                -2.4292839210989827,
                -0.15913090836612712,
                0.42206571761078304,
                -0.7600922521429477,
                -0.13685721167959122
            ],
            [
                1.502851072252414,
                0.7238597134989109,
                -0.350775303711572,
                -1.0886122987357798,
                -0.05127421819231763,
                1.0041372877306782,
                -0.28436701757326305,
                0.7891266905134419,
                0.32160652107819315,
                -0.09091074580666281,
                0.8913811931936807,
                -0.35631912270935673,
                0.6004028114230483,
                -0.13832270493023374,
                -0.14028897355616562,
                -0.22034778324384185,
                -0.8506149706816705,
                1.6763229889670033,
                1.9671676139961431,
                1.4810463665699203,
                1.6553330343470645,
                0.8452969742378221,
                -0.3816190517151986,
                -0.8448678843071168,
                0.24348180015936377,
                0.14013421391034783,
                -0.15441228576711394,
                -0.4832723205085417,
                0.4848225851850165,
                0.03779980477611436
            ]
        ],
        [
            [
                -0.7450718958738911,
                -0.5715044891365721,
                0.9207273759853699,
                0.9225236182113155,
                -1.4312762110991255,
                -0.05795728996524966,
                0.4311925300200009,
                0.6307593520797249,
                0.6447035964020263,
                -0.23854246369479476,
                0.015346828881613192,
                -0.2155195570575131,
                -1.320759815582088,
                -1.9885282430488485,
                -0.060919937739891156,
                -0.31335182479431734,
                1.0338518614745729,
                -0.31176602626932765,
                1.3201579056714015,
                -0.8333646025185496,
                -1.100964885466515,
                0.8917668645064426,
                -1.4099533665818798,
                0.282763063769666,
                -0.5491190900000059,
                0.6098263876704181,
                -1.4548396793726375,
                0.6402604599809434,
                -0.34481055580726,
                1.3163602604000049
            ],
            [
                -0.2696584837596491,
                0.39087271774655746,
                -0.16152082365385503,
                -0.29338708862183366,
                2.2410068740831157,
                0.20501597840786837,
                0.8982363768148699,
                0.4949530579135645,
                -0.05827552155237249,
                -2.4046182057689656,
                -1.2051828335214014,
                0.16962011971582355,
                -0.15540006093133682,
                -1.0230960227045893,
                0.8924411246906395,
                -0.09147657341395321,
                0.003273812909513548,
                -1.058801174908154,
                0.539670436056643,
                -0.8328563118927291,
                -0.1086909517001478,
                0.46844522473156386,
                -0.28609531552514134,
                0.28982178666566266,
                -0.5760863469491546,
                -0.3952531726417123,
                0.292664154141055,
                -0.7225102619922278,
                -0.44939464409758145,
                1.1551736278692195
            ],
            [
                1.0077244392328666,
                0.43515357251688763,
                -0.5629789215403899,
                0.4658707311967867,
                -0.686469771185817,
                0.8882993011973356,
                -0.6521179900774957,
                -0.2986029787856041,
                0.983241133360065,
                -0.4330201633600263,
                -0.7456505645106537,
                0.5655937647836943,
                -1.1305321619893343,
                -1.3574396251813041,
                -0.733005839783112,
                -0.05482656808399055,
                0.9071213016111261,
                0.0459542800420211,
                -0.2473465403641249,
                -0.40590280133752765,
                0.7320929144832795,
                0.9803067170317693,
                1.6304199343707158,
                -0.03217054179243815,
                0.9165174838460397,
                -0.7007541025196141,
                -0.5831669717291902,
                -0.3446840298300566,
                -1.0167657149961793,
                -0.05824366301909765
            ]
        ]
    ],
    "epochs": 6000,
    "mini_batch_size": 14,
    "eta": 0.1,
    "error": 0.01
}