{
    "sizes": [
        6,
        30,
        30,
        3
    ],
    "biases": [
        [
            [
                1.724214690821274
            ],
            [
                1.6289854030486732
            ],
            [
                1.433738664730483
            ],
            [
                -0.003664498114367788
            ],
            [
                -0.11392483979414161
            ],
            [
                0.12411357827745273
            ],
            [
                1.6593089809250245
            ],
            [
                -2.2933295328544685
            ],
            [
                -0.3308136457250481
            ],
            [
                1.7781218157370147
            ],
            [
                -1.1511438369954672
            ],
            [
                -0.04694387820243359
            ],
            [
                -2.7586235687073275
            ],
            [
                -0.4918407053806261
            ],
            [
                -0.8843986505419665
            ],
            [
                0.08644736976726583
            ],
            [
                -2.2362872761804304
            ],
            [
                1.5108080378002515
            ],
            [
                0.3499252618101598
            ],
            [
                0.7134960617894882
            ],
            [
                0.48573998623100456
            ],
            [
                1.2338642228330319
            ],
            [
                0.7863292270857414
            ],
            [
                -0.1375959058494061
            ],
            [
                1.1739342127327959
            ],
            [
                -0.38801218746252547
            ],
            [
                -0.10337363656897672
            ],
            [
                0.6966938746203453
            ],
            [
                -1.1662959138146023
            ],
            [
                -1.425690994959676
            ]
        ],
        [
            [
                -0.3198794467694652
            ],
            [
                -1.006120140884083
            ],
            [
                -0.2771929477055516
            ],
            [
                1.0486795204528645
            ],
            [
                1.4312771557448607
            ],
            [
                2.096680142789824
            ],
            [
                -0.7878335636147881
            ],
            [
                -0.7629666671357955
            ],
            [
                0.5608406772312398
            ],
            [
                0.17460417587688482
            ],
            [
                -0.3042623287564628
            ],
            [
                0.851817963022628
            ],
            [
                0.2825979683011605
            ],
            [
                -0.2681065061706624
            ],
            [
                1.272136438081718
            ],
            [
                -1.271260998765438
            ],
            [
                -0.34226433102658177
            ],
            [
                0.7717128906369445
            ],
            [
                0.7059833679896884
            ],
            [
                -1.0450811711873496
            ],
            [
                -2.5698184216099453
            ],
            [
                -0.1508800902595255
            ],
            [
                0.6727849920382937
            ],
            [
                1.904688463569616
            ],
            [
                0.8453995421432625
            ],
            [
                0.2351611252056949
            ],
            [
                -1.8724015422732752
            ],
            [
                -0.5041528007050936
            ],
            [
                0.995110701237106
            ],
            [
                0.7213481964506537
            ]
        ],
        [
            [
                0.7088142456949424
            ],
            [
                0.34245996016913177
            ],
            [
                -1.1950233027595611
            ]
        ]
    ],
    "weights": [
        [
            [
                -1.4358383296560435,
                0.23702450505435205,
                -0.6944444810666965,
                1.663978097977962,
                -0.9582873641737442,
                0.8936804784637394
            ],
            [
                0.9157161204002123,
                -0.11574288323853235,
                -1.0064288099451322,
                -0.3515502787854141,
                0.7760273022135928,
                -0.6116869936572084
            ],
            [
                -0.44394880414184185,
                -1.6957598175459367,
                0.4784281763038503,
                -0.30461815552619537,
                0.5463209037059523,
                -0.21414460318263226
            ],
            [
                -1.4322023211509196,
                -0.5526176621290944,
                -0.9291630263315578,
                0.876699345913472,
                -0.5394596120075963,
                -0.8152226441345095
            ],
            [
                0.23357778014344452,
                -0.26211215218191664,
                0.9972760867733489,
                0.6889382971031287,
                0.10012932251882958,
                1.7070802811036592
            ],
            [
                1.5779818077812053,
                0.8847576307613039,
                0.0655807766534697,
                -0.7005357234002573,
                -0.1668225554288899,
                -0.5941312094866553
            ],
            [
                -1.0369164217456166,
                -0.242425902831389,
                -0.40115720953994255,
                -0.8862194081845632,
                -0.00905825946620354,
                0.016206431369728578
            ],
            [
                -0.40648767357738297,
                -1.8451665249781324,
                -0.9081171660182848,
                -0.4161287013992843,
                -0.6547188681122377,
                -0.29916020342134064
            ],
            [
                0.13009883711379444,
                0.7271419567556011,
                -0.9041046311741489,
                0.20438244945221962,
                0.7112829361124964,
                0.9955896158580657
            ],
            [
                1.0358002740824102,
                -0.5481615968185795,
                0.5305152395230656,
                0.6690585031262799,
                -1.0656089649295029,
                -0.8965143959850708
            ],
            [
                -0.023559981663782197,
                -0.8836676657034216,
                -0.6478068693490938,
                -0.39386241634000446,
                -0.8323561369441927,
                -0.13168408868460857
            ],
            [
                -0.18058615550687104,
                1.7324958141405575,
                -0.5005759112383646,
                0.5464474409520897,
                1.2440901212739797,
                1.0851718260949967
            ],
            [
                0.30092057979726755,
                1.526933468987348,
                0.6200694817081338,
                0.34408928266878674,
                0.5351808106400026,
                -0.37304821308607916
            ],
            [
                -0.00374439743868036,
                -1.9831632917510151,
                -0.973923915653499,
                1.6170164991048368,
                -1.9782341978339755,
                0.30403245723853
            ],
            [
                0.8029740206958889,
                -0.02535757881594355,
                0.5781776111468706,
                -1.987701524932762,
                1.6576714552632659,
                -1.556934527270088
            ],
            [
                0.34451923175064375,
                1.0642246854980977,
                -0.5037517546056478,
                1.0701560291466303,
                -0.34753890415913585,
                0.47466642259272135
            ],
            [
                0.7636792229406683,
                1.576280420646176,
                0.1610175314901494,
                0.716057742727311,
                1.3079389404048325,
                -1.0687493892771032
            ],
            [
                -1.1381460187829755,
                -0.3881304757668907,
                -1.3355696443901686,
                -1.1559451367998996,
                1.1143733628713315,
                0.5501085746409491
            ],
            [
                0.9836290822717263,
                0.10538709201153929,
                0.9284693631464256,
                0.3856691804384937,
                0.5466003709977304,
                0.6597227910015409
            ],
            [
                0.32941624666525254,
                0.2979314149073223,
                -0.46053505352803414,
                -0.10488254275925178,
                0.6965695403119812,
                -0.5469786557364775
            ],
            [
                1.2460266195964815,
                -0.2313520296099798,
                -0.10147445372059537,
                -1.5801786870741152,
                -0.7795684764579075,
                -1.3754878072091792
            ],
            [
                1.5951180064662065,
                0.5371170678318968,
                -0.2619084799964502,
                0.41012089380239886,
                0.16391668250554858,
                -0.15665724988489602
            ],
            [
                -0.12797655991465343,
                0.49076710331040246,
                0.7505265056261945,
                0.012896067752834701,
                -0.28599614631421344,
                0.19504610405789874
            ],
            [
                1.2452264819567855,
                1.1633655750441976,
                1.1168429535333575,
                -0.042258204851561974,
                -0.6410640546396356,
                0.9564790547776193
            ],
            [
                0.28136577409754676,
                1.172228522461612,
                -0.2606414849082876,
                -1.0644921019306353,
                -0.6453610458761694,
                -1.2144294189278637
            ],
            [
                2.127735854820425,
                -0.14469894416509083,
                -0.9102521029414721,
                -1.0858625676071416,
                -0.6744700187889936,
                1.2044507154158681
            ],
            [
                1.1865333664741546,
                1.1122616739201225,
                0.1448722065086621,
                -0.6624280175636446,
                0.47142837477001825,
                -0.3412121515695437
            ],
            [
                -0.32475344138803064,
                0.24659056077346644,
                0.5811807154541834,
                -0.48924863301883126,
                -1.4417554797062153,
                -1.2849616352604813
            ],
            [
                -0.06755453097005917,
                0.23770778717276725,
                -2.0225480886604243,
                1.5523893433109288,
                -1.0334433353432824,
                -0.8938720733042965
            ],
            [
                -0.08122684533732383,
                -0.22612082477752393,
                -0.7731450958517594,
                -1.2643605050945268,
                -0.2647702160789524,
                2.0393723398456505
            ]
        ],
        [
            [
                -1.196014178766322,
                1.025737070807799,
                -0.4238049029228609,
                1.9792635335462467,
                -0.5590671130956161,
                0.004607755620933155,
                1.283719297717477,
                -1.2808494897015903,
                -0.44200058320589947,
                -1.5250438649585027,
                -0.48278592255145997,
                0.4398668717269649,
                0.8165837326218488,
                -0.36423542608314957,
                -0.15496736759186044,
                1.5492084142955262,
                -0.1827627760133642,
                0.8713165796909113,
                -1.0994470148141549,
                0.728214453435991,
                -1.767751698938136,
                0.7163704978949854,
                -2.1850795088018136,
                -0.2257614887725742,
                1.156052147771603,
                -0.16130834253550883,
                -1.274218948900673,
                -0.28572500808730217,
                -1.233571146114837,
                -0.3315608739211987
            ],
            [
                -1.494864918332548,
                1.5305964445623328,
                -0.8280335973832031,
                -1.3716425390526439,
                -0.8992106605992307,
                -0.4161612729671802,
                -1.5645094957850505,
                -0.81615662469455,
                0.00986013035020454,
                1.0911695762042097,
                0.17674461298368502,
                0.32250717003966367,
                -0.17830017175157117,
                1.5416928195459165,
                0.0716671343775258,
                -2.1426721564149247,
                -0.7743800260366629,
                0.6451786347092157,
                0.018477864572486874,
                -1.9124670097128886,
                -0.9212461981713634,
                -0.09207859264868394,
                0.9165504731191891,
                -1.0324150015893454,
                0.36545751031306617,
                0.06659899671446348,
                1.8626139151087349,
                0.37374475899243403,
                0.0939095230728316,
                -1.5504394762037694
            ],
            [
                -0.8673846858301999,
                -1.0011297135749504,
                1.7519181298621334,
                -0.8257709108319479,
                1.7444057452490305,
                -0.049966114987892774,
                -2.267215667687935,
                -0.8306205899253585,
                1.735273776874464,
                -0.971767552422454,
                0.7890191293742042,
                -1.1122637643092874,
                -0.5826291702724317,
                -1.2809440112305601,
                -0.9380089894661031,
                0.19695546309471615,
                -0.7184659369076022,
                -1.1562890455526451,
                -0.32022891827005123,
                0.2487563145826781,
                -0.1224217110299258,
                -0.7164866349730545,
                0.3578553127971444,
                0.12998817470810467,
                -0.2519808672023722,
                0.6904026950501645,
                0.12016922888645037,
                -0.8829519178531494,
                0.14961534309443494,
                1.9646280188435628
            ],
            [
                -0.2778535791883962,
                -0.6840074526724914,
                -0.9382984215938897,
                0.21735584393767868,
                1.2809716817795458,
                -0.3876350479230239,
                -1.1630046409449137,
                -0.7510091407873486,
                -0.2587950008531359,
                -0.6244436931921566,
                0.8194615623578105,
                -1.2387537161056112,
                -0.6264101540620585,
                0.6816163197758147,
                0.14830644324069234,
                -0.8799464295571455,
                -0.8586729212673158,
                0.40174284689199524,
                1.1407176275805084,
                -0.5954726563664033,
                -0.3340566917239738,
                -1.3387432181162022,
                -1.026338332580176,
                0.07438892928804111,
                0.42210910427450793,
                -0.9285374548497878,
                0.44126009402259264,
                -1.6184212637695865,
                -1.1311905586453783,
                -0.35254780056342383
            ],
            [
                0.8770174737492437,
                -0.24379526088050965,
                1.1096967749054658,
                0.01609738696443959,
                1.0754648317532316,
                0.5032866142258662,
                0.1650814352304786,
                -2.2162217933966013,
                0.5363983661539141,
                -0.04951385558928196,
                0.8230285236607254,
                -0.459229449340985,
                1.501368390118336,
                0.3662273260511845,
                -0.5489988300921529,
                -0.2809220658501476,
                -0.896955808750437,
                -0.2756050386003501,
                1.7039329370874394,
                0.5827092321288465,
                0.42820224943223795,
                -0.7022945033204656,
                0.10965320825071988,
                -0.4616889909195693,
                0.6376335728577317,
                -1.57465998855391,
                -1.2209541089790288,
                1.2255815929414844,
                -0.09677652415403942,
                0.7330575661042666
            ],
            [
                -0.6370246010843403,
                -1.2184840141405804,
                -0.7851719018048233,
                -0.13379128181925223,
                -0.08388778517670953,
                -0.2893601096497065,
                -1.074534501695206,
                0.9180381372196255,
                0.5751841371381954,
                0.4433006419370871,
                -2.594839173338119,
                1.4241757462991962,
                0.8926987163333424,
                0.1212044138193229,
                -0.5092117835539173,
                0.2942358495772731,
                1.3682450472866392,
                1.7061403379684692,
                0.47324124184301775,
                -0.8441412878730569,
                -1.0866519420842244,
                -2.4418942802780177,
                0.8115538929218478,
                0.7038405306139137,
                -1.5594326411892658,
                -0.1047505993156577,
                1.0732097811420098,
                -0.570390231043928,
                0.8241037367468789,
                3.618181633501073
            ],
            [
                0.6852311480366932,
                -1.1062393875330128,
                -0.938434178176941,
                0.4898746934610533,
                -0.1730727852171943,
                -1.561152076212158,
                -0.5773433866204666,
                -0.7686432572764951,
                -0.5379092493797636,
                0.7998331413264488,
                -0.15790781824947006,
                -0.9339963118064349,
                1.537500548553877,
                0.8990340460763528,
                -0.6450332115127618,
                2.32962692600908,
                -2.3159429966497957,
                -0.16992190450452205,
                -0.7882002371994206,
                -0.6389199339936655,
                -1.96656909933212,
                -0.8453023218200588,
                -0.2547055469036267,
                0.6831985199371835,
                0.42621907690624394,
                -0.955481319438258,
                0.10955204473917628,
                0.7801055998260292,
                -0.9333498341248315,
                -1.458591533759974
            ],
            [
                0.6285848421330423,
                -1.2714470266832587,
                1.2811250474814158,
                0.48699783147717923,
                0.9835340415907098,
                -0.0878785308617588,
                -0.3918742626135457,
                -0.5598063414476032,
                -0.762472198324862,
                2.2790040499871416,
                -1.7410736129800675,
                -0.19547787610396755,
                -1.1436010587781895,
                0.31228647710620744,
                -0.2462022010895691,
                -0.49951041693781356,
                -0.5141510091200981,
                2.269943556325613,
                0.7397719906312805,
                1.3438524348803298,
                -0.6779500288506303,
                0.2570792112931511,
                1.320328493727267,
                -0.520077100856945,
                -0.015259646720515326,
                -0.9080772128241539,
                0.4767917419705048,
                -0.29966467656248114,
                0.9587539883576661,
                -1.5883925925512155
            ],
            [
                -0.8137035129842586,
                -0.3915410738734155,
                0.5115043333956428,
                0.04043612597380971,
                2.5248686802575375,
                0.7096923295610675,
                -1.4676451993536586,
                -0.45659730471476345,
                -0.676462808515313,
                0.11778315046156931,
                -0.25025896498429273,
                -1.0299292965958782,
                -0.6878623667375975,
                -0.15730805990125354,
                -0.609598431567451,
                -1.491198345696825,
                -0.9692992961253943,
                -1.8344899366576584,
                0.597561916036803,
                -0.8771667584493327,
                0.30933221248434584,
                0.9073115276283439,
                -0.7919769262505639,
                1.021862879881374,
                -1.8167836688701633,
                -0.6487707064539632,
                -0.22554772959474814,
                1.254218352650751,
                0.019147684661132508,
                -0.7304052648873425
            ],
            [
                1.3969988633664874,
                -0.26747828719482375,
                0.33551939379984846,
                0.13895803974658505,
                -0.0042624031432627295,
                0.16526843320237097,
                -0.039833995372884554,
                -0.520324009329042,
                1.3343617284611327,
                0.7879468152281184,
                0.6232495587907168,
                1.0950420837189392,
                1.6483379677297585,
                -1.1185719826220761,
                -1.489984108009145,
                -0.8434601264175976,
                0.13094099092213507,
                -0.055204103024256594,
                -2.7176245260072553,
                0.13491339205021483,
                0.13425389201287372,
                -1.4795709445514589,
                0.5437347603879302,
                0.6096182899252416,
                0.5426918835484086,
                1.546986278774875,
                -0.3696005661435141,
                0.9675624644090745,
                2.957328073077831,
                -1.1165792881646666
            ],
            [
                -1.533618592233668,
                2.278863600685386,
                -0.46874973982522417,
                -1.0982197647343457,
                -0.2654507727747719,
                -1.6732987074190258,
                2.737648230617264,
                -0.929706662915704,
                -0.19869466470101776,
                -1.3138112066151206,
                -2.71597698146017,
                0.25340888242870124,
                1.7094190718679976,
                0.35179428000000007,
                -0.6234503247009903,
                -0.1857959928482235,
                -0.07888109214272572,
                1.5801712273852904,
                1.0682789027477517,
                1.4225171363481721,
                0.6447149295367629,
                0.8794619752196443,
                1.6182759053024804,
                1.5893513374242896,
                -1.0184880257969382,
                -0.050914118205413694,
                0.06882936119565215,
                -1.7913937041359616,
                -1.1143621735535003,
                1.5762852027782923
            ],
            [
                1.5709978569162886,
                0.30201809566820276,
                -0.21635726750474085,
                0.8173998598559801,
                2.0731376649426805,
                -0.07222549997716611,
                0.8571779490781863,
                0.08837214181895393,
                0.7788725802579878,
                -0.8343582125938928,
                -1.2730013020256883,
                0.33690932271353263,
                -0.3985197663222124,
                -1.251348258028647,
                -1.7863276421395466,
                0.397370117382502,
                0.2796248938241257,
                0.9706956359812824,
                -1.726437006105941,
                -0.4977235218013974,
                1.0381795287275601,
                -0.43937700792135487,
                -1.360393446371434,
                -0.8390979178198714,
                0.4572787814412833,
                -1.0642600921417102,
                -0.2711571490062141,
                -0.9700941629919007,
                0.6008691632647981,
                0.05621306594311636
            ],
            [
                -1.2527990842234615,
                0.32850831693104576,
                0.17502475203631018,
                -0.06432468241042896,
                -1.2221732350954695,
                -0.8430693502839394,
                -1.649068648198866,
                2.123536681674323,
                0.25943003911090184,
                0.2435910120144599,
                1.170292983432967,
                0.3323659799452836,
                0.5524412671983069,
                2.3144383461597413,
                -0.3617509658746839,
                -0.5705193264483264,
                -0.13140866832376186,
                -1.0559509662747966,
                0.06541003458533948,
                -0.1621894786695636,
                -0.32975892683451524,
                -0.5748001882242307,
                0.2836897861451779,
                -1.117731107929906,
                0.9655884219938258,
                0.042539283891667855,
                1.1847341170183532,
                -0.556702092609951,
                0.8883523804013591,
                -0.517012061285616
            ],
            [
                0.29837656480207025,
                -0.983699761341613,
                -0.2188745720457767,
                -0.568184129577928,
                -0.509484074272577,
                0.21618005349548594,
                -1.0683281423089013,
                -0.05506978135725225,
                -0.6073584894757287,
                0.39253227789613276,
                -0.0341569439210497,
                -0.6851696787351823,
                -1.1791311458898637,
                -0.7817190145016957,
                0.862477746163238,
                0.7414160916736825,
                0.7692330979366583,
                -0.7440350333997792,
                -1.9678462594997017,
                1.4181004761821994,
                0.3423910910057672,
                0.8591236426676433,
                0.5897514367790737,
                -0.3510995680054462,
                0.25041622009575853,
                -1.5998228715110894,
                -1.3050636807689258,
                1.4767548125063195,
                -0.3136215173793874,
                -0.23465103121994063
            ],
            [
                1.2360200013982143,
                1.8268702233473635,
                -1.7872982709528908,
                1.6639676797264717,
                0.946245865989865,
                -0.5500202452250984,
                -0.49868735277169063,
                -0.49534836373316266,
                -0.14294238626997588,
                0.42422054555917177,
                -0.12199488746090542,
                -0.6802987841255893,
                1.2231169897944754,
                0.5615231648581216,
                1.3310703870936793,
                -0.9223724118743555,
                1.7387213977292613,
                0.528758086533801,
                0.5019722886946739,
                -0.3944884359168042,
                -0.8112074983623903,
                -0.909157583312282,
                -0.36993841805838173,
                -0.049906836188031024,
                -0.4369876761786901,
                0.5993889252842564,
                -1.2664511019581686,
                -0.46954135987097184,
                -1.2856996302919144,
                0.01807804699759478
            ],
            [
                -0.3723177062790417,
                -0.5926266532411929,
                -0.21319708008375535,
                -1.2817419672347081,
                0.4766517565334089,
                -0.24227266415476456,
                -1.5005023280077572,
                -2.396517309163445,
                -0.7804215797770817,
                -0.8033070743176463,
                -0.7647550182903,
                1.678488159397155,
                -0.7990875874974851,
                0.5479024203700703,
                1.8276016346894686,
                -1.2696299580166273,
                -1.971638890422992,
                -0.5400672315574182,
                -0.9345561444617888,
                1.43474197338202,
                -0.7469556446187301,
                0.32070264010641053,
                1.0709083178970498,
                0.4309276779913321,
                -2.1971680873659882,
                2.728877459426546,
                -1.5514746530055372,
                0.2092308522981106,
                -0.5521432122770571,
                0.11477924493094407
            ],
            [
                -1.6669484782945097,
                -1.9931391124477846,
                0.08217445834108666,
                -0.5169063590155792,
                1.5384233136125987,
                0.17099356319700196,
                1.0877885083985044,
                1.134598053226906,
                -1.8180690960837818,
                -0.4381064024165143,
                0.06201731484408156,
                -2.253392656736782,
                1.4823616388222738,
                -0.2984137928000596,
                -1.3312670470551624,
                -0.22839308486774917,
                0.10393755102073515,
                -1.7439236607950839,
                -1.1079961745832607,
                0.1985565761225814,
                1.707744344011982,
                0.13222132550888624,
                -0.48926524159259926,
                -0.6739107577335792,
                0.19538588511692956,
                -0.28606144171767317,
                -0.3871147408590915,
                -0.20436403473450504,
                0.49178487962081896,
                0.7527916784584215
            ],
            [
                -0.26645229860884684,
                -0.06823505958619473,
                -1.451341858744641,
                -0.11434762167616443,
                -0.4312404177559176,
                0.3902789127477597,
                -3.092449947435101,
                -0.8320617634426594,
                -0.6046826526908655,
                1.2613523853784674,
                -0.7821480277760956,
                -0.8495320475163675,
                0.2629521882603579,
                -0.6737250189901628,
                1.6617165882455824,
                -0.9475131679653899,
                -0.13546866386743456,
                -1.003885537514471,
                -0.8709444026848024,
                -0.7676537405184052,
                -0.2809046368868195,
                0.5379854688995946,
                0.7346307783256238,
                -2.2679558805697275,
                -0.2387402264611001,
                -0.9053123857337053,
                0.8643485755324407,
                0.9440281146314575,
                -0.9987303832199738,
                -0.05962142961936872
            ],
            [
                0.23602019033027208,
                0.802936010400526,
                3.070967798620701,
                -0.61768875872423,
                0.6931823378099534,
                -1.3890986566378958,
                0.6712437831482873,
                -0.19695132164370113,
                -0.8736376770608778,
                0.38109509677691017,
                1.8143105066565257,
                0.631581774535141,
                -0.6002065318368106,
                0.1897110254741715,
                -0.04270042987227902,
                -0.3635330859112709,
                0.370004020989362,
                0.13080171095793283,
                -0.005258703574538469,
                -1.0032987695979725,
                1.508682853751424,
                0.3616550923971938,
                1.3088945394593554,
                -0.7376372373051904,
                -0.7618306976306748,
                -0.747764133781468,
                -2.142719745492818,
                -0.51576720721112,
                1.0596924739185285,
                -1.1846026764452637
            ],
            [
                0.08925517048893233,
                -0.15948169496944045,
                0.47269635200732957,
                0.6408957870583311,
                -0.6717057855420179,
                -0.30275999886155675,
                -1.8204034513600982,
                1.568073842281968,
                0.6652409227242143,
                -0.21107467302049887,
                -0.3106842999930722,
                -0.6367435743990542,
                -0.7332700231957153,
                -1.2943005617194612,
                0.6156515495341969,
                0.3489422739169289,
                1.542546103014783,
                -0.12661406636106018,
                -0.6936352498159747,
                -0.7328957391923052,
                0.25666927198410805,
                1.0478003064608763,
                -1.9292552329396948,
                -2.27548991837055,
                -1.3024269450927564,
                -0.5111382122162693,
                -0.9988847356375407,
                -0.12346337910082467,
                -0.9520055757628932,
                -0.5122929787689401
            ],
            [
                0.2565937085309305,
                1.5162177146457378,
                -1.2531432341137305,
                0.36919332075101674,
                -0.24237132794718497,
                0.7204765639295332,
                -1.3427307212519164,
                -1.400547039089184,
                -1.3997494591721973,
                -0.435588758952786,
                1.1465747840775007,
                0.06501093623444737,
                0.27686615521868513,
                -0.6229864807535118,
                0.03862710288048809,
                -1.2267230478215423,
                0.6930762110824216,
                -0.4127792133174163,
                2.358834168611014,
                0.3527695388436234,
                0.7347953953110866,
                0.7550179335732982,
                -1.3135274682821525,
                -2.037099061350931,
                1.285930691398035,
                -0.6292755401998539,
                -0.5812526623784166,
                -1.2354322033847425,
                -0.24643753060815077,
                -0.5787337013009021
            ],
            [
                -2.9833041233104605,
                -0.1911087072104887,
                0.9340768659948607,
                1.0393653205198767,
                0.7588398074676266,
                -0.4204235961708634,
                -0.6359793683966233,
                0.9491581971774213,
                -0.5497941670099303,
                0.7712897798161205,
                -0.4272621238427861,
                1.8609433752171924,
                -0.43815585084867137,
                -0.283600722154435,
                0.07548723052775796,
                -0.38325765700591524,
                -1.0221409790227014,
                -1.9808124848599997,
                -1.2662727873814406,
                -1.5535418177789333,
                0.0986047060705916,
                1.1927145215495212,
                0.2816321971051048,
                0.2555122503569038,
                0.000565452711351205,
                -0.45847093032900454,
                -0.6275161676641048,
                0.28531175657653246,
                0.6452227204861497,
                1.1731447721944772
            ],
            [
                0.24232454674591727,
                0.244527621578849,
                0.8799025108173818,
                -0.15633194260313327,
                -0.7510652715000097,
                0.8290209721466542,
                -0.48311737343326006,
                0.3092675493253866,
                -0.366453228570856,
                1.0669230876457931,
                1.2521095326846263,
                0.7457076215197896,
                0.5738233601348937,
                -0.16383874107884924,
                0.6215331964751575,
                -1.0197998595267743,
                1.938714990168979,
                0.7462377174660954,
                -1.3995298797458973,
                -0.08127057886540273,
                0.43915236443052585,
                -0.11382541865272373,
                0.19741524259688167,
                1.6780247692017238,
                -0.466120361557509,
                1.2000119607434292,
                1.1619852335812466,
                0.9986927795135272,
                0.6583798766398961,
                1.2708938486207162
            ],
            [
                -0.6029492476169283,
                -0.5001146047117855,
                0.31203423624708265,
                -0.6379325624695312,
                0.019940567452518227,
                -0.4574205094926433,
                0.05501799421688608,
                0.25862575063176524,
                1.0850876016522368,
                0.7976959886576273,
                0.32120906779326397,
                -0.13020571464584976,
                0.022231267172731797,
                0.6617299472228565,
                -1.5681632335988915,
                -1.55538281349402,
                -0.4158663221509047,
                -0.08765884091004528,
                0.4802787931867309,
                -0.9094512468243086,
                0.5588452461151976,
                -1.2153575307898627,
                -1.5974238539709176,
                0.9394394122054393,
                -0.22150296484728366,
                0.42108227061028863,
                0.18225936321863637,
                0.03416701486806364,
                -0.1779439218593626,
                -0.14325451818374454
            ],
            [
                0.15821222524021758,
                0.5037471432427195,
                1.095068539823694,
                0.050457086059117175,
                -0.8520238654422171,
                -2.3038595475767414,
                0.20098108569440912,
                0.35962039804829254,
                -0.4819676291436839,
                -0.03748237406080293,
                -0.6891383086765571,
                -0.14716121315680028,
                -1.0856786313783704,
                -0.5837332022808562,
                0.6481911912669001,
                1.2914625554906696,
                -1.0086409903462081,
                0.41159737175690725,
                0.3123284128886571,
                0.21798373067946986,
                0.44122662679688174,
                -2.8313639708121787,
                -1.4970525191347963,
                -0.5046328091299825,
                -1.9629473986509538,
                0.7793258186065345,
                -0.8174494017433522,
                -1.2528702690232132,
                -1.3400039002035176,
                0.18417448132055544
            ],
            [
                -1.3948071048596304,
                0.18430374406803846,
                1.0558502323190742,
                0.8626323452986064,
                -0.658549469773727,
                -1.8363327209579803,
                0.5212846839929934,
                0.3080995646184144,
                -1.1968031284595553,
                -1.0154471529112197,
                -0.13807008724971473,
                -0.7269495171515591,
                0.367377441073952,
                1.3963487521171012,
                -1.4609188676453473,
                -0.38873381167485865,
                1.7684846701879913,
                0.6727279025303657,
                0.09724206390696603,
                0.9638509956955527,
                0.14646011581249824,
                -1.1295298849502096,
                -0.6926460942530286,
                1.7898729197239975,
                0.19849119416102676,
                -1.8141038673221765,
                0.3059200458301186,
                -0.6987899423330621,
                -2.4966024824009745,
                -0.11870957579992703
            ],
            [
                0.3638396479859648,
                1.155632551085329,
                0.587205398786437,
                0.7964485544350236,
                2.4099687964466203,
                -0.1388486384827888,
                0.3786158936670281,
                0.014757195246824588,
                -0.14667857528045988,
                0.8398696237644245,
                0.69799370696659,
                1.8309098531081487,
                -1.5118513153386859,
                0.60268722741495,
                0.3896202940873519,
                0.05177238126124331,
                -0.3207425198014622,
                1.8160587310000247,
                -0.5958151503523939,
                -0.11978925593765974,
                -0.09860061419514199,
                0.17093108125870576,
                -2.0643183442903776,
                0.7014522163787154,
                0.26139895157195536,
                1.3352194953523362,
                -0.22178343453965488,
                1.0145856206901824,
                -0.5004722169170934,
                -0.1936900684331993
            ],
            [
                0.8662670873563082,
                0.19357320972772055,
                -0.01402168098312438,
                0.721831573141764,
                0.3461506536002914,
                0.5570630772856048,
                0.3872885425356087,
                0.5614146348437932,
                0.0043364063742707785,
                2.4031262164756586,
                1.2102327734866425,
                -0.9504040560728167,
                0.627756029942673,
                -0.13907411444658976,
                -0.8998754289348081,
                -1.0803207300055808,
                1.0062754947866388,
                -1.9628938236842457,
                -0.46166401528774903,
                -0.0188156175920553,
                -0.14172256178584244,
                2.7695220406304943,
                -0.6730033168667532,
                0.029663066078246536,
                1.3415717282808122,
                -0.881003646609242,
                -1.5250380779082018,
                -0.09452689546988612,
                -0.2647759903998868,
                -1.5422518900723674
            ],
            [
                -1.0867494196954586,
                0.5751627133183722,
                0.1668218357234809,
                -1.461806316545166,
                0.3773652440124175,
                -0.08371871251531912,
                0.2914978920013827,
                -1.7681781293514627,
                1.2096587292722376,
                1.2603823390035938,
                0.013075929526109756,
                0.9205670357169555,
                -0.20500049841924636,
                -0.1474167792080133,
                -2.9965572669631597,
                1.6413351358425317,
                -0.6823382004239397,
                2.1616386546976605,
                -0.9443720481806315,
                -0.6486560455909606,
                -0.6118170815974958,
                0.2503844645358466,
                -0.5962213279205113,
                -0.29683955330909173,
                -1.0212142107027518,
                -0.7333748964594191,
                -0.669273304968579,
                0.2646934284598947,
                -0.7375938724708706,
                -0.6873181175301284
            ],
            [
                -1.2718263690644334,
                1.399027116194938,
                -0.407075548069519,
                -1.5546653891279767,
                0.5906499198478926,
                -0.8441048435705236,
                -0.7036205649543855,
                -2.0850489751230925,
                -0.40580953572608935,
                -0.30925502157262097,
                -0.4967371278476345,
                -0.5748909210417488,
                0.042156725964283444,
                -1.3854850995797583,
                -0.09409511166551561,
                0.4724914580753662,
                0.02210966975976532,
                -1.183022346173679,
                -0.8331329704016835,
                2.104953175750843,
                -0.9969350053812871,
                0.6893251777058209,
                -3.347193066719712,
                0.10809824118088746,
                0.9828812627921124,
                -0.2514959378549158,
                -1.848212174014161,
                -0.07282390904641518,
                -0.16760904543907137,
                0.7020970401245802
            ]
        ],
        [
            [
                1.0676675396434787,
                1.8492634738794527,
                1.470833390312227,
                -3.1961534447629854,
                1.2504417533599188,
                -1.4844383608814409,
                -1.2124829298651236,
                -0.631212733180501,
                0.010017511207132084,
                0.8565033679686629,
                -0.6561356675036396,
                -0.3625586257061852,
                -0.5305961003391347,
                -1.4573990559388241,
                0.2562114450354012,
                0.32301618639275237,
                0.699995705919362,
                0.7194298272286501,
                -1.5776592062152721,
                -0.5810624460108318,
                -0.8599988621741269,
                0.11320471950572339,
                1.144185781581181,
                0.0336615515706044,
                1.6125990976226272,
                -1.5457612961807723,
                -1.0827203862345245,
                -0.22274325687775515,
                1.386870919723783,
                1.9146274188782486
            ],
            [
                -0.09229783984563693,
                -0.06822536144804747,
                -0.921560337794222,
                0.3955695626244254,
                -0.5968167062108921,
                0.4395521349106959,
                -0.7667186478459774,
                0.13782657099280085,
                -0.37407013306847653,
                -0.9038120422430028,
                -0.5193921494771468,
                -0.8842546208460732,
                -0.44480336652852,
                -1.352037397368083,
                0.5823567855427205,
                -0.5260083150297545,
                -0.38100124297321897,
                -1.3481243434721586,
                1.546531352332113,
                0.47653043858963795,
                -1.4783863915729842,
                -0.7747347820958457,
                0.7445911523188081,
                -2.0800902192840627,
                -0.9837102949435125,
                1.0129732579264572,
                -0.051411230415627625,
                0.07649880233277091,
                0.19709628430058543,
                0.14098730455914762
            ],
            [
                -0.640154763734805,
                1.7435299403242557,
                -0.13829923509253975,
                1.707128332889448,
                -0.8226525775019436,
                0.410042491846045,
                -0.4846773089231832,
                -0.9128609138146314,
                -0.1312700833940094,
                0.49918879039709435,
                0.1600490896539558,
                0.11866496794445745,
                -0.9384250493367784,
                -0.5548985283261288,
                0.42196338496738034,
                -1.6739776678113976,
                -1.2976826743688683,
                -0.7776622682442711,
                0.5121674113170154,
                0.7585500327238496,
                2.2230102344967744,
                0.7927918098603537,
                0.6792415335691087,
                1.0195191408673472,
                -0.13754973080999985,
                -0.6260805234853417,
                0.7523434207545279,
                -0.537863566946926,
                0.3911349149916813,
                0.6201204966593584
            ]
        ]
    ],
    "epochs": 6000,
    "mini_batch_size": 14,
    "eta": 0.1,
    "error": 0.01
}