{
    "sizes": [
        6,
        30,
        30,
        3
    ],
    "biases": [
        [
            [
                1.3085693167313721
            ],
            [
                1.958425972578141
            ],
            [
                0.3812364893778234
            ],
            [
                0.5173192792335389
            ],
            [
                -1.8135956418362744
            ],
            [
                0.5007350627436432
            ],
            [
                -0.39850991624982407
            ],
            [
                -0.7772596227434777
            ],
            [
                -0.7237460041936321
            ],
            [
                0.4981043883810741
            ],
            [
                0.8223685358049777
            ],
            [
                -1.0598142814209413
            ],
            [
                0.11254643501522577
            ],
            [
                1.8480752737643154
            ],
            [
                -2.06895329104875
            ],
            [
                2.2690117345093475
            ],
            [
                1.1649966923301678
            ],
            [
                -0.6818906238430621
            ],
            [
                0.3529166755077825
            ],
            [
                -0.9059370791280023
            ],
            [
                -0.3859290129258795
            ],
            [
                -1.7567263167415257
            ],
            [
                0.30097479479432443
            ],
            [
                -0.8920687703422431
            ],
            [
                -2.4195992173078773
            ],
            [
                0.14877529367945283
            ],
            [
                0.4758821677401306
            ],
            [
                -0.17933014357612628
            ],
            [
                -1.428095257414136
            ],
            [
                0.5428454916246345
            ]
        ],
        [
            [
                -0.2038373710485824
            ],
            [
                -1.1035491083102797
            ],
            [
                2.0292977775860215
            ],
            [
                -1.5148394200386617
            ],
            [
                1.030783997403949
            ],
            [
                0.1600304636833773
            ],
            [
                1.5096016820096245
            ],
            [
                -0.1738502882305115
            ],
            [
                1.3369062698890668
            ],
            [
                0.8551557502594777
            ],
            [
                -2.5502730480240845
            ],
            [
                -1.5663307168991392
            ],
            [
                0.24522361283651287
            ],
            [
                0.6596814787110088
            ],
            [
                0.3667520961706528
            ],
            [
                0.29509579545772396
            ],
            [
                -1.3600571084536723
            ],
            [
                -0.004380221087070797
            ],
            [
                1.921097851018016
            ],
            [
                0.06910409958480139
            ],
            [
                -2.0812735427943054
            ],
            [
                0.4117038878536772
            ],
            [
                -0.3234638503409117
            ],
            [
                -2.4281901015444
            ],
            [
                0.37441927594491986
            ],
            [
                0.44842398618392787
            ],
            [
                0.18144779360202787
            ],
            [
                0.7752784141191837
            ],
            [
                -0.22025088810546922
            ],
            [
                0.4046434415929421
            ]
        ],
        [
            [
                0.518202401659298
            ],
            [
                0.8814185839402823
            ],
            [
                -0.03501611939731231
            ]
        ]
    ],
    "weights": [
        [
            [
                -1.1264029527782073,
                0.9189122632338645,
                -0.4168799343967754,
                -1.0419174469545815,
                -0.6900332816101362,
                1.4171599595058944
            ],
            [
                0.6907056459777697,
                0.11955343530801882,
                -0.798986437504046,
                -1.2501243087156022,
                -1.4905646361258975,
                0.03332520724018009
            ],
            [
                1.7053730849839663,
                0.20143126986554086,
                -0.38007466757275354,
                -1.2285186902405498,
                -0.38468574369525604,
                -0.47177868472878176
            ],
            [
                -0.26096273134384307,
                0.06388863704095704,
                0.049617003225904774,
                -0.1111066575041749,
                -2.1505128976314083,
                -2.522775202446382
            ],
            [
                0.5764844126388884,
                0.05167632822082663,
                0.5730871703216377,
                -2.389884659584092,
                -0.39060996043415047,
                -0.10849560593751846
            ],
            [
                1.296904693681295,
                1.3728254859259696,
                -0.16832463685417637,
                1.4037483174883736,
                0.44899706640347326,
                0.9411541716173137
            ],
            [
                2.895134338576085,
                1.2508595702608736,
                0.6076856215143878,
                -0.005281143194358015,
                -0.6101346634280996,
                0.5519085844673212
            ],
            [
                -0.31338857587599467,
                -1.0226019080068733,
                1.136001656594165,
                -0.48121578877345994,
                -0.08911202648676698,
                -1.5601517448665725
            ],
            [
                -1.3232089975514278,
                1.4385069668901345,
                -0.6787062053206947,
                -0.12287613298455231,
                0.11190178125624595,
                -0.6336540978906707
            ],
            [
                0.23154872021516668,
                -1.1845003860822556,
                0.16980375022177438,
                -0.6033371960781055,
                0.8323267838186154,
                0.28619260750759645
            ],
            [
                -0.40794377199687515,
                -0.3265365737254259,
                0.5877127064826104,
                1.9681689660739783,
                0.23420511019084425,
                -0.0244461463578802
            ],
            [
                2.3214776517841584,
                0.22715806971560662,
                1.4754085499885408,
                -1.2825402132736907,
                0.44153399507256125,
                -1.7305652919436778
            ],
            [
                -0.7773929031456133,
                -0.17469920659772273,
                0.7953283585862935,
                -0.2685309937262413,
                -0.4236143998405676,
                -0.08748536817864963
            ],
            [
                0.547050333173799,
                -0.7447454446453463,
                -0.21271883961000115,
                -0.33223642781179813,
                -0.6438577584489554,
                1.4873561645161866
            ],
            [
                -0.1205124717865049,
                -0.3265111311188122,
                -0.11891514780344609,
                0.9976094994644197,
                -1.807110597795788,
                -1.166168171233864
            ],
            [
                0.8146117325494807,
                0.9666342709157825,
                0.054800899861217015,
                0.008444190555874547,
                0.16832491909989294,
                0.21170440790707748
            ],
            [
                0.38550639535057984,
                -1.5089157260791188,
                -1.028700470340467,
                -0.6442563831535307,
                0.36260809139345984,
                -0.31712277589302235
            ],
            [
                0.38402697773648753,
                1.413239380983273,
                0.8774828759070536,
                -0.04087028610513051,
                -1.4422543127405212,
                1.0635420679547372
            ],
            [
                -1.5618295513225706,
                -1.54523850381271,
                -1.7648686278030705,
                0.5383076309535312,
                -2.032167511906994,
                0.777694655129659
            ],
            [
                1.4663796907794977,
                -1.113405957383639,
                0.1850698835604866,
                -1.3418392514354434,
                0.3317998504014437,
                1.1377487777488158
            ],
            [
                -1.31162151020355,
                0.08151467519871826,
                -1.8335613839228735,
                1.4577037537351343,
                0.11485715626529074,
                0.589021196442423
            ],
            [
                0.4487824548637982,
                0.554041968944747,
                -0.9101086195373026,
                0.9604321333126244,
                -0.10949843928657169,
                -0.019843555524633044
            ],
            [
                0.6064846993501639,
                0.767980333445552,
                -0.08595558836106053,
                -0.43548953480554714,
                -1.4550514840840412,
                0.3936641148134558
            ],
            [
                0.5599655533269123,
                -0.053787245776664376,
                0.24185873125893248,
                -0.09549890337241675,
                -2.374336459510378,
                0.5484742876534329
            ],
            [
                -2.229488888812958,
                -1.1785851235824247,
                -0.48142875007542646,
                -1.090817379760284,
                -0.8529932033020365,
                2.594061840548086
            ],
            [
                -0.6835777615858163,
                0.5786285263527544,
                0.6177649559515809,
                0.735277818192527,
                3.3312740637361693,
                -1.109417145026667
            ],
            [
                -0.7205104733962433,
                -2.1953444071030614,
                0.08526897213578283,
                -0.6372615673020915,
                0.7385410957484025,
                1.0910355466878108
            ],
            [
                0.22033520828058167,
                -0.08459482619807542,
                -0.24914260897096524,
                0.8877872638380462,
                1.1426789015654404,
                0.27365396683041865
            ],
            [
                -1.5500346124518039,
                -0.7921930305246803,
                -2.14379243522009,
                -0.38444780720298904,
                0.968313459629211,
                2.4682716074280497
            ],
            [
                -1.010576608149691,
                0.9943398978752072,
                0.12644912679783232,
                0.4474181235260203,
                -0.5944631291970266,
                -0.1572833866972082
            ]
        ],
        [
            [
                -0.09568306884174788,
                0.22890919632029813,
                -0.9014227403450802,
                1.4020911199844273,
                1.3884358513179111,
                1.0252072834116346,
                1.123403792613676,
                -0.6346352585015632,
                -0.8980290356119404,
                1.5901305477729712,
                0.10578997452613821,
                0.8725256053238492,
                1.9751559034773725,
                0.4779285920556879,
                0.9878702364916953,
                0.10536905081633512,
                1.9743088392676311,
                0.1097624667816872,
                -0.4138153002029715,
                2.0572312206005097,
                -0.4574754125921488,
                -0.020409607411780273,
                -0.40118176507057135,
                -0.9544922156581794,
                2.09649022793889,
                0.5489491204915354,
                -0.7382544189621143,
                0.7205312675623368,
                -0.595456237578376,
                -0.04222403929344221
            ],
            [
                0.4265847597640793,
                -1.7907986427666513,
                1.0798155213746714,
                -1.702437980921144,
                1.535220187903959,
                -0.42344694717112125,
                0.6846398237960972,
                -0.14591074733842235,
                0.5629333333750745,
                -1.3949807139191928,
                0.6567445068254799,
                0.2587917838623055,
                1.1617659886409326,
                -0.9574962435615565,
                -0.7616888046885889,
                -0.8892273681950943,
                0.7411762917092006,
                0.6693091000365533,
                0.16389455650680834,
                1.2769310428592735,
                0.6610135019247234,
                -1.1618834688201678,
                -0.4005886009741912,
                0.7700257347277925,
                -0.24556230261913317,
                -0.13968847208928,
                -0.01956278994059156,
                -1.18010013146287,
                1.3398766470395254,
                -2.0031434385652913
            ],
            [
                0.46617929031370553,
                1.3545256190457347,
                0.04033058873400704,
                0.7356625700513859,
                -0.6495824618640751,
                -0.10431149405521614,
                -0.19319825427310658,
                -0.37600856436823193,
                -0.3979490919511522,
                -0.7334884992138976,
                0.7106494749352836,
                0.4800644774169389,
                0.374524942194673,
                0.5030004885458255,
                -0.13016140245546606,
                0.8852773168212202,
                1.0795474343352347,
                -0.4447211880284667,
                -0.4790800427300247,
                -1.1166180818151317,
                0.3274478093791545,
                0.02787354938394843,
                -1.8754284966624581,
                0.22183401002652367,
                -0.3878674995584936,
                -0.0023907597063204714,
                -0.05179496122133216,
                0.005506500110522484,
                1.1184636737084956,
                -0.4235324742737218
            ],
            [
                -1.2708096036503238,
                -0.3536092929270421,
                -0.8787680006126051,
                -1.1746210156604957,
                1.0893721360605815,
                -0.29141340634313917,
                2.3388141641205618,
                -0.20367574635550015,
                1.0317786783195506,
                -0.6394286719657436,
                -1.297302161071778,
                -0.6252263001358195,
                -1.8584303587742017,
                0.7307245720073098,
                0.3796120280448269,
                0.22708327126897834,
                0.5146162781586701,
                1.6782624025081083,
                0.21497859682080983,
                -1.7493694403528828,
                0.9536990219058135,
                0.3040965077427965,
                -0.45586497893180183,
                0.5649354448358226,
                0.505488618655685,
                0.19735488057235628,
                -0.13394461163897842,
                -0.3721913148665837,
                0.954209981043073,
                -0.07222906054945885
            ],
            [
                1.286596332370535,
                -0.303560199281964,
                -1.09305075659165,
                -0.038843897960060686,
                0.14164682062852166,
                -0.21571477243983425,
                -0.24212256896313078,
                0.41606181227957795,
                0.2946771066989229,
                -0.2455833866688592,
                0.2119288438450877,
                0.9027180784416894,
                -1.0217440544174736,
                0.5359676350161805,
                -0.18385806919204623,
                -0.3326001442864356,
                0.3641800707760601,
                0.1438944957561566,
                0.13559420673987527,
                -0.418972483868139,
                1.4382716258364576,
                1.3079107063079438,
                1.512528885192203,
                -1.0441968669301378,
                -1.3759599994763896,
                0.7543992967929383,
                -0.2746553147441804,
                0.4283189132854633,
                -0.12305107347052624,
                1.422851734473605
            ],
            [
                -0.9684345111710578,
                0.605084492163232,
                1.125998929749806,
                0.1572042804777571,
                2.07018168009033,
                0.21323411237300263,
                0.6225278114601508,
                -0.8953815690757501,
                -1.3517876151224109,
                0.5398311288415548,
                0.44048119995439744,
                1.3837730089120226,
                1.1076721835244785,
                0.8664276348638165,
                -0.582321503456332,
                -0.2717599304408837,
                -0.34280237518705664,
                -0.8687861524351428,
                -0.5168961912015256,
                0.40980325706712817,
                -0.5561627154546428,
                -1.3920389890630511,
                2.0523734433314242,
                -0.4740251335632712,
                -0.34608302542475394,
                0.6278088891056813,
                0.1175920352791247,
                1.2446636320567435,
                -1.0508787800011123,
                1.1424474233627289
            ],
            [
                0.7010002581196388,
                -0.6115150503127293,
                2.05403015248066,
                0.1441583232751563,
                0.33265826199476267,
                -1.515707434147218,
                0.34187267244413894,
                0.06104415248576681,
                0.5708006913089657,
                -0.505244719107809,
                -0.17477308833398253,
                0.16694730546193365,
                -0.5610559637130221,
                0.7711635942852763,
                1.4984563520950638,
                -0.12713251303491027,
                -0.2609823398631554,
                -0.006448278705919675,
                -1.034599148811048,
                -1.1273190973044467,
                0.9482672334459719,
                -1.4824895513965513,
                0.13588392666473012,
                -0.531809092673398,
                2.041795360616682,
                -0.9304017545919009,
                -0.7165770184552842,
                -0.867220176061787,
                0.8497453023699634,
                -0.013196741061112988
            ],
            [
                0.819402144178114,
                -0.544796841128238,
                -0.2264859983217643,
                -0.007548302271408491,
                0.20396880588931562,
                0.36362737737136497,
                -0.7192959844350978,
                0.12535458126248714,
                0.39580206670077456,
                0.45780454652881,
                1.6705962023162968,
                0.974837637850073,
                1.1415911478418994,
                0.31768105759962273,
                -0.08615294372264859,
                -1.1700255962747736,
                0.16577260621606776,
                -0.041667381674942106,
                0.3828819305583408,
                -0.2321447987299748,
                0.2206829764101789,
                -1.0097596731755407,
                0.502927509774428,
                0.6794084866546215,
                -1.1414516605767084,
                -0.1480588370030075,
                -0.9602244844412361,
                -2.057144170186937,
                -0.01037508980047397,
                0.906603082318248
            ],
            [
                0.2931347916874211,
                -0.927601848213889,
                1.5805237334965883,
                -0.3938033716675992,
                -0.28800133649439996,
                0.1784172034494845,
                -0.38935356328830284,
                1.5385281701938502,
                1.0090589237101688,
                -0.15295169465749878,
                0.3943087047463862,
                -0.23933127681086652,
                1.942512500164084,
                2.0052453920477493,
                -1.3477734633349507,
                -0.03766170790178384,
                1.4302210381256233,
                -1.0447823316690243,
                -0.933041388505827,
                -0.18253199367483325,
                1.4549662621872643,
                -1.3749067438399338,
                -0.15958492712835606,
                -0.4072387938955855,
                0.5642492354718722,
                -0.8065727298102584,
                -0.9173759241139106,
                -0.24871097164140427,
                -1.199571354933332,
                0.3470252651092406
            ],
            [
                -0.3079489922804188,
                0.5356663382952251,
                0.600808630275609,
                1.0671041036225966,
                -0.1754101652180654,
                -1.3876389678528387,
                0.32409106759305795,
                0.46180452327227206,
                0.4791005345301337,
                1.0197472572217379,
                2.0828616752222033,
                -0.2713703180591402,
                2.1473143518931237,
                0.31767200662930134,
                -0.6291166696625847,
                -0.9343757442259542,
                0.20584916859994315,
                -0.5940061836148679,
                -0.7353564621540545,
                0.3811313569789559,
                0.8352979992997537,
                -0.462430529926601,
                -2.7656628283538023,
                -1.6980270079073383,
                -1.137951362591746,
                0.8620949685365302,
                0.38656024970880476,
                0.7323624380385219,
                0.398507846412957,
                1.2461988368312602
            ],
            [
                -0.5257254151786424,
                -0.7397116969971856,
                -0.1995614634618395,
                0.4001099761315098,
                0.32242642990855,
                0.10603196441017615,
                1.2602495204670057,
                1.4081002716035362,
                1.3469019263619577,
                0.4193756939174232,
                -0.666890005573054,
                0.20210942202712634,
                -1.1093562502045045,
                1.029583680849191,
                0.6183709980455512,
                -1.8594253463904025,
                -0.2528188413168324,
                -1.3395275395507538,
                -0.7966765556251723,
                0.2663756479388293,
                -0.39967301709881536,
                0.7861658294809057,
                0.24925109976980248,
                2.1268672453735054,
                0.36112487378219954,
                -0.5847888601663205,
                1.5557867462860968,
                -1.3986148854276157,
                -1.5385465373829834,
                0.9214099581394505
            ],
            [
                0.9202012647494403,
                -0.22733387218806478,
                -0.8381403434171384,
                0.29819947090255666,
                1.3185143769130534,
                1.285152814566327,
                0.12258427394000623,
                -1.2307670343891859,
                0.1443461388163541,
                0.9225684428444948,
                -0.16866445245467032,
                0.9705322213407533,
                0.9417739286417018,
                0.15987171255874455,
                -0.7050457476936417,
                0.5390023934174514,
                1.3432308460900417,
                -0.6064425113666772,
                -1.0097361867025347,
                -0.38601127303539295,
                2.322692725840658,
                -1.0251386109059235,
                -0.4531256252901288,
                0.7205135130810337,
                0.22096704288686383,
                0.028359368563213732,
                0.45690735051018294,
                0.7640184847617338,
                0.2839120858258251,
                0.8780635142930806
            ],
            [
                -1.2781791894856758,
                -1.4450562230549433,
                1.0729933797295519,
                2.322779445349769,
                0.5468275855604731,
                0.8680897050013422,
                0.4781637691224373,
                0.5982946324945017,
                0.4250246486112887,
                -0.11739286803436735,
                1.0290209552580716,
                -1.054550116716571,
                -0.14662042907301778,
                -0.28103225602521026,
                -1.7395913838444605,
                1.633680540469142,
                -0.5140486536573484,
                -0.027406996492292092,
                -0.28152613459942516,
                -0.796666061003972,
                1.3907936641080831,
                0.0664343939626929,
                -0.32655866616124496,
                -0.2724246724810354,
                1.4372103838547496,
                0.9443402759609754,
                0.12447560037972638,
                -1.4485961250497907,
                -0.11131748105777034,
                0.4154552526252222
            ],
            [
                1.8859777647062952,
                -1.5136803322939454,
                0.38532603213852745,
                -2.3900239342328966,
                -1.3893703469896532,
                0.4869043013039884,
                0.3249161189687565,
                0.24819671286935313,
                0.37378810986659716,
                0.5627053861090708,
                0.5657377352768853,
                0.026542749743567205,
                -1.461814105485919,
                0.877636682529159,
                1.2204019613285382,
                -0.15816140198360185,
                -0.476493489877802,
                -0.4637711674718938,
                -0.7586155203201972,
                -0.6577230966381048,
                -0.3446137340233731,
                1.8195878270147767,
                0.0980984423822723,
                1.0589839138343025,
                0.3894495015872493,
                -0.4786946600531854,
                0.5813999844409783,
                0.047513001235742966,
                0.938615433380453,
                -1.0616793157359425
            ],
            [
                -2.956087583857529,
                -0.15513544888244707,
                1.1590347452402847,
                -0.4124647097552186,
                1.2705669974843705,
                0.5695373051412607,
                0.19506454430666328,
                0.8293877213915379,
                -0.10976580851058514,
                -0.25389130662506015,
                -1.3357403340742227,
                -0.4399803532798444,
                0.5894313019605721,
                -1.1345562373382205,
                -0.308965917396107,
                0.6277202369485176,
                -2.045911904794913,
                -1.148770812000384,
                1.1931190267750895,
                -0.73431237720033,
                -1.2462698461775155,
                1.0963416811147508,
                -0.23881783094510017,
                1.3875778839339261,
                -0.19325237601767076,
                -0.23169096896529492,
                -1.0646034226950905,
                -0.014264866943058842,
                -1.7763355126859655,
                -0.7079038964297003
            ],
            [
                -2.9484259453089083,
                -0.33593449412465015,
                1.4566307533617935,
                -0.37417675099658654,
                1.1571945190207313,
                0.43429191980955933,
                -0.3321486843303647,
                1.5652234279767274,
                0.1622780099328091,
                -0.5607214365005705,
                -1.111690447679785,
                -0.01616008002876213,
                0.06485197971940398,
                -1.6336802345608465,
                -1.3445951620967338,
                0.7072110197507772,
                -1.211429558956455,
                0.07476805926361872,
                -1.242237613847219,
                0.09688318015842884,
                0.6916453301167202,
                2.0577663612580763,
                0.3141958677658721,
                -0.22126772540245995,
                0.042211312566457326,
                1.1430058404611263,
                -1.0347466162064423,
                -0.6227922051916781,
                0.06137146682367142,
                -0.8525517622504257
            ],
            [
                -0.9991370143784483,
                0.34566689087108615,
                1.0609431936516656,
                0.7811738760843792,
                0.6329570991344945,
                -0.3980519093729041,
                -0.014714672956259155,
                -0.5904346479905153,
                0.17244627731141907,
                -1.9654043032179442,
                1.1704534382385932,
                -1.3596839122612132,
                -0.8658647607998603,
                -0.6700536159633426,
                1.1123867726603764,
                1.3589746596799943,
                -0.7064224973165515,
                -0.07362555821413388,
                -1.2442925594919496,
                -1.2247948557757367,
                1.3103234970746134,
                -0.4605285677052084,
                -0.9023912331740591,
                0.7447781293592314,
                1.8003909215662348,
                -2.5461990262362546,
                0.5449553503335415,
                -0.4689594176425426,
                0.5917455323248183,
                -0.07234368718507751
            ],
            [
                0.25832808775059535,
                1.5407773776068987,
                0.48154048824828155,
                -1.268081140066435,
                0.47486647920195235,
                -0.043250988090891264,
                -0.7000393292651018,
                0.3643077169495453,
                -0.6656799632245651,
                -0.06890698760626314,
                0.4360326436559412,
                -0.07035292143437777,
                1.2422490691943517,
                -2.404707771757012,
                0.21635156598664107,
                -0.6556315817125844,
                -1.4936137636585918,
                -0.6046290912860621,
                1.2017443447460476,
                0.5228621465125933,
                -1.563690647215655,
                0.09670676283244121,
                -0.37513397562410183,
                -0.7225249760038137,
                0.15063827915654265,
                0.03905360671337921,
                -0.7293231750221716,
                -0.8203417073025285,
                0.10657022454401253,
                -0.04856721753777548
            ],
            [
                -0.2568750841467411,
                -0.6557057856763733,
                -0.5355154902026062,
                0.17768758655286182,
                0.4891114804776408,
                -1.7070552524333968,
                0.1259328170396946,
                1.0287914638981281,
                0.7609896145646201,
                -0.04755732962193543,
                -0.5084785527259755,
                1.5891254923039828,
                -2.1578945703182866,
                -1.1061610908624817,
                0.6198030795721877,
                -1.2669578414628737,
                0.1907264390693988,
                0.5811142096223507,
                -0.18852975376138012,
                0.07305215236843367,
                0.061911877095639,
                0.4038330404142747,
                0.21747505104786105,
                -0.30810042188634745,
                1.412871685013763,
                0.20611245779893927,
                -0.3838124629842277,
                -0.47636833514428206,
                -0.8473086269415616,
                1.4346585222135606
            ],
            [
                -0.4492624850121697,
                -0.025904282937930262,
                0.36898670848575144,
                -1.1443170520731554,
                -1.8407059857641972,
                -1.5114684238335414,
                -0.5910648177761141,
                -1.5036046132646474,
                -0.3863709575693282,
                -2.2911484532518007,
                0.7406292312417121,
                -1.537423573881124,
                2.161435360701799,
                2.265430934069074,
                -0.01584145030486395,
                -0.2332284394491601,
                1.5418479854123235,
                -0.3568126290484647,
                -0.3072269667137302,
                0.03680834605952538,
                0.6171277087599298,
                2.264978913637077,
                1.3744330429890148,
                -0.2849288408008012,
                0.07165220969523359,
                -0.1951882152142466,
                0.8376650166318537,
                1.045476344066914,
                0.4764626353702958,
                -1.4122595985734085
            ],
            [
                1.0807401098208296,
                3.059997101188141,
                -0.5507624982301299,
                -1.7686972217650292,
                -1.3955589333885543,
                -0.6410416063216725,
                1.0397908688796105,
                -0.7951115860309357,
                0.3616910289956761,
                -1.4641536676967395,
                0.399717316205876,
                -0.05456014098440926,
                -1.7356169151566616,
                0.7091921673704731,
                1.490745175464277,
                -0.6370576633831376,
                -0.29004330295379416,
                1.2005362200226954,
                -0.3059917709790556,
                -0.4418067490198514,
                -0.834278073243878,
                1.88998061082017,
                -0.6179219111302718,
                -1.1867846109362812,
                0.9086306191049287,
                0.3106660129456584,
                -0.5173112970173991,
                -0.6756776722438445,
                -1.00184655627147,
                -0.21935207126469936
            ],
            [
                0.877415322282431,
                0.29412503347557434,
                -1.604498543886765,
                -0.11942697794839453,
                1.3331865139321195,
                -0.6376980869288122,
                1.9986919149144329,
                -0.0363669501268375,
                0.45049811311524324,
                -0.14986854073679154,
                -0.29313800403097795,
                -0.0710374456745688,
                -0.4790661041310503,
                1.0677818886315735,
                -0.3393095796225674,
                -1.5446489061390534,
                2.077319069878133,
                0.10710643121015072,
                -1.0350519796278594,
                0.07301733304064312,
                -0.1686562716665403,
                0.5661779729714238,
                0.9265055146613916,
                0.2007683305167105,
                -0.696233128718507,
                0.955402706533962,
                0.9524341833344052,
                0.9004207550165203,
                1.1321330233605977,
                0.8554494110670213
            ],
            [
                0.3319916355505137,
                0.7018840864940448,
                0.47358103375479005,
                -0.5477439405589186,
                -0.19835696669086297,
                0.13430703786069745,
                0.6147630680333558,
                0.78017649854055,
                0.9637001203251471,
                0.8111678109827114,
                1.2458877992400919,
                -1.3778580810380083,
                -0.7615806467213562,
                0.04155666317456534,
                -1.0215140736901325,
                0.09672984544786346,
                0.6124005211182386,
                0.9329099977969731,
                1.1357642727240913,
                -1.509372076503622,
                1.8625175987186573,
                0.684104660942134,
                0.9754234003282906,
                1.068067515292527,
                -0.5518260214623426,
                0.01949668984362196,
                -0.8205976006520062,
                -0.16611200155328001,
                -0.1850910104434695,
                -0.30691539517344124
            ],
            [
                -1.308971842422132,
                -2.4648689030825937,
                1.3546684272450684,
                -0.48947053653599,
                -0.03198090096568845,
                -1.182441493979164,
                -0.012952884159204744,
                1.4733396233633607,
                -1.4833887980030795,
                -1.3517965475232538,
                -1.4527987528708042,
                1.8486856179463862,
                0.23823217375082473,
                -0.34400569946259957,
                0.6206763625325044,
                0.5274289571127018,
                -1.614625484347899,
                -0.0781478829710827,
                -0.2626363500746953,
                0.6534756857264707,
                0.19328448535371864,
                -0.35255800618907984,
                -0.15002072679090386,
                -0.4870994441275499,
                1.606263847901285,
                0.054602863576251895,
                0.5963496954676099,
                0.4864227220812438,
                -0.47964088461069704,
                0.20606851208567767
            ],
            [
                0.054720890921875695,
                -1.3099988124552364,
                1.5498712225909195,
                -0.20273529113943267,
                -0.3789633184240147,
                0.32859267375679263,
                0.5839629874674631,
                -1.7737812656271577,
                2.495615671385465,
                1.3043412104806915,
                0.26645061687106336,
                -0.4599910043137585,
                -0.8801234469649826,
                1.6851651106468841,
                -0.7155330238027267,
                -0.5962688078541185,
                -0.7959065020006847,
                -0.5154943773170335,
                0.11544322770422615,
                -0.733141624966028,
                0.20264522630823684,
                -1.3364453941717247,
                0.6187577547068837,
                0.3173618844868964,
                -1.1037275634754615,
                0.7820766902169581,
                -0.2772558691218074,
                -0.6672015368258959,
                0.5912553428172275,
                -0.07197768894682191
            ],
            [
                1.7364117210180718,
                1.905810156997001,
                0.17423840089172257,
                -1.58260060768454,
                -2.574575695738881,
                -0.4781359529909402,
                1.2450290698432414,
                -0.10753827385821269,
                -1.881276557444181,
                0.011281183820000774,
                -1.6285935897870611,
                -0.6847970078498034,
                -0.14803368519039295,
                -0.9998942483534846,
                0.6052274942690884,
                -1.1662113209080294,
                0.6191975006152757,
                -0.21082265756192328,
                0.9054065305501596,
                -0.6997306966014792,
                -1.7068411462444322,
                -1.523529414348186,
                -1.509841391234775,
                -1.0292480618057545,
                -0.04560613748930604,
                1.7308148780585129,
                1.667427749499788,
                0.754211948428302,
                -0.6038258159862472,
                1.2556200634716053
            ],
            [
                -0.3242309120483639,
                1.0848467745094388,
                -0.23833628759495537,
                -1.1463803380582183,
                1.3490606564739902,
                -1.4720177275613933,
                0.47274116381206716,
                -0.32192078227112464,
                -0.3450793913257086,
                -0.10961876457871637,
                0.6939914262682999,
                1.7622989932962587,
                0.8840662964086461,
                -1.1483242028092024,
                0.4454801460726694,
                -1.1441567140874784,
                0.23460105941118523,
                0.7815053790594962,
                0.2963505613793036,
                0.5476166767462004,
                -0.5750102615417109,
                0.3314079865735158,
                -0.4017788904739081,
                -1.1416478058971293,
                -0.09731351394597308,
                -0.7090179054543317,
                -0.9452289606444344,
                -0.055033160595095644,
                0.5055951829897494,
                -1.4174819161538001
            ],
            [
                0.8903021854873008,
                0.2167535556626204,
                -1.4296938453546981,
                -0.4840529839952831,
                -0.9000822839880319,
                0.13609877402392442,
                -0.3579170986609536,
                0.14516051921052192,
                0.8604630319933843,
                0.21917905025622694,
                -0.5965197678665958,
                -0.9030275049416455,
                -1.267593197027203,
                -0.12421967531183535,
                -0.3048898636977143,
                0.631192360620918,
                1.5134253211315136,
                -1.5937707266165588,
                1.6178359185005327,
                -0.826354017303859,
                2.295396507309456,
                -1.0293636069498455,
                -0.11739644472142771,
                0.22502962055075798,
                -0.6820084937155283,
                1.4100698070920814,
                0.579311142593275,
                0.6854393595194683,
                0.4229558004855,
                1.353866438014385
            ],
            [
                0.09577363201318763,
                -1.0015994124386771,
                0.08919672157106934,
                1.477518538502969,
                1.6077762099701483,
                -0.8760623054123573,
                -0.696557529653492,
                -0.5261535996561181,
                -1.1866906115133786,
                0.5693557494884711,
                -0.08433313861389256,
                0.0416213397277214,
                1.2680168176270674,
                -1.7991625859403477,
                -0.17396776656721016,
                1.7026331860521469,
                -0.99478830394144,
                -0.5533781848526353,
                -1.4149785259688592,
                -1.0608963697779306,
                -0.9668389867314013,
                -0.6317069719119572,
                0.1256161670290738,
                0.36903734266006893,
                1.5199903591979762,
                -1.473970056638755,
                0.2468376128144803,
                1.1552909414177899,
                1.1568820166864606,
                1.1918584642998324
            ],
            [
                1.9618564513491437,
                -1.240222368726572,
                0.8449012790805531,
                -0.9669062057771833,
                -1.4243473558661077,
                -0.26618844261516605,
                -0.2484890598559082,
                -2.367027256601737,
                -0.2775444207381875,
                0.2851248261735752,
                0.8057147025659902,
                1.21744021258283,
                -0.48029226107203055,
                -0.3134944627519549,
                1.265113414675739,
                -0.8870269510550415,
                -0.08230312715139759,
                -0.3573652513771742,
                -1.335971390317786,
                -0.2894305739319461,
                -0.37425468755174734,
                -0.060020944474847,
                -0.7117346932011985,
                -1.1236394336889475,
                -0.4366743583422157,
                -0.29052307255911736,
                1.292172416617985,
                0.5678263014372461,
                0.4823737556220808,
                1.4197571945094947
            ]
        ],
        [
            [
                1.937725306607889,
                -1.3193380892609903,
                -0.9388820272021792,
                -1.6681385461461151,
                0.44632634214471084,
                0.1969551610726276,
                0.3571164728295943,
                -0.35709533843665103,
                -0.27930669325618673,
                0.4712162842798275,
                0.18507827660209952,
                0.40432342867124377,
                -0.39832024650117537,
                -0.771485153464411,
                1.1494963156737026,
                0.9046038402614807,
                -0.5061886625388797,
                -0.03236818515473601,
                -1.258596717893509,
                0.5517215795168702,
                -0.1740646583595385,
                -0.09064649057544073,
                -2.0058313156276117,
                0.8052326421664737,
                0.7783929082700307,
                -0.5042107310279706,
                -0.14822553490468524,
                -0.05864267994365669,
                -1.066885025319367,
                0.001947535634597693
            ],
            [
                -1.2526084905925772,
                0.5458837849123452,
                -0.0387104156664372,
                0.26598374696313554,
                -0.42425313319905184,
                0.1698602394133328,
                -0.4527707030633554,
                -0.058492762963507416,
                1.1429132540711464,
                1.8665604908923448,
                1.7230866379251584,
                -0.7252781016789476,
                -0.8028927984384919,
                -0.2438346553639927,
                0.14862579526364145,
                0.9590006205719754,
                -0.11852961597314834,
                0.6111699945036346,
                -0.43735978506443896,
                -0.19260775713754896,
                -0.48833134679591933,
                0.21296559203616824,
                0.19579364676142427,
                2.6166293507770444,
                0.06298903679620582,
                -0.4230383144363885,
                -1.6232354254100967,
                -1.056864856792787,
                0.3108777388322881,
                1.5894688929939547
            ],
            [
                1.0009570146944315,
                1.900269239484233,
                -0.5188221485162813,
                -0.5210883169221727,
                -0.9400891699590105,
                -0.23118736028132814,
                -0.6034835881954308,
                1.2298042117381969,
                0.31642794113470313,
                0.026756324251212847,
                -0.5580669640273088,
                -0.9972012619457887,
                -0.9215563559683525,
                1.4059553367490947,
                0.1765332628882159,
                0.871206328499543,
                -2.274976562919295,
                1.1503426697792394,
                -1.0955776256763934,
                0.2902018395910609,
                1.133725499573363,
                0.4126358045865736,
                -0.046961226000909476,
                -0.9448097608455625,
                1.774455677935661,
                0.27269894799266653,
                0.5951154642166957,
                -0.9048379238378562,
                1.7073652653947977,
                -1.282714471556221
            ]
        ]
    ],
    "epochs": 6000,
    "mini_batch_size": 14,
    "eta": 0.1,
    "error": 0.01
}