{
    "sizes": [
        6,
        30,
        30,
        3
    ],
    "biases": [
        [
            [
                0.5216608742488607
            ],
            [
                1.508055912598525
            ],
            [
                0.8054149663954002
            ],
            [
                0.9013726513796826
            ],
            [
                -1.3293474591882175
            ],
            [
                1.655228901757055
            ],
            [
                0.6236981328592128
            ],
            [
                0.7650455016418233
            ],
            [
                -0.20134808517086797
            ],
            [
                0.6687772684856423
            ],
            [
                -0.842887431337519
            ],
            [
                1.505527212109666
            ],
            [
                1.348130936395165
            ],
            [
                -2.464340785371781
            ],
            [
                -0.3367596859671132
            ],
            [
                1.3619634795437439
            ],
            [
                0.1541481668087131
            ],
            [
                0.05749178764221524
            ],
            [
                -0.5744514457548388
            ],
            [
                1.1351241037502922
            ],
            [
                0.0024800788554794305
            ],
            [
                -1.3598058158410689
            ],
            [
                1.2519072339624457
            ],
            [
                -0.3660329966414104
            ],
            [
                -0.6837569949719673
            ],
            [
                1.4278177124181903
            ],
            [
                -1.5645745367740125
            ],
            [
                1.7199450128149425
            ],
            [
                0.7915845763182705
            ],
            [
                1.643580534914303
            ]
        ],
        [
            [
                -1.1925457269843305
            ],
            [
                -0.308966538886358
            ],
            [
                -0.6824916263936633
            ],
            [
                1.097519532916846
            ],
            [
                -1.5250342170587414
            ],
            [
                1.3492076885287643
            ],
            [
                -1.3936955198478655
            ],
            [
                -1.6803535324688041
            ],
            [
                1.1303580147975725
            ],
            [
                0.30773281838801875
            ],
            [
                0.2358467679812339
            ],
            [
                -1.2811402192863073
            ],
            [
                0.2110617348764172
            ],
            [
                0.31542760984660184
            ],
            [
                0.7191989424871382
            ],
            [
                1.0593216451648344
            ],
            [
                -1.247342108734255
            ],
            [
                -1.2848831401256577
            ],
            [
                0.6067563818758581
            ],
            [
                0.5915210990051805
            ],
            [
                -0.19305796634305356
            ],
            [
                1.6684749227810807
            ],
            [
                0.31676188926692855
            ],
            [
                0.7258119494801741
            ],
            [
                0.29150332447895305
            ],
            [
                -0.5447408095394158
            ],
            [
                -0.9776334483978516
            ],
            [
                -0.011989543800352323
            ],
            [
                -0.041161863562437964
            ],
            [
                -0.05474611881512957
            ]
        ],
        [
            [
                0.08669563951129937
            ],
            [
                1.5927566041556238
            ],
            [
                0.18771321050640305
            ]
        ]
    ],
    "weights": [
        [
            [
                0.21381528260160254,
                0.3104292384172441,
                -2.8851858948880857,
                1.6461975300658587,
                -0.5913418207712566,
                1.4558206154957645
            ],
            [
                -0.41030636896272604,
                1.0739763535688722,
                1.279057810824708,
                -0.7599913104910492,
                0.44552839829192914,
                -0.27643665102618686
            ],
            [
                1.182274833522018,
                0.07878845320802891,
                -0.6059875911758401,
                -0.11373818354909472,
                0.18256289497035827,
                -0.7446788259994597
            ],
            [
                -0.5080796894375798,
                -1.8165163338877863,
                1.1887244814385045,
                -0.023549160314185157,
                -0.4590570698288813,
                0.31697349650811224
            ],
            [
                0.5886789050502619,
                -1.038550127741442,
                0.3892373291753657,
                -1.00405460922175,
                0.48875949597204654,
                -0.8560774959852285
            ],
            [
                -0.22948712653570302,
                1.3134694045603408,
                1.209179801650665,
                2.023613762922495,
                -0.3026926796564301,
                -0.2697168039278698
            ],
            [
                -0.9888320382965327,
                -0.4205549589838569,
                0.28442320119563325,
                -0.04776454534775791,
                -0.3227659314000532,
                -1.6898648854249807
            ],
            [
                0.7917269063388099,
                -0.4796553924428419,
                0.5111314130959901,
                0.1642197733458875,
                0.7663724810143908,
                -1.1766435654591005
            ],
            [
                1.3521189022405815,
                -1.5372645744195839,
                -0.912897776129643,
                -2.0292712426784583,
                -0.5431883014686245,
                -0.517762283217311
            ],
            [
                -0.474725689698408,
                -3.07922941747666,
                0.570947350644786,
                -0.4863625051394834,
                0.3589302031548347,
                1.454920956098849
            ],
            [
                -0.4143957530836871,
                -1.2006257337788142,
                0.7676582455303436,
                -2.076469338996501,
                0.9113928801389622,
                1.1240027109752435
            ],
            [
                -1.0455812669945828,
                -0.9642575344912465,
                -1.786076144074757,
                -0.02904709481684668,
                0.950704956054871,
                0.9780296250718334
            ],
            [
                -0.09167893458319767,
                0.6279094531246343,
                -0.021960364102445482,
                -0.11487536933919137,
                1.4555391486261418,
                -2.561005182602528
            ],
            [
                0.17218069787041407,
                -1.1431718399271136,
                -0.5758326663969293,
                -0.33365320531465836,
                -2.0353722938547834,
                -0.1699900378075317
            ],
            [
                0.7004154333688268,
                0.40728505437801216,
                0.23058183298543813,
                0.47922040864030097,
                -2.26651943775276,
                0.05598671174804782
            ],
            [
                -1.256992507843722,
                0.47995426515232,
                -1.6844425294855874,
                -0.8153308986931085,
                0.4607193579196706,
                1.5002761937661226
            ],
            [
                -1.9427016460614615,
                -1.2576915593304967,
                0.7131979485014374,
                -0.7677386709069175,
                0.9657845103129463,
                1.708347556118399
            ],
            [
                -0.518063765738786,
                -0.5063972570370341,
                0.43465918450857044,
                0.7988953254026872,
                0.2559316687408269,
                0.6230733000184107
            ],
            [
                -0.9032847828420599,
                0.7803788023336399,
                -0.5548378349317712,
                -0.37194865103171965,
                -0.5925115193362659,
                -0.9667121372300432
            ],
            [
                -1.5304974009576433,
                1.0711663423075486,
                -0.3916126136720827,
                1.0682314639063568,
                1.0082944882906844,
                1.5924216017291497
            ],
            [
                -0.4106776856379001,
                0.19246822838100655,
                0.6480853843189381,
                1.2150957029396934,
                1.8711479631572645,
                -1.6595992035330056
            ],
            [
                -0.9520469897299114,
                -1.586949793287934,
                -1.1151625182877867,
                0.518237994763296,
                0.4424934819121693,
                -2.644007436568034
            ],
            [
                -0.8179373698595237,
                0.6600336180835937,
                -1.2233983249560318,
                -0.25614627920651134,
                -0.044944109798981294,
                0.4701249138125612
            ],
            [
                0.40243288677272543,
                0.7268305786278971,
                0.08709758723422571,
                -0.2140860137757619,
                0.5288669617165125,
                -0.788164473937007
            ],
            [
                0.396805243096222,
                -0.8976421173234165,
                -0.3098490277532913,
                1.6356494796813779,
                -2.1209990026406227,
                -0.17421176349792786
            ],
            [
                -0.3181419203009699,
                -0.933599598480362,
                -1.370684243490736,
                1.65419769996625,
                0.17070498657249963,
                -1.6550484405460795
            ],
            [
                -0.193712160846078,
                0.032777127554381405,
                1.966706144133192,
                0.7915796416393536,
                -0.1622044619484127,
                -0.4109180858181534
            ],
            [
                -1.8410780662181587,
                0.48939850143237124,
                1.2065542344825897,
                0.011103575593102172,
                0.08523779878869762,
                0.7463995088012616
            ],
            [
                0.0067409089363861035,
                -1.6277278532079706,
                1.4546461401306119,
                -0.860519144059078,
                -0.46953450226747134,
                -1.5583123082043595
            ],
            [
                -1.3192664421763765,
                1.3049754355613352,
                -0.05701668106491959,
                -0.23423392982955593,
                0.2817792040721934,
                0.8516842674649013
            ]
        ],
        [
            [
                -0.4405836558395879,
                -0.3342236581037298,
                1.7903463012382559,
                -0.3188551623230122,
                0.22633141174783897,
                0.6526555413085076,
                0.3626415793576845,
                1.04497904058225,
                0.9470297717368438,
                -0.8825277999043061,
                -1.5797761457431423,
                0.17838494538284808,
                0.3601383650335424,
                -2.2456470752438893,
                -1.023725724521789,
                -1.6929370642255137,
                0.07840585862508692,
                -0.2206060585425285,
                -0.6851988972044034,
                1.9609925015975407,
                -0.5242236462239389,
                -0.37417208169750277,
                0.9333768793749705,
                1.0213509766624511,
                0.1636396251834637,
                0.6219211142554717,
                0.3052856134664543,
                1.1640199880316784,
                0.8380446152678581,
                -0.47619385339263387
            ],
            [
                -0.7639232995028328,
                0.7853303652195136,
                -0.551477506977987,
                0.5446915523424317,
                0.26025986212311736,
                -0.5465613142407099,
                1.9049425478032282,
                -0.04391847032221024,
                -1.5628465426143305,
                -0.9732512728716562,
                0.5778232752635238,
                0.8625195158451753,
                -1.9185404605586824,
                0.738957351861819,
                -2.2293195343217183,
                1.1196298288448099,
                -1.897672019831799,
                -0.28101083875469385,
                -0.0753132190009209,
                -1.0803679011005471,
                -1.7068953041033752,
                1.868810361315146,
                -0.6300787101671036,
                -0.0854084696745158,
                0.13210652776330792,
                1.1039962888127655,
                0.899974819232957,
                0.43304843220200895,
                0.22000262576100696,
                1.6784783448406375
            ],
            [
                0.5296068929342295,
                1.2988488982645758,
                0.03854866882541638,
                2.3099574581323257,
                0.7577294369922993,
                0.9491417539329922,
                -0.852278918874484,
                -0.047001540191293864,
                -0.012649552114108367,
                -1.2130556529457674,
                0.43558896801652097,
                0.8492240243202228,
                -0.2417509588759825,
                1.2331339472004674,
                -2.608461057124748,
                -0.37616470138415087,
                -0.7176151034592704,
                1.359368925935317,
                -0.6632930193930733,
                -1.3495017493146053,
                -1.2822746626407964,
                -0.40904277692223484,
                -0.6807255006267234,
                -0.5989201765188195,
                0.7719451200175055,
                -0.9389555574030535,
                -0.5609786658704032,
                1.4967740721769907,
                -0.5615699342311515,
                0.7526338593149776
            ],
            [
                -2.41224813952704,
                0.2667437062402266,
                -0.11844621784817191,
                0.2629908923249806,
                0.5368410058112938,
                -0.5791853529782696,
                -1.0395896861726888,
                -1.3614775183548398,
                -1.0376463850157636,
                0.6743607655091516,
                -0.10002817656903824,
                0.06665387624541819,
                0.576183897421054,
                -0.6275912955376439,
                1.8418014742424131,
                -0.29944750645825036,
                0.4620127275105334,
                0.8684689961691495,
                -1.3637240028879765,
                0.16855262552990463,
                -0.08396103802183452,
                1.7731573081556236,
                -0.9286543268660593,
                0.7702972616410941,
                -0.1505337345973134,
                0.8619160989981552,
                1.0123459501913543,
                0.037209583272797254,
                0.5186703454563736,
                -0.16266279688051677
            ],
            [
                1.3129614779657652,
                1.635001538861539,
                -2.2040208639392573,
                -0.5358877187923402,
                0.9529512917953894,
                0.13524570222482202,
                0.310959436556771,
                0.15686890765107603,
                0.8459649511358797,
                -0.4623400420334669,
                -0.07868268988042353,
                -1.2898442216810135,
                0.6902633930246095,
                0.25550065863801946,
                1.9229927982567374,
                -1.5051391760272117,
                -0.5828684949027403,
                -1.2448834928193884,
                -1.5095551818320618,
                0.9161260703889671,
                2.1421767683669475,
                -2.37785191318058,
                1.333467423724874,
                1.8538194180968288,
                -1.1626857923395044,
                1.5264889610195136,
                -0.7219396837553028,
                -0.3357943611249768,
                -0.07142722417348325,
                -1.3832994210578227
            ],
            [
                1.0746665176809846,
                0.36773451542808605,
                -0.42998982068905334,
                0.9165165562070898,
                1.6684785345819144,
                0.36397562317261845,
                -2.494266945746472,
                2.0101279372844454,
                -2.144881824139271,
                -1.1083743364437115,
                0.45955850227686496,
                -0.8038211023054953,
                -2.40560726498056,
                -0.39204768009984997,
                1.6320147838055732,
                -0.8901080365417948,
                -0.8854742568115673,
                -1.181868635921481,
                -0.662129997498544,
                2.135288967246517,
                -0.986649229275311,
                -0.49455212515716973,
                0.28124991291510587,
                -0.8565919345922444,
                2.0783384292609615,
                -1.1771731590115955,
                2.3631645780113426,
                -0.6311280198809941,
                -2.0272714307690167,
                -0.36427615976276073
            ],
            [
                -0.4202758349408299,
                1.1349836592051374,
                -0.9318078944752884,
                -0.304948597820767,
                2.0506183854542606,
                -0.12848859390089062,
                -0.028401615091661545,
                0.8895677725232424,
                0.2737307941051136,
                -2.2650946459280457,
                -1.4362107381022784,
                0.07034622704841764,
                0.006105441744362086,
                -0.6256114408258123,
                0.2323870176901284,
                -0.8264419770916697,
                -1.016635084947781,
                1.2631785045856887,
                -1.446559630209382,
                -0.48633768184938514,
                0.05734851430647117,
                0.8024568229547123,
                0.4979108229076727,
                -0.33866516403764135,
                -0.743848932343845,
                1.7409991995414116,
                -0.26669168828187295,
                -0.17317072188194738,
                -0.9184480361635217,
                0.34976615047244597
            ],
            [
                -0.4529153542241487,
                -1.2908846695557727,
                -0.8596302281821477,
                -0.9122219211678068,
                -0.22554564159156665,
                -8.241567914654664e-06,
                -0.9708504556464412,
                0.45884844774125616,
                -0.4953867130896887,
                0.3446405021558288,
                0.3958060776116821,
                -1.3711022550713965,
                0.3643009216921177,
                -1.090963002991803,
                1.5500787987555285,
                -0.3389281760478126,
                0.17002417028320155,
                -0.8473079293603372,
                0.24470436090670372,
                -0.3200674475989873,
                -0.7584564496982951,
                -0.16988524193687116,
                1.572678586000094,
                0.20241717992346875,
                0.1147707234143589,
                -0.6880591047362601,
                -0.5468225568069013,
                -2.8366921243188403,
                -0.5122116404721103,
                -1.4229481431407418
            ],
            [
                0.772284750044091,
                -1.2647461335309533,
                -0.02244633245198716,
                -0.12043638809442543,
                0.5842638062859938,
                0.37165326350301137,
                -1.2292520682808634,
                1.0197214942345627,
                0.7154107475703871,
                2.0741632858298993,
                -0.08974270466978054,
                0.635081944713945,
                -0.5350032725612067,
                -0.10096948817534156,
                -0.47809319032591713,
                0.5394508990679263,
                -0.7127184041111647,
                -0.06761451473031167,
                0.08578673440653771,
                0.8689045830301285,
                -1.3999257965792786,
                1.3121310216588582,
                -1.228932369699305,
                -2.215129957736514,
                0.5953692760403142,
                1.6590578129980194,
                0.463358298118673,
                -0.5247871117722713,
                2.299638882620955,
                2.0074373547690985
            ],
            [
                1.8661632897924962,
                -1.1441141835442372,
                0.7756098873098085,
                -1.3704635046071834,
                -0.17582794146532824,
                0.3107097295075862,
                -0.46135161529744245,
                -1.196814379330514,
                -1.56110931409401,
                0.9100376968895774,
                -0.8212977686284141,
                -0.5166576468007043,
                -0.9214130703656265,
                -1.5144178742520757,
                0.6210209199255612,
                0.30734489481861976,
                1.2659647635531588,
                -0.38240821125548846,
                -1.3190299119880102,
                -0.3213372457997212,
                -0.6327741287205564,
                -0.6050512231727586,
                1.0597566065158046,
                -0.35752784428117784,
                0.17041398842585667,
                -0.6856446742615702,
                -0.4761572723294033,
                -1.9788119306279552,
                -0.5680817983190434,
                -0.018093680221132113
            ],
            [
                1.4895642328506082,
                0.195966163286648,
                -0.22344892015791656,
                -2.0626389689686646,
                1.3522530531896284,
                -0.12300931758837158,
                -1.435304032624501,
                2.316720400086841,
                1.0347179132876012,
                -0.33643460677310993,
                0.830504269418846,
                -0.08785532591247759,
                -0.08192678070865737,
                -1.221323049876591,
                -1.9610346149472102,
                0.6108412827831325,
                -1.2075378723541557,
                1.3826304421036475,
                0.051750421536695214,
                -1.4676424881331938,
                -1.3584685292605219,
                -0.5765905837207921,
                0.5295263489860174,
                -0.7170634821116243,
                -1.0888613332590902,
                -0.18914131689446323,
                -1.06577823002293,
                -1.957832504116448,
                1.2304308402119963,
                1.335910014507091
            ],
            [
                -0.3001875032243938,
                -0.41291841105244226,
                -0.6155831124667758,
                -0.49529363497574064,
                0.7759264585604548,
                0.35878340126875424,
                -0.09603148096601906,
                0.425544908783791,
                0.37634538793969213,
                -0.738988450123961,
                -1.228569639166891,
                -1.1306011091491714,
                -0.297090821348959,
                -0.3320313158090058,
                0.224211454687685,
                -0.406342033499738,
                -2.0015078558375476,
                -0.10956923774803438,
                -1.2721244028815875,
                -1.1800638901755554,
                0.06257274989892313,
                -0.25334490229836376,
                -0.8847871848806723,
                0.6492552353601868,
                -0.17773641280968483,
                -1.4606560991689035,
                0.5107044622450979,
                0.7637345708863936,
                -0.6583376628080332,
                0.3387707774528127
            ],
            [
                -1.554849887558172,
                -0.24625768441959403,
                2.18842821973939,
                0.6661395909838059,
                -0.3697488247257594,
                -1.2764037022824413,
                -1.50168549657506,
                -0.04523824362950368,
                -0.9660408412065618,
                0.18274934208326732,
                0.25649592499322155,
                1.141591696708461,
                1.3261386971575737,
                0.31572721424138267,
                -0.9450948867666451,
                -0.21302784755937332,
                -1.8492464803170858,
                -2.5037146798850087,
                -1.7660199322909278,
                0.31194448696504,
                1.180657782128591,
                -0.8441845385194703,
                1.5659099806676677,
                -0.5749377065602396,
                1.4974292130960554,
                0.25025631589349134,
                -2.0928952662748572,
                -0.11717198930934451,
                0.5259188049347222,
                -1.42186515411588
            ],
            [
                -0.20012275495449033,
                0.2029412638655046,
                0.5700534325020749,
                -0.6113041261491817,
                -0.044815527869295296,
                1.196990538145762,
                -0.14726449941427,
                -0.6903138819314903,
                0.2778914529903918,
                0.6256667881179117,
                -1.3643036063829102,
                0.10525312476676423,
                -0.07814967916512496,
                0.18754594467105967,
                0.5608953621670393,
                1.6612687645507214,
                1.1213564838964065,
                -0.12834440897596625,
                -0.20285327363980868,
                -0.19046584840873282,
                0.2435180162864189,
                -0.9931851111208397,
                0.7876910484542499,
                1.989757839299848,
                1.3151935034898723,
                1.567079357622371,
                -0.21341087582672066,
                0.24998522829174644,
                -1.3025591205316485,
                -0.1344547933098103
            ],
            [
                -0.8604614502477481,
                0.6957868512750768,
                -0.866510807059463,
                -2.7455635987177347,
                -0.3406917331462977,
                -0.6647290571469565,
                1.2374779450847235,
                1.046844285320117,
                0.2996698046544543,
                -0.8963004902072208,
                0.10812974257927929,
                0.5186826228945912,
                -0.6433486675897492,
                0.17228391317651914,
                -1.3998283650645191,
                -1.0401670818929034,
                1.2059521911285296,
                1.284560581374794,
                0.9454811501336168,
                -0.2893791541099503,
                -0.7968709346805196,
                1.326427672875414,
                -1.3965163629880142,
                0.9594723723103249,
                0.29988219886656253,
                0.5867321260551738,
                0.9592391456456009,
                1.1691086858986015,
                0.39722636796766897,
                -2.8397521059175808
            ],
            [
                1.7842539869810874,
                0.014965879741128908,
                1.1732978155545155,
                0.5586470002284759,
                1.6341442964666646,
                -0.003443138639725941,
                -0.5097410769474973,
                1.1968188802297348,
                0.7868508701483781,
                0.6534215138314385,
                1.3328890713553225,
                0.8639164859919527,
                1.66249570619562,
                -2.0551445290622725,
                -1.6790576876133632,
                0.9131649289981872,
                0.5697188307284327,
                0.6869192443048027,
                1.0068394111847871,
                -0.21290251696310417,
                -0.9669918213680908,
                0.11907181034971591,
                0.3436508093707285,
                -0.3061480845194391,
                0.9296651416981907,
                0.3969981344973172,
                -0.8192977060830429,
                -1.111571442081917,
                0.03805733077321255,
                0.8066698025273296
            ],
            [
                0.788928778349285,
                0.6115279373559059,
                0.8742120526066627,
                1.1899044592450598,
                -0.2601686643170439,
                1.3402210627532671,
                0.3038562575663474,
                -0.416000650516501,
                -0.9301056391493744,
                -1.0903794061615057,
                0.8381857440576702,
                1.0820662915192665,
                0.11668152758977614,
                0.32164617501091325,
                1.8266555832999511,
                0.38110426436958184,
                -0.5506092353489933,
                -0.48197877869087524,
                0.5771359418487926,
                0.021258908943711505,
                1.4569504791829013,
                0.6046900645877562,
                -0.03880337019590039,
                0.07770127054025916,
                1.3892345444890428,
                0.3903313888437913,
                -1.934349315425861,
                1.007008114625583,
                0.0631509231913745,
                -1.897814237040616
            ],
            [
                0.5997512932197298,
                0.5269773300888279,
                -1.2289137797314265,
                -0.047094021014232865,
                -0.9432619055179496,
                0.5765204539995671,
                1.3042995155646204,
                0.023230558114152262,
                0.6906483191587293,
                0.2409189467438044,
                1.2155781073661347,
                0.9701587683099353,
                -0.41239251820239314,
                1.6996075445370102,
                0.674712976191356,
                -0.774596766358246,
                -1.0504020750684255,
                -1.0009412422335278,
                0.0915801879151593,
                0.0930864410966281,
                0.04968052795828041,
                -0.8010182382509052,
                0.06531088082864518,
                1.3781442560559054,
                -0.682401563822448,
                0.7476312910676826,
                0.7161114496285989,
                -2.170206459401436,
                -0.7262033717819639,
                -0.46066115490220017
            ],
            [
                -1.1587401565949897,
                0.5692061123029505,
                -1.1499292789224493,
                0.3572365771835752,
                -1.0810875096296864,
                -0.09675235864798343,
                -0.846350593835012,
                0.8178100234261471,
                -1.6868520692584739,
                0.5776248442882483,
                1.4680198707821461,
                -0.4561333311962444,
                0.0386537156505746,
                -0.38815483425049463,
                0.43465943891398723,
                0.4797828675892515,
                0.594186672677166,
                -2.171018272781553,
                -1.2115727445217863,
                -0.3434116112216486,
                0.08648326443784278,
                -1.4151948558283578,
                -0.4495466322848528,
                0.23760757076859704,
                -0.24399268159169843,
                -0.7277445311945734,
                0.2953256973321191,
                -0.3394651079465689,
                -2.303697328387931,
                0.8200149675030007
            ],
            [
                -0.8751870754645232,
                -0.2133286647007291,
                -0.6193710075805657,
                -1.4467099491020756,
                0.3140577064978653,
                0.6351280956142039,
                -0.000739793692980676,
                -1.0450366755409397,
                -0.8142253945877312,
                0.3628072924402956,
                0.23226967729106837,
                0.1417255548690434,
                0.17188106505910486,
                -0.07691784049633762,
                -1.3163208131308854,
                -0.0031993217214418127,
                0.6136188344176294,
                0.0041181249723063465,
                -1.4011659486020407,
                -1.0784496531081327,
                0.22305093938745554,
                -0.22181191032079303,
                0.3361580655288127,
                0.3525187424084486,
                -0.8130888905869044,
                0.1527553177448856,
                -1.9401339981900692,
                1.4312364527540298,
                1.7547496990678202,
                -1.1052474714377671
            ],
            [
                -0.7819173010117337,
                -0.17856278928894964,
                0.7239117983259841,
                0.6806469978890678,
                0.7682384828554455,
                0.2888175406201785,
                -0.8109654103912407,
                -0.013708196086221282,
                0.9233440008949357,
                -1.0416132587213813,
                -0.5007387127690531,
                -0.49668273837782034,
                0.7125576527414023,
                -0.19311306036364673,
                -0.3539881850543456,
                -1.4535838390564382,
                -0.0618627650782986,
                -0.9238426220510758,
                0.17053036767155652,
                -2.532145930702206,
                -0.39800988348271493,
                0.6815489799416057,
                -1.8053845218896054,
                0.21799350281648197,
                -0.6382794121793661,
                -0.6322670484265411,
                0.152827148573442,
                -0.21520984806096813,
                0.2517507210604609,
                1.090725216223267
            ],
            [
                -0.15116457376193987,
                -0.007553018794924462,
                0.7323119557176367,
                1.1000429220534653,
                -0.16920586109544308,
                1.149764229295723,
                -0.5926588820970183,
                2.161655097701791,
                -0.2445943305486361,
                -0.5916452551567274,
                1.3202731065552344,
                -0.19787911181306037,
                1.2756254487304273,
                -0.8975297397411417,
                -0.4695399633599131,
                0.3415684742302736,
                -0.03023363722062494,
                -0.6732133921503184,
                0.2796730937713526,
                0.07821182551161579,
                1.975845393371593,
                0.7923696325593521,
                2.1942162168185546,
                -2.636889051829059,
                -0.178341695283294,
                0.9135789984781635,
                -0.3746597488688209,
                0.7272894490667308,
                0.8859154016199983,
                0.7036163689751243
            ],
            [
                -0.29769625778108194,
                -0.1815730035778359,
                1.7923923206092713,
                0.37998804027415367,
                0.375673752220762,
                -0.5230900238364194,
                -0.9360620606734662,
                1.7832541134562503,
                -0.9025758450919135,
                0.743877390386399,
                0.18646428545325078,
                0.17303848396119068,
                0.1987369382630684,
                0.4420056746806133,
                -0.594689826213057,
                -0.41139861224298313,
                -0.5236576225175961,
                1.0656782248147645,
                -1.408616449032061,
                -0.49279037674691484,
                0.5338043000684509,
                -0.4312107805127026,
                -0.6522160122723415,
                -1.199248151625697,
                -0.22324809460750353,
                -1.2226200167807517,
                0.9511872410332105,
                1.1170796303495103,
                -0.6123103738241176,
                -0.7263209791796517
            ],
            [
                0.18941020448215232,
                0.9832063114365298,
                -0.22784895429901672,
                -0.9333255937198288,
                0.5833828899389822,
                1.69236320806377,
                -0.994384837099098,
                0.4045762980464206,
                -0.5099820889019081,
                -0.7532318089448828,
                -0.2622314571078707,
                -0.19594660191785188,
                1.4352937826401648,
                -0.20299717984013418,
                0.04971131018908304,
                1.5807936859978626,
                -0.42128390441823826,
                0.462439423055659,
                0.7442439562381008,
                0.7433216569486593,
                -1.0087526456976734,
                -0.10504395181253152,
                -1.7762235305372887,
                0.312904323909579,
                1.7635174848550932,
                0.8365688587363049,
                1.1123681236387575,
                0.8000621063950956,
                1.5625978759660963,
                -0.9205801831963029
            ],
            [
                1.7675913404763088,
                -0.9255347072636915,
                0.9958331337807473,
                -1.6443651718584107,
                0.5081167165600082,
                -0.944051371437339,
                0.9741869721770274,
                -0.016804747315724834,
                -0.785859994333719,
                -0.28772670161930763,
                0.46180667528686725,
                -1.2239221283705743,
                -0.5875948903317518,
                0.48311666430025557,
                0.22915358857500528,
                -0.34316807510840425,
                0.779025153457424,
                -1.13550021844219,
                -0.35205867097711074,
                0.23526494687104196,
                -1.318162260832386,
                -0.9120224082961258,
                0.9108562947579663,
                1.0442620595967773,
                -1.9973883998970656,
                0.549995077627118,
                -2.2020861570448638,
                0.4881982031429496,
                0.12826873332920133,
                -0.09641015356412203
            ],
            [
                -1.5643516696564654,
                0.06645926425762246,
                -0.9763115368436146,
                -0.5622291753863817,
                -0.7819912394693769,
                -0.3518084040061625,
                -0.5895492047633301,
                0.1980364306853676,
                2.56205532820703,
                -0.05737768588141632,
                -1.7993550845810473,
                1.0768089317033933,
                -0.08831182167948393,
                1.1676717760736117,
                0.3690542491229258,
                -0.31533388386164973,
                0.35064449347561716,
                -0.5773856129248001,
                0.1993094275703002,
                0.288040987724864,
                0.9937139795931419,
                -1.0051307197710373,
                1.477556782542706,
                0.12788481573836108,
                -0.4211774015175535,
                -0.6332425112184706,
                0.11883158314686186,
                -0.28358374049594826,
                -0.9748739022822914,
                0.05280637560815851
            ],
            [
                0.4516314345856922,
                0.7380541259446652,
                -0.9930888495030522,
                1.093284562348034,
                1.6347482668342397,
                -0.2348321394574832,
                -0.7511862351758908,
                -0.970448709508194,
                0.4096935475716796,
                0.8877252922439153,
                0.1370465106094731,
                -0.07737051810858613,
                -0.8760744954923163,
                0.20343252712626328,
                0.8043440926486298,
                -0.48765956972055274,
                -0.04100723224600941,
                1.0865087342494082,
                0.454312485333761,
                -0.399844365962195,
                -0.6864091335485408,
                0.9254143287299976,
                1.2306935372568122,
                0.3624898321295237,
                -1.6353438125807755,
                0.7542632749507475,
                -0.006938102265969658,
                2.2773830477671577,
                -0.7911131675598411,
                1.2213335508989664
            ],
            [
                -1.9753156257361757,
                0.09841205215110743,
                1.07537884272454,
                -1.273223194154237,
                0.8850830621223175,
                -0.7867442207422759,
                0.6505292414803946,
                -0.516749345869381,
                -0.4726250954469702,
                1.035050634053173,
                0.25020603947285536,
                -0.21449708705571355,
                0.010028339999640059,
                1.855091224402583,
                -0.5895914416968311,
                0.6172902345292846,
                -0.9933555916915496,
                0.7595604284057395,
                0.48096556840537646,
                -0.5126066542743822,
                -1.3054820214844969,
                -0.2802822601834933,
                0.16679939927200974,
                -0.16959274163739513,
                0.7378330871515338,
                -0.16205631702621742,
                -0.717010877412443,
                1.0800823676589346,
                -1.1860147705923376,
                -1.11638266762773
            ],
            [
                1.3435207138437302,
                -0.10613653603771445,
                -1.1482422755343886,
                1.7586561722077478,
                -0.7177557015473282,
                0.3148040108725048,
                -0.16201869335001962,
                0.5601362397044335,
                0.47241476549067757,
                -0.3895530379102917,
                1.3745285989575717,
                0.7562278447080235,
                -1.2226752572708752,
                -0.6354668785501747,
                -0.608790594375821,
                0.1890535578498174,
                -0.20654072513291755,
                -0.25911243072111834,
                0.7019984207621764,
                0.6899371134387434,
                -0.09419655295055658,
                0.4743199638821114,
                -0.2670304924127108,
                0.7123534735640276,
                0.5457628530103205,
                0.6743787263806601,
                2.002620693896072,
                -1.2424266726118784,
                1.8475088356206149,
                0.4804951080593404
            ],
            [
                -0.35868333540982306,
                0.16998323880596378,
                -0.10085432065569344,
                1.1200372605355686,
                1.1357053794120882,
                -0.729280420740116,
                0.95926074866411,
                0.030035816297329543,
                1.4063893381823975,
                -0.9393591488335139,
                0.0842556627921811,
                0.015221766517986741,
                0.8326240328370887,
                -1.2028157597356284,
                0.46402042261157866,
                0.040583862670919055,
                0.1310444677825592,
                0.6802349008718221,
                1.0024009804182663,
                0.7915330556099873,
                1.211652301711645,
                -1.352919601827779,
                0.28463828868689534,
                0.9629323380117287,
                -0.4681524760022873,
                0.08601385803141066,
                -0.008405406976465926,
                0.44864098952900905,
                0.6397646084286022,
                2.4663645780593013
            ]
        ],
        [
            [
                0.7465544552517428,
                -0.9551192058831199,
                -0.49596841962660243,
                -0.7977877414740037,
                -0.43138223906105305,
                -1.2475031765412425,
                -0.6164418061475585,
                1.2265127097835438,
                -1.5120161194630144,
                -0.9414962449202543,
                -0.0962893626429996,
                -0.3699536514943619,
                -0.1559443887523863,
                0.13705770543122248,
                -0.07203771226363802,
                -0.7179857781980162,
                0.3714413878867486,
                0.4546954438403744,
                -0.9122033302692818,
                -0.5680966700649112,
                -0.42111882632988895,
                2.5622770222674474,
                0.10038356642200719,
                0.06484517718067445,
                -0.22822422511451507,
                -0.7066646975888017,
                -0.27296086458474145,
                -2.4449928761532327,
                -0.04392456292669863,
                0.1976261205320963
            ],
            [
                0.929063158521281,
                -0.15240481222611166,
                0.03499365528003814,
                -0.6788271343422406,
                -0.12485790015081025,
                -0.16439711909665428,
                1.1144205180902886,
                -1.3266643455239207,
                -1.0160592038598966,
                -0.2090743596489776,
                -0.5443957547350248,
                2.1746668033151555,
                0.28710655329318313,
                0.15128854485694407,
                -0.5488163122864796,
                -1.1596640647613625,
                -0.3767291537590101,
                -0.7964329783720115,
                2.1469093505825234,
                1.1472133742398711,
                -0.923213787969606,
                0.12111962666717964,
                0.7068872049453269,
                -0.7264912627324728,
                -0.2737503092027489,
                -0.34113256194327574,
                0.24043582499363828,
                1.4934877099161006,
                0.0711497620072492,
                0.3734239992265797
            ],
            [
                -0.6791243029989855,
                -1.89264941876751,
                0.19686279787055422,
                -0.13886319279701984,
                -0.15790487585103874,
                1.0007331131134138,
                -0.5469281196895524,
                0.622334850803671,
                -0.12925151897346335,
                0.8843590934120859,
                -0.30399592259928065,
                0.6917631221037956,
                -0.8226416432652162,
                -1.4815350142903865,
                0.7474304270055573,
                -0.011594361055832444,
                -0.6084576034933447,
                0.2131715765923575,
                -0.5929412765296336,
                0.3095904063021444,
                -0.6298806756360446,
                0.3832966882509775,
                0.02219125726558876,
                0.6403141739087473,
                0.7956004456999788,
                0.8442759589593644,
                0.4694881609175484,
                -1.9589558908953824,
                2.33310526620812,
                -0.7211987566651008
            ]
        ]
    ],
    "epochs": 6000,
    "mini_batch_size": 14,
    "eta": 0.1,
    "error": 0.01
}